{"learner":{"attributes":{"scikit_learn":"{\"_estimator_type\": \"classifier\"}"},"feature_names":["score_if","score_ae","score_lstm","network_risk_score"],"feature_types":["float","float","float","float"],"gradient_booster":{"model":{"gbtree_model_param":{"num_parallel_tree":"1","num_trees":"100"},"iteration_indptr":[0,1,2,3,4,5,6,7,8,9,10,11,12,13,14,15,16,17,18,19,20,21,22,23,24,25,26,27,28,29,30,31,32,33,34,35,36,37,38,39,40,41,42,43,44,45,46,47,48,49,50,51,52,53,54,55,56,57,58,59,60,61,62,63,64,65,66,67,68,69,70,71,72,73,74,75,76,77,78,79,80,81,82,83,84,85,86,87,88,89,90,91,92,93,94,95,96,97,98,99,100],"tree_info":[0,0,0,0,0,0,0,0,0,0,0,0,0,0,0,0,0,0,0,0,0,0,0,0,0,0,0,0,0,0,0,0,0,0,0,0,0,0,0,0,0,0,0,0,0,0,0,0,0,0,0,0,0,0,0,0,0,0,0,0,0,0,0,0,0,0,0,0,0,0,0,0,0,0,0,0,0,0,0,0,0,0,0,0,0,0,0,0,0,0,0,0,0,0,0,0,0,0,0,0],"trees":[{"base_weights":[-1.6840242E-1,-1.1190765E0,4.254953E-1,-1.2307131E0,1.3020866E0,-1.2588446E0,-5.5770797E-1,1.0626471E-1,1.8212315E0,-1.2652312E-1,-1.069075E-1,-8.012202E-3,-9.468668E-2,7.807766E-2,-1.19374216E-1,-8.922836E-2,1.9163528E-1],"categories":[],"categories_nodes":[],"categories_segments":[],"categories_sizes":[],"default_left":[0,0,0,0,0,0,0,0,0,0,0,0,0,0,0,0,0],"id":0,"left_children":[1,3,-1,5,7,9,11,13,15,-1,-1,-1,-1,-1,-1,-1,-1],"loss_changes":[1.2088944E4,6.411333E2,0E0,4.212964E1,6.485097E1,1.2780762E0,1.7128096E1,2.9674692E1,2.0551086E1,0E0,0E0,0E0,0E0,0E0,0E0,0E0,0E0],"parents":[2147483647,0,0,1,1,3,3,4,4,5,5,6,6,7,7,8,8],"right_children":[2,4,-1,6,8,10,12,14,16,-1,-1,-1,-1,-1,-1,-1,-1],"split_conditions":[9.5E-1,1.0149302E-2,4.254953E-1,5.6807883E-3,1E0,4.486045E-3,6.2873864E-1,2.2003625E-2,1.1218585E-2,-1.2652312E-1,-1.069075E-1,-8.012202E-3,-9.468668E-2,7.807766E-2,-1.19374216E-1,-8.922836E-2,1.9163528E-1],"split_indices":[2,1,0,1,0,1,3,1,1,0,0,0,0,0,0,0,0],"split_type":[0,0,0,0,0,0,0,0,0,0,0,0,0,0,0,0,0],"sum_hessian":[2.8726494E3,2.3650881E3,5.0756125E2,2.2613137E3,1.0377446E2,2.169748E3,9.1565704E1,3.1778685E1,7.199577E1,2.0936228E3,7.612521E1,4.1653416E1,4.9912285E1,2.118579E1,1.0592895E1,2.1544871E0,6.9841286E1],"tree_param":{"num_deleted":"0","num_feature":"4","num_nodes":"17","size_leaf_vector":"1"}},{"base_weights":[-1.6515273E-1,-1.075867E0,3.127324E-1,-1.1900345E0,1.0918428E0,-1.2192059E0,-5.1949114E-1,9.1559544E-2,1.4912664E0,-1.2542059E-1,-1.1769489E-1,-7.2616152E-3,-9.010149E-2,6.780265E-2,-1.15544796E-1,-8.607779E-2,1.564368E-1],"categories":[],"categories_nodes":[],"categories_segments":[],"categories_sizes":[],"default_left":[0,0,0,0,0,0,0,0,0,0,0,0,0,0,0,0,0],"id":1,"left_children":[1,3,-1,5,7,9,11,13,15,-1,-1,-1,-1,-1,-1,-1,-1],"loss_changes":[8.516048E3,5.518457E2,0E0,4.071338E1,4.4540817E1,1.5187988E0,1.5256203E1,2.4899323E1,1.5075424E1,0E0,0E0,0E0,0E0,0E0,0E0,0E0,0E0],"parents":[2147483647,0,0,1,1,3,3,4,4,5,5,6,6,7,7,8,8],"right_children":[2,4,-1,6,8,10,12,14,16,-1,-1,-1,-1,-1,-1,-1,-1],"split_conditions":[9.5E-1,1.0149302E-2,3.127324E-1,5.6807883E-3,1E0,1.556476E-3,6.2873864E-1,2.2003625E-2,1.1218585E-2,-1.2542059E-1,-1.1769489E-1,-7.2616152E-3,-9.010149E-2,6.780265E-2,-1.15544796E-1,-8.607779E-2,1.564368E-1],"split_indices":[2,1,0,1,0,1,3,1,1,0,0,0,0,0,0,0,0],"split_type":[0,0,0,0,0,0,0,0,0,0,0,0,0,0,0,0,0],"sum_hessian":[2.8379753E3,2.2235925E3,6.1438275E2,2.1127695E3,1.1082291E2,2.0239032E3,8.886641E1,3.1975456E1,7.884745E1,1.0913206E3,9.325827E2,4.1476143E1,4.739027E1,2.205791E1,9.917545E0,2.0519202E0,7.6795525E1],"tree_param":{"num_deleted":"0","num_feature":"4","num_nodes":"17","size_leaf_vector":"1"}},{"base_weights":[-1.5984514E-1,-1.0372492E0,2.5559467E-1,-1.1713781E0,6.8472207E-1,-1.1843976E0,-6.870517E-1,-8.206547E-2,1.21232E0,-1.210827E-1,-1.1228658E-1,4.9001183E-2,-7.417741E-2,7.137947E-2,-6.968909E-2,2.786149E-1,1.0859165E-1],"categories":[],"categories_nodes":[],"categories_segments":[],"categories_sizes":[],"default_left":[0,0,0,0,0,0,0,0,0,0,0,0,0,0,0,0,0],"id":2,"left_children":[1,3,-1,5,7,9,11,13,15,-1,-1,-1,-1,-1,-1,-1,-1],"loss_changes":[6.5765376E3,4.8257007E2,0E0,1.1390869E1,6.1335014E1,1.7033691E0,3.780468E0,3.114504E1,1.4825378E1,0E0,0E0,0E0,0E0,0E0,0E0,0E0,0E0],"parents":[2147483647,0,0,1,1,3,3,4,4,5,5,6,6,7,7,8,8],"right_children":[2,4,-1,6,8,10,12,14,16,-1,-1,-1,-1,-1,-1,-1,-1],"split_conditions":[9.5E-1,7.610717E-3,2.5559467E-1,5.6807883E-3,1E0,2.0953876E-3,3.5955787E-1,6.2873864E-1,3.8231468E-1,-1.210827E-1,-1.1228658E-1,4.9001183E-2,-7.417741E-2,7.137947E-2,-6.968909E-2,2.786149E-1,1.0859165E-1],"split_indices":[2,1,0,1,0,1,3,3,3,0,0,0,0,0,0,0,0],"split_type":[0,0,0,0,0,0,0,0,0,0,0,0,0,0,0,0,0],"sum_hessian":[2.7578372E3,2.084882E3,6.7295496E2,1.9345172E3,1.503649E2,1.882468E3,5.2049194E1,6.1633682E1,8.873121E1,1.3037834E3,5.786846E2,1.9589154E0,5.009028E1,2.679193E1,3.484175E1,5.032364E0,8.3698845E1],"tree_param":{"num_deleted":"0","num_feature":"4","num_nodes":"17","size_leaf_vector":"1"}},{"base_weights":[-1.5418814E-1,-1.0019094E0,2.2048059E-1,-1.1396931E0,6.0167664E-1,-1.1611279E0,-8.111984E-1,-7.556262E-2,1.0449799E0,-1.195877E-1,-1.1224824E-1,-6.771722E-2,-9.766008E-2,6.213961E-2,-6.549632E-2,1.2402024E-1,3.813613E-2],"categories":[],"categories_nodes":[],"categories_segments":[],"categories_sizes":[],"default_left":[0,0,0,0,0,0,0,0,0,0,0,0,0,0,0,0,0],"id":3,"left_children":[1,3,-1,5,7,9,11,13,15,-1,-1,-1,-1,-1,-1,-1,-1],"loss_changes":[5.306282E3,4.3194604E2,0E0,1.1716553E1,4.6641426E1,9.206543E-1,1.8534241E0,2.5560732E1,1.1679565E1,0E0,0E0,0E0,0E0,0E0,0E0,0E0,0E0],"parents":[2147483647,0,0,1,1,3,3,4,4,5,5,6,6,7,7,8,8],"right_children":[2,4,-1,6,8,10,12,14,16,-1,-1,-1,-1,-1,-1,-1,-1],"split_conditions":[9.5E-1,7.610717E-3,2.2048059E-1,4.486045E-3,1E0,1.4506436E-3,6.475943E-1,6.2873864E-1,6.258175E-2,-1.195877E-1,-1.1224824E-1,-6.771722E-2,-9.766008E-2,6.213961E-2,-6.549632E-2,1.2402024E-1,3.813613E-2],"split_indices":[2,1,0,1,0,1,3,3,1,0,0,0,0,0,0,0,0],"split_type":[0,0,0,0,0,0,0,0,0,0,0,0,0,0,0,0,0],"sum_hessian":[2.6513423E3,1.9508617E3,7.004807E2,1.7967684E3,1.540932E2,1.6843292E3,1.12439316E2,6.128974E1,9.280346E1,8.711055E2,8.1322363E2,6.492465E1,4.7514664E1,2.7789444E1,3.3500298E1,7.103703E1,2.1766428E1],"tree_param":{"num_deleted":"0","num_feature":"4","num_nodes":"17","size_leaf_vector":"1"}},{"base_weights":[-1.4893633E-1,-9.6941125E-1,1.966157E-1,-1.1146672E0,4.9754706E-1,-1.1337862E0,-8.0777675E-1,-6.5960504E-2,8.796122E-1,-1.172691E-1,-1.09458745E-1,-8.317823E-2,-2.1022525E-2,5.3090543E-2,-6.425645E-2,-3.8508084E-2,1.0086125E-1],"categories":[],"categories_nodes":[],"categories_segments":[],"categories_sizes":[],"default_left":[0,0,0,0,0,0,0,0,0,0,0,0,0,0,0,0,0],"id":4,"left_children":[1,3,-1,5,7,9,11,13,15,-1,-1,-1,-1,-1,-1,-1,-1],"loss_changes":[4.3931836E3,3.8919177E2,0E0,8.823486E0,3.558553E1,1.095459E0,1.2713623E0,2.360822E1,1.6443619E1,0E0,0E0,0E0,0E0,0E0,0E0,0E0,0E0],"parents":[2147483647,0,0,1,1,3,3,4,4,5,5,6,6,7,7,8,8],"right_children":[2,4,-1,6,8,10,12,14,16,-1,-1,-1,-1,-1,-1,-1,-1],"split_conditions":[9.5E-1,7.2182585E-3,1.966157E-1,4.486045E-3,1E0,1.3942185E-3,8.4850454E-1,6.2873864E-1,1.1218585E-2,-1.172691E-1,-1.09458745E-1,-8.317823E-2,-2.1022525E-2,5.3090543E-2,-6.425645E-2,-3.8508084E-2,1.0086125E-1],"split_indices":[2,1,0,1,0,1,3,3,1,0,0,0,0,0,0,0,0],"split_type":[0,0,0,0,0,0,0,0,0,0,0,0,0,0,0,0,0],"sum_hessian":[2.5294402E3,1.822866E3,7.065741E2,1.6588495E3,1.6401659E2,1.559029E3,9.9820366E1,6.660633E1,9.741026E1,7.6793524E2,7.910938E2,9.55883E1,4.232063E0,3.2767075E1,3.3839256E1,8.832551E0,8.8577705E1],"tree_param":{"num_deleted":"0","num_feature":"4","num_nodes":"17","size_leaf_vector":"1"}},{"base_weights":[-1.4408135E-1,-9.3919003E-1,1.7934193E-1,-1.0885919E0,4.4194874E-1,-1.1090288E0,-7.6930517E-1,2.2950688E-1,3.4622982E-1,-1.1488364E-1,-1.0652864E-1,-7.9333596E-2,-1.9552646E-2,-1.2719166E-2,6.714561E-2],"categories":[],"categories_nodes":[],"categories_segments":[],"categories_sizes":[],"default_left":[0,0,0,0,0,0,0,0,0,0,0,0,0,0,0],"id":5,"left_children":[1,3,-1,5,7,9,11,-1,13,-1,-1,-1,-1,-1,-1],"loss_changes":[3.698718E3,3.517262E2,0E0,9.171875E0,2.8804882E1,1.286377E0,1.1642532E0,0E0,2.4697886E1,0E0,0E0,0E0,0E0,0E0,0E0],"parents":[2147483647,0,0,1,1,3,3,4,4,5,5,6,6,8,8],"right_children":[2,4,-1,6,8,10,12,-1,14,-1,-1,-1,-1,-1,-1],"split_conditions":[9.5E-1,7.2182585E-3,1.7934193E-1,4.486045E-3,3.8231468E-1,1.4506436E-3,8.4850454E-1,2.2950688E-1,1E0,-1.1488364E-1,-1.0652864E-1,-7.9333596E-2,-1.9552646E-2,-1.2719166E-2,6.714561E-2],"split_indices":[2,1,0,1,3,1,3,0,0,0,0,0,0,0,0],"split_type":[0,0,0,0,0,0,0,0,0,0,0,0,0,0,0],"sum_hessian":[2.3988552E3,1.7012245E3,6.9763074E2,1.5353527E3,1.6587183E2,1.4406652E3,9.4687416E1,7.018395E0,1.5885342E2,7.4103033E2,6.996349E2,9.05139E1,4.1735134E0,6.493643E1,9.391699E1],"tree_param":{"num_deleted":"0","num_feature":"4","num_nodes":"15","size_leaf_vector":"1"}},{"base_weights":[-1.394388E-1,-9.103208E-1,1.6628526E-1,-1.0644532E0,3.9532757E-1,-1.0863593E0,-7.320766E-1,2.021551E-1,3.0918726E-1,-1.13134086E-1,-1.0416438E-1,-8.384083E-2,-5.589916E-2,-1.154971E-2,5.9388835E-2],"categories":[],"categories_nodes":[],"categories_segments":[],"categories_sizes":[],"default_left":[0,0,0,0,0,0,0,0,0,0,0,0,0,0,0],"id":6,"left_children":[1,3,-1,5,7,9,11,-1,13,-1,-1,-1,-1,-1,-1],"loss_changes":[3.1497446E3,3.1994727E2,0E0,9.546509E0,2.2961508E1,1.4975586E0,1.2041435E0,0E0,1.954514E1,0E0,0E0,0E0,0E0,0E0,0E0],"parents":[2147483647,0,0,1,1,3,3,4,4,5,5,6,6,8,8],"right_children":[2,4,-1,6,8,10,12,-1,14,-1,-1,-1,-1,-1,-1],"split_conditions":[9.5E-1,7.2182585E-3,1.6628526E-1,4.486045E-3,3.8231468E-1,1.3942185E-3,5.6807883E-3,2.021551E-1,1E0,-1.13134086E-1,-1.0416438E-1,-8.384083E-2,-5.589916E-2,-1.154971E-2,5.9388835E-2],"split_indices":[2,1,0,1,3,1,1,0,0,0,0,0,0,0,0],"split_type":[0,0,0,0,0,0,0,0,0,0,0,0,0,0,0],"sum_hessian":[2.2649678E3,1.5867659E3,6.7820184E2,1.4193907E3,1.6737506E2,1.329499E3,8.989177E1,7.2895303E0,1.6008553E2,6.506627E2,6.788363E2,5.3302437E1,3.6589336E1,6.448642E1,9.5599106E1],"tree_param":{"num_deleted":"0","num_feature":"4","num_nodes":"15","size_leaf_vector":"1"}},{"base_weights":[-1.3513824E-1,-8.8275236E-1,1.5609874E-1,-1.0418652E0,3.5478267E-1,-1.0653656E0,-6.963484E-1,9.8329276E-1,1.6364732E-1,-1.11172795E-1,-1.0151833E-1,-8.044835E-2,-5.2437212E-2,4.469253E-2,1.7462204E-1,-3.435829E-2,3.8721565E-2],"categories":[],"categories_nodes":[],"categories_segments":[],"categories_sizes":[],"default_left":[0,0,0,0,0,0,0,0,0,0,0,0,0,0,0,0,0],"id":7,"left_children":[1,3,-1,5,7,9,11,13,15,-1,-1,-1,-1,-1,-1,-1,-1],"loss_changes":[2.7049453E3,2.9188074E2,0E0,9.911743E0,2.0189844E1,1.7250977E0,1.1856918E0,1.5303326E1,1.4999968E1,0E0,0E0,0E0,0E0,0E0,0E0,0E0,0E0],"parents":[2147483647,0,0,1,1,3,3,4,4,5,5,6,6,7,7,8,8],"right_children":[2,4,-1,6,8,10,12,14,16,-1,-1,-1,-1,-1,-1,-1,-1],"split_conditions":[9.5E-1,7.2182585E-3,1.5609874E-1,4.486045E-3,5.110533E-1,1.4506436E-3,5.6807883E-3,4.3888167E-1,1.1218585E-2,-1.11172795E-1,-1.0151833E-1,-8.044835E-2,-5.2437212E-2,4.469253E-2,1.7462204E-1,-3.435829E-2,3.8721565E-2],"split_indices":[2,1,0,1,3,1,1,3,1,0,0,0,0,0,0,0,0],"split_type":[0,0,0,0,0,0,0,0,0,0,0,0,0,0,0,0,0],"sum_hessian":[2.1310713E3,1.4794447E3,6.5162646E2,1.3110393E3,1.6840541E2,1.2255969E3,8.544233E1,3.830445E1,1.3010095E2,6.2604865E2,5.9954834E2,5.0199844E1,3.5242485E1,2.342299E1,1.488146E1,3.9636696E1,9.0464264E1],"tree_param":{"num_deleted":"0","num_feature":"4","num_nodes":"17","size_leaf_vector":"1"}},{"base_weights":[-1.3111183E-1,-8.559186E-1,1.4795749E-1,-1.0204581E0,3.1800407E-1,-1.0457029E0,-6.6155136E-1,1.7821212E-1,2.4079207E-1,-1.0983691E-1,-9.942115E-2,-1.44079495E-2,-6.931662E-2,-2.0564374E-2,4.3194037E-2],"categories":[],"categories_nodes":[],"categories_segments":[],"categories_sizes":[],"default_left":[0,0,0,0,0,0,0,0,0,0,0,0,0,0,0],"id":8,"left_children":[1,3,-1,5,7,9,11,-1,13,-1,-1,-1,-1,-1,-1],"loss_changes":[2.3373948E3,2.6701337E2,0E0,1.0282349E1,1.8844635E1,1.9720459E0,1.2468147E0,0E0,1.4007736E1,0E0,0E0,0E0,0E0,0E0,0E0],"parents":[2147483647,0,0,1,1,3,3,4,4,5,5,6,6,8,8],"right_children":[2,4,-1,6,8,10,12,-1,14,-1,-1,-1,-1,-1,-1],"split_conditions":[9.5E-1,7.2182585E-3,1.4795749E-1,4.486045E-3,3.8231468E-1,1.3942185E-3,3.693108E-1,1.7821212E-1,1.1218585E-2,-1.0983691E-1,-9.942115E-2,-1.44079495E-2,-6.931662E-2,-2.0564374E-2,4.3194037E-2],"split_indices":[2,1,0,1,3,1,3,0,1,0,0,0,0,0,0],"split_type":[0,0,0,0,0,0,0,0,0,0,0,0,0,0,0],"sum_hessian":[2.0000753E3,1.3796868E3,6.2038855E2,1.2101941E3,1.6949269E2,1.1288773E3,8.131672E1,7.38451E0,1.6210818E2,5.4802203E2,5.8085535E2,5.001957E0,7.631476E1,4.8577446E1,1.1353073E2],"tree_param":{"num_deleted":"0","num_feature":"4","num_nodes":"15","size_leaf_vector":"1"}},{"base_weights":[-1.2726687E-1,-8.2983184E-1,1.4132646E-1,-9.999084E-1,2.8628018E-1,-1.027077E0,-6.271445E-1,1.6381846E-1,2.1583287E-1,-1.0842031E-1,-9.717675E-2,-7.437389E-2,-4.478354E-2,-1.2063913E-2,4.3547686E-2],"categories":[],"categories_nodes":[],"categories_segments":[],"categories_sizes":[],"default_left":[0,0,0,0,0,0,0,0,0,0,0,0,0,0,0],"id":9,"left_children":[1,3,-1,5,7,9,11,-1,13,-1,-1,-1,-1,-1,-1],"loss_changes":[2.0294972E3,2.4472357E2,0E0,1.0675049E1,1.5937286E1,2.232788E0,1.3079357E0,0E0,1.2153128E1,0E0,0E0,0E0,0E0,0E0,0E0],"parents":[2147483647,0,0,1,1,3,3,4,4,5,5,6,6,8,8],"right_children":[2,4,-1,6,8,10,12,-1,14,-1,-1,-1,-1,-1,-1],"split_conditions":[9.5E-1,7.2182585E-3,1.4132646E-1,4.486045E-3,3.8231468E-1,1.3942185E-3,5.6807883E-3,1.6381846E-1,1E0,-1.0842031E-1,-9.717675E-2,-7.437389E-2,-4.478354E-2,-1.2063913E-2,4.3547686E-2],"split_indices":[2,1,0,1,3,1,1,0,0,0,0,0,0,0,0],"split_type":[0,0,0,0,0,0,0,0,0,0,0,0,0,0,0],"sum_hessian":[1.8730465E3,1.2867024E3,5.8634406E2,1.1166483E3,1.7005415E2,1.0391552E3,7.749313E1,7.320354E0,1.627338E2,5.0203116E2,5.37124E2,4.505116E1,3.244198E1,6.445149E1,9.82823E1],"tree_param":{"num_deleted":"0","num_feature":"4","num_nodes":"15","size_leaf_vector":"1"}},{"base_weights":[-1.2361558E-1,-8.043365E-1,1.3584255E-1,-9.80024E-1,2.5852987E-1,-1.009235E0,-5.940391E-1,7.708143E-1,1.0085615E-1,-1.068415E-1,-9.469894E-2,-4.8581343E-2,-8.2319684E-2,2.7430505E-2,1.4560233E-1,-4.2713884E-2,2.7520603E-2],"categories":[],"categories_nodes":[],"categories_segments":[],"categories_sizes":[],"default_left":[0,0,0,0,0,0,0,0,0,0,0,0,0,0,0,0,0],"id":10,"left_children":[1,3,-1,5,7,9,11,13,15,-1,-1,-1,-1,-1,-1,-1,-1],"loss_changes":[1.7688359E3,2.2458362E2,0E0,1.1026794E1,1.37508135E1,2.5140991E0,1.4595661E0,1.325721E1,1.2274416E1,0E0,0E0,0E0,0E0,0E0,0E0,0E0,0E0],"parents":[2147483647,0,0,1,1,3,3,4,4,5,5,6,6,7,7,8,8],"right_children":[2,4,-1,6,8,10,12,14,16,-1,-1,-1,-1,-1,-1,-1,-1],"split_conditions":[9.5E-1,7.2182585E-3,1.3584255E-1,4.486045E-3,5.110533E-1,1.4506436E-3,7.2756827E-1,4.3888167E-1,5.923277E-1,-1.068415E-1,-9.469894E-2,-4.8581343E-2,-8.2319684E-2,2.7430505E-2,1.4560233E-1,-4.2713884E-2,2.7520603E-2],"split_indices":[2,1,0,1,3,1,3,3,3,0,0,0,0,0,0,0,0],"split_type":[0,0,0,0,0,0,0,0,0,0,0,0,0,0,0,0,0],"sum_hessian":[1.7512252E3,1.2003472E3,5.50878E2,1.0301462E3,1.70201E2,9.561691E2,7.397706E1,3.914138E1,1.3105963E2,4.8186926E2,4.7429987E2,5.2365906E1,2.1611156E1,2.3507751E1,1.5633629E1,3.2174282E1,9.8885345E1],"tree_param":{"num_deleted":"0","num_feature":"4","num_nodes":"17","size_leaf_vector":"1"}},{"base_weights":[-1.2007625E-1,-7.785266E-1,1.3125025E-1,-9.6377957E-1,2.1695045E-1,-9.919569E-1,-5.788381E-1,1.5344888E-1,1.5028673E-1,-1.0593851E-1,-9.2808865E-2,-6.1447352E-2,1.2091516E-2,-2.2775248E-2,3.2391567E-2],"categories":[],"categories_nodes":[],"categories_segments":[],"categories_sizes":[],"default_left":[0,0,0,0,0,0,0,0,0,0,0,0,0,0,0],"id":11,"left_children":[1,3,-1,5,7,9,11,-1,13,-1,-1,-1,-1,-1,-1],"loss_changes":[1.5456672E3,2.0721606E2,0E0,9.692932E0,1.5309858E1,2.809204E0,1.7440968E0,0E0,1.120091E1,0E0,0E0,0E0,0E0,0E0,0E0],"parents":[2147483647,0,0,1,1,3,3,4,4,5,5,6,6,8,8],"right_children":[2,4,-1,6,8,10,12,-1,14,-1,-1,-1,-1,-1,-1],"split_conditions":[9.5E-1,6.7793014E-3,1.3125025E-1,4.486045E-3,3.8231468E-1,1.3942185E-3,8.4850454E-1,1.5344888E-1,1.1218585E-2,-1.0593851E-1,-9.2808865E-2,-6.1447352E-2,1.2091516E-2,-2.2775248E-2,3.2391567E-2],"split_indices":[2,1,0,1,3,1,3,0,1,0,0,0,0,0,0],"split_type":[0,0,0,0,0,0,0,0,0,0,0,0,0,0,0],"sum_hessian":[1.6365227E3,1.121506E3,5.150168E2,9.4557196E2,1.7593404E2,8.796086E2,6.596338E1,7.41264E0,1.685214E2,4.2029752E2,4.5931104E2,6.2882896E1,3.0804799E0,5.2941364E1,1.15580025E2],"tree_param":{"num_deleted":"0","num_feature":"4","num_nodes":"15","size_leaf_vector":"1"}},{"base_weights":[-1.166082E-1,-7.53333E-1,1.2736431E-1,-9.613962E-1,1.2951283E-1,-1.0387661E-1,-8.770517E-1,-2.2481924E-1,3.5375282E-1,-8.978663E-2,-6.6014536E-2,1.6089676E-2,-6.326487E-2,8.7647274E-2,2.140293E-2],"categories":[],"categories_nodes":[],"categories_segments":[],"categories_sizes":[],"default_left":[0,0,0,0,0,0,0,0,0,0,0,0,0,0,0],"id":12,"left_children":[1,3,-1,5,7,-1,9,11,13,-1,-1,-1,-1,-1,-1],"loss_changes":[1.3540004E3,1.9281091E2,0E0,4.6296387E0,1.604604E1,0E0,1.2702026E0,1.2449444E1,8.829097E0,0E0,0E0,0E0,0E0,0E0,0E0],"parents":[2147483647,0,0,1,1,3,3,4,4,6,6,7,7,8,8],"right_children":[2,4,-1,6,8,-1,10,12,14,-1,-1,-1,-1,-1,-1],"split_conditions":[9.5E-1,5.6807883E-3,1.2736431E-1,1.556476E-3,1.1218585E-2,-1.0387661E-1,4.486045E-3,6.2873864E-1,4.8504552E-1,-8.978663E-2,-6.6014536E-2,1.6089676E-2,-6.326487E-2,8.7647274E-2,2.140293E-2],"split_indices":[2,1,0,1,1,0,1,3,3,0,0,0,0,0,0],"split_type":[0,0,0,0,0,0,0,0,0,0,0,0,0,0,0],"sum_hessian":[1.5275017E3,1.0479888E3,4.7951297E2,8.480395E2,1.9994926E2,4.364055E2,4.11634E2,7.749431E1,1.2245495E2,3.727273E2,3.8906715E1,4.0138084E1,3.7356224E1,2.471621E1,9.773874E1],"tree_param":{"num_deleted":"0","num_feature":"4","num_nodes":"15","size_leaf_vector":"1"}},{"base_weights":[-1.1330941E-1,-7.2832143E-1,1.24046914E-1,-9.4360757E-1,1.1709089E-1,-1.0274591E-1,-8.5363203E-1,-1.6005352E-1,3.6089393E-1,-8.7574296E-2,-6.290492E-2,2.601306E-2,-5.8396515E-2,-4.458341E-2,4.5018993E-2],"categories":[],"categories_nodes":[],"categories_segments":[],"categories_sizes":[],"default_left":[0,0,0,0,0,0,0,0,0,0,0,0,0,0,0],"id":13,"left_children":[1,3,-1,5,7,-1,9,11,13,-1,-1,-1,-1,-1,-1],"loss_changes":[1.1883971E3,1.787229E2,0E0,5.0249634E0,1.3576366E1,0E0,1.352356E0,1.695341E1,7.890416E0,0E0,0E0,0E0,0E0,0E0,0E0],"parents":[2147483647,0,0,1,1,3,3,4,4,6,6,7,7,8,8],"right_children":[2,4,-1,6,8,-1,10,12,14,-1,-1,-1,-1,-1,-1],"split_conditions":[9.5E-1,5.6807883E-3,1.24046914E-1,1.556476E-3,1E0,-1.0274591E-1,4.486045E-3,6.2873864E-1,1.1218585E-2,-8.7574296E-2,-6.290492E-2,2.601306E-2,-5.8396515E-2,-4.458341E-2,4.5018993E-2],"split_indices":[2,1,0,1,0,0,1,3,1,0,0,0,0,0,0],"split_type":[0,0,0,0,0,0,0,0,0,0,0,0,0,0,0],"sum_hessian":[1.4252646E3,9.803573E2,4.449074E2,7.8128516E2,1.9907213E2,3.9901187E2,3.822733E2,9.332638E1,1.0574575E2,3.45371E2,3.690229E1,4.7063282E1,4.6263096E1,1.0140502E1,9.560525E1],"tree_param":{"num_deleted":"0","num_feature":"4","num_nodes":"15","size_leaf_vector":"1"}},{"base_weights":[-1.1015128E-1,-7.0360637E-1,1.2119339E-1,-9.2580694E-1,1.0549244E-1,-1.0241794E-1,-8.3692235E-1,1.2173076E0,5.0502207E-2,-8.591625E-2,-5.9836626E-2,-1.3842985E-2,1.4115547E-1,-1.936443E-2,2.663354E-2],"categories":[],"categories_nodes":[],"categories_segments":[],"categories_sizes":[],"default_left":[0,0,0,0,0,0,0,0,0,0,0,0,0,0,0],"id":14,"left_children":[1,3,-1,5,7,-1,9,11,13,-1,-1,-1,-1,-1,-1],"loss_changes":[1.0447816E3,1.6530814E2,0E0,5.447632E0,1.2098539E1,0E0,1.5246277E0,2.652504E0,1.0093178E1,0E0,0E0,0E0,0E0,0E0,0E0],"parents":[2147483647,0,0,1,1,3,3,4,4,6,6,7,7,8,8],"right_children":[2,4,-1,6,8,-1,10,12,14,-1,-1,-1,-1,-1,-1],"split_conditions":[9.5E-1,5.6807883E-3,1.2119339E-1,1.4506436E-3,3.8231468E-1,-1.0241794E-1,4.486045E-3,6.1867773E-3,1E0,-8.591625E-2,-5.9836626E-2,-1.3842985E-2,1.4115547E-1,-1.936443E-2,2.663354E-2],"split_indices":[2,1,0,1,3,0,1,1,0,0,0,0,0,0,0],"split_type":[0,0,0,0,0,0,0,0,0,0,0,0,0,0,0],"sum_hessian":[1.3295269E3,9.179479E2,4.1157892E2,7.200565E2,1.9789139E2,3.367919E2,3.8326462E2,8.330246E0,1.8956114E2,3.4820096E2,3.5063644E1,1.0799745E0,7.250272E0,8.899475E1,1.0056639E2],"tree_param":{"num_deleted":"0","num_feature":"4","num_nodes":"15","size_leaf_vector":"1"}},{"base_weights":[-1.0680843E-1,-6.784203E-1,1.1872268E-1,-9.078641E-1,9.6136294E-2,-1.01441406E-1,-8.133528E-1,1.1428183E0,4.5604073E-2,-8.368587E-2,-5.6812663E-2,-1.5833227E-2,1.3496135E-1,-9.6397445E-2,9.716535E-3],"categories":[],"categories_nodes":[],"categories_segments":[],"categories_sizes":[],"default_left":[0,0,0,0,0,0,0,0,0,0,0,0,0,0,0],"id":15,"left_children":[1,3,-1,5,7,-1,9,11,13,-1,-1,-1,-1,-1,-1],"loss_changes":[9.192149E2,1.5325107E2,0E0,5.871399E0,1.0412933E1,0E0,1.5849457E0,2.6544056E0,9.973169E0,0E0,0E0,0E0,0E0,0E0,0E0],"parents":[2147483647,0,0,1,1,3,3,4,4,6,6,7,7,8,8],"right_children":[2,4,-1,6,8,-1,10,12,14,-1,-1,-1,-1,-1,-1],"split_conditions":[9.5E-1,5.6807883E-3,1.1872268E-1,1.4506436E-3,3.8231468E-1,-1.01441406E-1,4.486045E-3,3.3420026E-1,4.226268E-1,-8.368587E-2,-5.6812663E-2,-1.5833227E-2,1.3496135E-1,-9.6397445E-2,9.716535E-3],"split_indices":[2,1,0,1,3,0,1,3,3,0,0,0,0,0,0],"split_type":[0,0,0,0,0,0,0,0,0,0,0,0,0,0,0],"sum_hessian":[1.240621E3,8.608396E2,3.7978143E2,6.639795E2,1.9686009E2,3.0753644E2,3.5644305E2,8.070886E0,1.887892E2,3.230636E2,3.3379448E1,1.1389555E0,6.9319305E0,8.313513E0,1.804757E2],"tree_param":{"num_deleted":"0","num_feature":"4","num_nodes":"15","size_leaf_vector":"1"}},{"base_weights":[-1.0345455E-1,-6.523534E-1,1.1657099E-1,-8.8966006E-1,8.663738E-2,-1.0049409E-1,-7.894179E-1,-2.1635072E-1,2.4300446E-1,-8.14177E-2,-5.3837605E-2,8.087824E-3,-5.6973368E-2,7.0817016E-2,1.2972248E-2],"categories":[],"categories_nodes":[],"categories_segments":[],"categories_sizes":[],"default_left":[0,0,0,0,0,0,0,0,0,0,0,0,0,0,0],"id":16,"left_children":[1,3,-1,5,7,-1,9,11,13,-1,-1,-1,-1,-1,-1],"loss_changes":[8.090844E2,1.4223685E2,0E0,6.2984924E0,9.431008E0,0E0,1.6309357E0,7.179355E0,6.813215E0,0E0,0E0,0E0,0E0,0E0,0E0],"parents":[2147483647,0,0,1,1,3,3,4,4,6,6,7,7,8,8],"right_children":[2,4,-1,6,8,-1,10,12,14,-1,-1,-1,-1,-1,-1],"split_conditions":[9.5E-1,5.6807883E-3,1.1657099E-1,1.4506436E-3,1.0149302E-2,-1.0049409E-1,4.486045E-3,6.2873864E-1,4.8504552E-1,-8.14177E-2,-5.3837605E-2,8.087824E-3,-5.6973368E-2,7.0817016E-2,1.2972248E-2],"split_indices":[2,1,0,1,1,0,1,3,3,0,0,0,0,0,0],"split_type":[0,0,0,0,0,0,0,0,0,0,0,0,0,0,0],"sum_hessian":[1.1593132E3,8.096396E2,3.496737E2,6.126878E2,1.9695178E2,2.807703E2,3.3191748E2,6.691291E1,1.3003888E2,3.0007883E2,3.1838648E1,3.6762913E1,3.0150002E1,2.4438116E1,1.0560075E2],"tree_param":{"num_deleted":"0","num_feature":"4","num_nodes":"15","size_leaf_vector":"1"}},{"base_weights":[-1.00204416E-1,-6.270538E-1,1.1468742E-1,-8.710933E-1,7.8363E-2,-9.956559E-2,-7.6506895E-1,1.0434159E0,3.3626094E-2,-7.9105355E-2,-5.091715E-2,-1.7282825E-2,1.2486594E-1,-8.8493325E-2,8.442976E-3],"categories":[],"categories_nodes":[],"categories_segments":[],"categories_sizes":[],"default_left":[0,0,0,0,0,0,0,0,0,0,0,0,0,0,0],"id":17,"left_children":[1,3,-1,5,7,-1,9,11,13,-1,-1,-1,-1,-1,-1],"loss_changes":[7.130319E2,1.3138568E2,0E0,6.724182E0,8.469363E0,0E0,1.6620026E0,2.3859758E0,8.908133E0,0E0,0E0,0E0,0E0,0E0,0E0],"parents":[2147483647,0,0,1,1,3,3,4,4,6,6,7,7,8,8],"right_children":[2,4,-1,6,8,-1,10,12,14,-1,-1,-1,-1,-1,-1],"split_conditions":[9.5E-1,5.6807883E-3,1.1468742E-1,1.4506436E-3,3.8231468E-1,-9.956559E-2,4.486045E-3,6.1867773E-3,4.2522758E-1,-7.9105355E-2,-5.091715E-2,-1.7282825E-2,1.2486594E-1,-8.8493325E-2,8.442976E-3],"split_indices":[2,1,0,1,3,0,1,1,3,0,0,0,0,0,0],"split_type":[0,0,0,0,0,0,0,0,0,0,0,0,0,0,0],"sum_hessian":[1.0831527E3,7.618103E2,3.213424E2,5.6582715E2,1.959832E2,2.563102E2,3.0951694E2,7.693683E0,1.882895E2,2.7908633E2,3.0430578E1,1.1336675E0,6.5600157E0,9.007634E0,1.7928188E2],"tree_param":{"num_deleted":"0","num_feature":"4","num_nodes":"15","size_leaf_vector":"1"}},{"base_weights":[-9.681919E-2,-6.008982E-1,1.13030806E-1,-8.5207677E-1,7.0713386E-2,-9.925543E-2,-7.4477303E-1,2.393951E-1,-1.5816794E-1,-7.713178E-2,-4.805775E-2,-1.9518752E-3,9.290952E-2,-5.292297E-2,2.4745783E-2],"categories":[],"categories_nodes":[],"categories_segments":[],"categories_sizes":[],"default_left":[0,0,0,0,0,0,0,0,0,0,0,0,0,0,0],"id":18,"left_children":[1,3,-1,5,7,-1,9,11,13,-1,-1,-1,-1,-1,-1],"loss_changes":[6.2838275E2,1.21511444E2,0E0,7.160309E0,7.6393886E0,0E0,1.7410431E0,2.0330658E1,1.2795089E1,0E0,0E0,0E0,0E0,0E0,0E0],"parents":[2147483647,0,0,1,1,3,3,4,4,6,6,7,7,8,8],"right_children":[2,4,-1,6,8,-1,10,12,14,-1,-1,-1,-1,-1,-1],"split_conditions":[9.5E-1,5.6807883E-3,1.13030806E-1,1.3942185E-3,6.475943E-1,-9.925543E-2,4.486045E-3,5.923277E-1,1E0,-7.713178E-2,-4.805775E-2,-1.9518752E-3,9.290952E-2,-5.292297E-2,2.4745783E-2],"split_indices":[2,1,0,1,3,0,1,3,0,0,0,0,0,0,0],"split_type":[0,0,0,0,0,0,0,0,0,0,0,0,0,0,0],"sum_hessian":[1.0137671E3,7.1894806E2,2.94819E2,5.230587E2,1.9588937E2,2.2294223E2,3.0011646E2,1.1274918E2,8.31402E1,2.709714E2,2.9145052E1,8.268201E1,3.0067177E1,4.3260902E1,3.987929E1],"tree_param":{"num_deleted":"0","num_feature":"4","num_nodes":"15","size_leaf_vector":"1"}},{"base_weights":[-9.352685E-2,-5.755234E-1,1.1156745E-1,-8.325375E-1,6.396704E-2,-9.83909E-2,-7.1971554E-1,9.878276E-1,2.2418976E-2,-7.47379E-2,-4.526625E-2,-2.051846E-2,1.199569E-1,-8.764883E-2,6.6210344E-3],"categories":[],"categories_nodes":[],"categories_segments":[],"categories_sizes":[],"default_left":[0,0,0,0,0,0,0,0,0,0,0,0,0,0,0],"id":19,"left_children":[1,3,-1,5,7,-1,9,11,13,-1,-1,-1,-1,-1,-1],"loss_changes":[5.543351E2,1.11802155E2,0E0,7.5757446E0,7.4954348E0,0E0,1.7423706E0,2.369442E0,7.475987E0,0E0,0E0,0E0,0E0,0E0,0E0],"parents":[2147483647,0,0,1,1,3,3,4,4,6,6,7,7,8,8],"right_children":[2,4,-1,6,8,-1,10,12,14,-1,-1,-1,-1,-1,-1],"split_conditions":[9.5E-1,5.6807883E-3,1.1156745E-1,1.3942185E-3,3.8231468E-1,-9.83909E-2,4.486045E-3,3.3420026E-1,4.226268E-1,-7.47379E-2,-4.526625E-2,-2.051846E-2,1.199569E-1,-8.764883E-2,6.6210344E-3],"split_indices":[2,1,0,1,3,0,1,3,3,0,0,0,0,0,0],"split_type":[0,0,0,0,0,0,0,0,0,0,0,0,0,0,0],"sum_hessian":[9.490063E2,6.789113E2,2.7009497E2,4.8406253E2,1.9484879E2,2.0341835E2,2.806442E2,7.4054766E0,1.874433E2,2.5267178E2,2.7972408E1,1.1209102E0,6.2845664E0,7.824029E0,1.7961928E2],"tree_param":{"num_deleted":"0","num_feature":"4","num_nodes":"15","size_leaf_vector":"1"}},{"base_weights":[-9.008504E-2,-5.4933995E-1,1.1026955E-1,-8.124182E-1,5.7704348E-2,-9.752279E-2,-6.9420725E-1,3.816451E-1,-5.656076E-2,-7.229148E-2,-4.254956E-2,-6.7664185E-3,8.2607836E-2,-6.578606E-2,1.1477089E-2],"categories":[],"categories_nodes":[],"categories_segments":[],"categories_sizes":[],"default_left":[0,0,0,0,0,0,0,0,0,0,0,0,0,0,0],"id":20,"left_children":[1,3,-1,5,7,-1,9,11,13,-1,-1,-1,-1,-1,-1],"loss_changes":[4.8889923E2,1.0293451E2,0E0,7.97464E0,7.2662525E0,0E0,1.7282104E0,1.0272897E1,1.5071026E1,0E0,0E0,0E0,0E0,0E0,0E0],"parents":[2147483647,0,0,1,1,3,3,4,4,6,6,7,7,8,8],"right_children":[2,4,-1,6,8,-1,10,12,14,-1,-1,-1,-1,-1,-1],"split_conditions":[9.5E-1,5.6807883E-3,1.1026955E-1,1.3942185E-3,5.1950586E-1,-9.752279E-2,4.486045E-3,4.3888167E-1,5.916775E-1,-7.229148E-2,-4.254956E-2,-6.7664185E-3,8.2607836E-2,-6.578606E-2,1.1477089E-2],"split_indices":[2,1,0,1,3,0,1,3,3,0,0,0,0,0,0],"split_type":[0,0,0,0,0,0,0,0,0,0,0,0,0,0,0],"sum_hessian":[8.9038745E2,6.432551E2,2.4713234E2,4.4853336E2,1.9472177E2,1.8562532E2,2.6290805E2,5.016483E1,1.4455695E2,2.3600449E2,2.6903553E1,2.5367132E1,2.4797697E1,3.142591E1,1.1313103E2],"tree_param":{"num_deleted":"0","num_feature":"4","num_nodes":"15","size_leaf_vector":"1"}},{"base_weights":[-8.664839E-2,-5.232701E-1,1.09113865E-1,-7.9167587E-1,5.1871758E-2,-9.6643284E-2,-6.682768E-1,2.1002981E-1,-1.61833E-1,-5.5152383E-2,-7.4725054E-2,-8.555759E-4,8.6403884E-2,-5.074325E-2,2.018174E-2],"categories":[],"categories_nodes":[],"categories_segments":[],"categories_sizes":[],"default_left":[0,0,0,0,0,0,0,0,0,0,0,0,0,0,0],"id":21,"left_children":[1,3,-1,5,7,-1,9,11,13,-1,-1,-1,-1,-1,-1],"loss_changes":[4.3133517E2,9.448366E1,0E0,8.350708E0,6.6451464E0,0E0,1.8723602E0,1.613934E1,1.062872E1,0E0,0E0,0E0,0E0,0E0,0E0],"parents":[2147483647,0,0,1,1,3,3,4,4,6,6,7,7,8,8],"right_children":[2,4,-1,6,8,-1,10,12,14,-1,-1,-1,-1,-1,-1],"split_conditions":[9.5E-1,5.6807883E-3,1.09113865E-1,1.3942185E-3,6.423927E-1,-9.6643284E-2,5.2210665E-1,5.949285E-1,1E0,-5.5152383E-2,-7.4725054E-2,-8.555759E-4,8.6403884E-2,-5.074325E-2,2.018174E-2],"split_indices":[2,1,0,1,3,0,3,3,0,0,0,0,0,0,0],"split_type":[0,0,0,0,0,0,0,0,0,0,0,0,0,0,0],"sum_hessian":[8.366596E2,6.1078796E2,2.2587169E2,4.1618652E2,1.9460141E2,1.6942139E2,2.4676514E2,1.118448E2,8.275661E1,1.0278862E2,1.4397653E2,8.456729E1,2.727751E1,4.2228687E1,4.052792E1],"tree_param":{"num_deleted":"0","num_feature":"4","num_nodes":"15","size_leaf_vector":"1"}},{"base_weights":[-8.3274215E-2,-4.9817324E-1,1.0808084E-1,-7.939076E-1,6.094303E-3,-9.574488E-2,-6.6990626E-1,-2.2745956E-1,1.6190137E-1,1.5991326E-2,-6.800589E-2,1.8838249E-3,-5.8397986E-2,2.770618E-2,-3.060818E-2],"categories":[],"categories_nodes":[],"categories_segments":[],"categories_sizes":[],"default_left":[0,0,0,0,0,0,0,0,0,0,0,0,0,0,0],"id":22,"left_children":[1,3,-1,5,7,-1,9,11,13,-1,-1,-1,-1,-1,-1],"loss_changes":[3.808789E2,8.6686554E1,0E0,6.7887573E0,7.891913E0,0E0,1.8924179E0,7.6325274E0,7.094512E0,0E0,0E0,0E0,0E0,0E0,0E0],"parents":[2147483647,0,0,1,1,3,3,4,4,6,6,7,7,8,8],"right_children":[2,4,-1,6,8,-1,10,12,14,-1,-1,-1,-1,-1,-1],"split_conditions":[9.5E-1,4.582674E-3,1.0808084E-1,1.3942185E-3,1.0149302E-2,-9.574488E-2,2.607282E-1,6.475943E-1,6.258175E-2,1.5991326E-2,-6.800589E-2,1.8838249E-3,-5.8397986E-2,2.770618E-2,-3.060818E-2],"split_indices":[2,1,0,1,1,0,3,3,1,0,0,0,0,0,0],"split_type":[0,0,0,0,0,0,0,0,0,0,0,0,0,0,0],"sum_hessian":[7.864924E2,5.8025244E2,2.0623988E2,3.6539017E2,2.1486229E2,1.5467426E2,2.1071591E2,8.579549E1,1.290668E2,2.368601E0,2.0834732E2,5.1301563E1,3.449392E1,1.0390582E2,2.5160984E1],"tree_param":{"num_deleted":"0","num_feature":"4","num_nodes":"15","size_leaf_vector":"1"}},{"base_weights":[-7.987111E-2,-4.7291705E-1,1.07153855E-1,-7.764963E-1,2.182339E-4,-9.4820425E-2,-6.480077E-1,-2.1437056E-1,1.4533746E-1,-5.116539E-2,-7.359066E-2,-4.0296232E-4,-5.3667407E-2,5.923537E-2,4.1252393E-3],"categories":[],"categories_nodes":[],"categories_segments":[],"categories_sizes":[],"default_left":[0,0,0,0,0,0,0,0,0,0,0,0,0,0,0],"id":23,"left_children":[1,3,-1,5,7,-1,9,11,13,-1,-1,-1,-1,-1,-1],"loss_changes":[3.363343E2,7.9561035E1,0E0,6.8298187E0,6.804223E0,0E0,1.9744568E0,5.97386E0,6.040305E0,0E0,0E0,0E0,0E0,0E0,0E0],"parents":[2147483647,0,0,1,1,3,3,4,4,6,6,7,7,8,8],"right_children":[2,4,-1,6,8,-1,10,12,14,-1,-1,-1,-1,-1,-1],"split_conditions":[9.5E-1,4.486045E-3,1.07153855E-1,1.3942185E-3,1.0149302E-2,-9.4820425E-2,5.143043E-1,6.475943E-1,4.8504552E-1,-5.116539E-2,-7.359066E-2,-4.0296232E-4,-5.3667407E-2,5.923537E-2,4.1252393E-3],"split_indices":[2,1,0,1,1,0,3,3,3,0,0,0,0,0,0],"split_type":[0,0,0,0,0,0,0,0,0,0,0,0,0,0,0],"sum_hessian":[7.41067E2,5.5291345E2,1.881536E2,3.3641638E2,2.1649706E2,1.4126065E2,1.9515572E2,8.715022E1,1.2934683E2,7.9167465E1,1.1598825E2,5.334733E1,3.38029E1,2.3543411E1,1.0580342E2],"tree_param":{"num_deleted":"0","num_feature":"4","num_nodes":"15","size_leaf_vector":"1"}},{"base_weights":[-7.645949E-2,-4.481452E-1,1.06318735E-1,-7.5515336E-1,8.422859E-5,-9.386301E-2,-6.219059E-1,-2.7395567E-1,9.688468E-2,-4.8460133E-2,-7.123054E-2,-1.0639631E-2,-5.3437978E-2,4.839004E-2,3.2324143E-4],"categories":[],"categories_nodes":[],"categories_segments":[],"categories_sizes":[],"default_left":[0,0,0,0,0,0,0,0,0,0,0,0,0,0,0],"id":24,"left_children":[1,3,-1,5,7,-1,9,11,13,-1,-1,-1,-1,-1,-1],"loss_changes":[2.971203E2,7.276595E1,0E0,7.0887146E0,5.7551703E0,0E0,1.948143E0,2.4143438E0,5.8092756E0,0E0,0E0,0E0,0E0,0E0,0E0],"parents":[2147483647,0,0,1,1,3,3,4,4,6,6,7,7,8,8],"right_children":[2,4,-1,6,8,-1,10,12,14,-1,-1,-1,-1,-1,-1],"split_conditions":[9.5E-1,4.486045E-3,1.06318735E-1,1.3942185E-3,7.610717E-3,-9.386301E-2,5.143043E-1,6.475943E-1,4.8504552E-1,-4.8460133E-2,-7.123054E-2,-1.0639631E-2,-5.3437978E-2,4.839004E-2,3.2324143E-4],"split_indices":[2,1,0,1,1,0,3,3,3,0,0,0,0,0,0],"split_type":[0,0,0,0,0,0,0,0,0,0,0,0,0,0,0],"sum_hessian":[6.993081E2,5.277831E2,1.7152502E2,3.1283002E2,2.1495308E2,1.290663E2,1.8376373E2,5.5631485E1,1.593216E2,7.548018E1,1.0828356E2,3.470835E1,2.0923136E1,3.0229977E1,1.2909161E2],"tree_param":{"num_deleted":"0","num_feature":"4","num_nodes":"15","size_leaf_vector":"1"}},{"base_weights":[-7.3034726E-2,-4.2358E-1,1.05563186E-1,-7.331185E-1,-1.16486604E-4,-9.286602E-2,-5.9551847E-1,7.1535254E-1,-3.40347E-2,2.5203943E-2,-6.0748328E-2,-5.8432784E-2,1.0863852E-1,-6.841822E-2,3.4647204E-3],"categories":[],"categories_nodes":[],"categories_segments":[],"categories_sizes":[],"default_left":[0,0,0,0,0,0,0,0,0,0,0,0,0,0,0],"id":25,"left_children":[1,3,-1,5,7,-1,9,11,13,-1,-1,-1,-1,-1,-1],"loss_changes":[2.625258E2,6.634375E1,0E0,7.3144836E0,5.2354627E0,0E0,1.9218483E0,5.3435683E0,9.221065E0,0E0,0E0,0E0,0E0,0E0,0E0],"parents":[2147483647,0,0,1,1,3,3,4,4,6,6,7,7,8,8],"right_children":[2,4,-1,6,8,-1,10,12,14,-1,-1,-1,-1,-1,-1],"split_conditions":[9.5E-1,4.486045E-3,1.05563186E-1,1.3942185E-3,3.8231468E-1,-9.286602E-2,2.607282E-1,3.3094928E-1,4.3368012E-1,2.5203943E-2,-6.0748328E-2,-5.8432784E-2,1.0863852E-1,-6.841822E-2,3.4647204E-3],"split_indices":[2,1,0,1,3,0,3,3,3,0,0,0,0,0,0],"split_type":[0,0,0,0,0,0,0,0,0,0,0,0,0,0,0],"sum_hessian":[6.6140234E2,5.0513916E2,1.5626318E2,2.9140213E2,2.1373701E2,1.1798546E2,1.7341667E2,8.764686E0,2.0497234E2,2.1347053E0,1.7128197E2,1.8187976E0,6.945888E0,1.8728212E1,1.8624413E2],"tree_param":{"num_deleted":"0","num_feature":"4","num_nodes":"15","size_leaf_vector":"1"}},{"base_weights":[-6.9388255E-2,-3.9876044E-1,1.048766E-1,-7.1030813E-1,-2.2914125E-4,-9.1823034E-2,-5.687073E-1,-1.850304E-1,1.2143882E-1,-4.243139E-2,-6.663673E-2,1.9562287E-4,-4.8926234E-2,2.2358172E-2,-2.9304093E-2],"categories":[],"categories_nodes":[],"categories_segments":[],"categories_sizes":[],"default_left":[0,0,0,0,0,0,0,0,0,0,0,0,0,0,0],"id":26,"left_children":[1,3,-1,5,7,-1,9,11,13,-1,-1,-1,-1,-1,-1],"loss_changes":[2.318751E2,6.0365707E1,0E0,7.511688E0,4.84123E0,0E0,2.0433197E0,4.8636494E0,5.562292E0,0E0,0E0,0E0,0E0,0E0,0E0],"parents":[2147483647,0,0,1,1,3,3,4,4,6,6,7,7,8,8],"right_children":[2,4,-1,6,8,-1,10,12,14,-1,-1,-1,-1,-1,-1],"split_conditions":[9.5E-1,4.486045E-3,1.048766E-1,1.3942185E-3,1.0149302E-2,-9.1823034E-2,5.143043E-1,6.475943E-1,6.258175E-2,-4.243139E-2,-6.663673E-2,1.9562287E-4,-4.8926234E-2,2.2358172E-2,-2.9304093E-2],"split_indices":[2,1,0,1,1,0,3,3,1,0,0,0,0,0,0],"split_type":[0,0,0,0,0,0,0,0,0,0,0,0,0,0,0],"sum_hessian":[6.274656E2,4.8518817E2,1.4227742E2,2.718724E2,2.1331577E2,1.0792061E2,1.6395181E2,8.4479385E1,1.2883638E2,6.830522E1,9.564658E1,5.2936928E1,3.1542458E1,1.0373329E2,2.5103085E1],"tree_param":{"num_deleted":"0","num_feature":"4","num_nodes":"15","size_leaf_vector":"1"}},{"base_weights":[-6.605277E-2,-3.7531543E-1,1.0424965E-1,-6.869501E-1,-6.2467245E-4,-9.072798E-2,-5.4202163E-1,-1.4289853E-1,1.4544442E-1,-3.9870765E-2,-6.412129E-2,-2.6698124E-3,-1.18642166E-1,2.6497012E-2,-2.4179347E-2],"categories":[],"categories_nodes":[],"categories_segments":[],"categories_sizes":[],"default_left":[0,0,0,0,0,0,0,0,0,0,0,0,0,0,0],"id":27,"left_children":[1,3,-1,5,7,-1,9,11,13,-1,-1,-1,-1,-1,-1],"loss_changes":[2.0505006E2,5.4586258E1,0E0,7.6578217E0,4.45289E0,0E0,1.9681435E0,1.3129916E1,4.9575973E0,0E0,0E0,0E0,0E0,0E0,0E0],"parents":[2147483647,0,0,1,1,3,3,4,4,6,6,7,7,8,8],"right_children":[2,4,-1,6,8,-1,10,12,14,-1,-1,-1,-1,-1,-1],"split_conditions":[9.5E-1,4.486045E-3,1.0424965E-1,1.3942185E-3,1E0,-9.072798E-2,5.143043E-1,2.2003625E-2,6.258175E-2,-3.9870765E-2,-6.412129E-2,-2.6698124E-3,-1.18642166E-1,2.6497012E-2,-2.4179347E-2],"split_indices":[2,1,0,1,0,0,3,1,1,0,0,0,0,0,0],"split_type":[0,0,0,0,0,0,0,0,0,0,0,0,0,0,0],"sum_hessian":[5.959638E2,4.6648532E2,1.2947847E2,2.5421683E2,2.122685E2,9.878193E1,1.554349E2,1.07542206E2,1.04726295E2,6.563025E1,8.980466E1,9.768967E1,9.852544E0,8.026673E1,2.4459564E1],"tree_param":{"num_deleted":"0","num_feature":"4","num_nodes":"15","size_leaf_vector":"1"}},{"base_weights":[-6.284131E-2,-3.5254496E-1,1.03674136E-1,-6.629955E-1,-1.3038481E-3,-8.957501E-1,-5.153444E-1,6.534981E-1,-3.171488E-2,-9.5238164E-2,-7.4460134E-2,-3.7376083E-2,-6.1563697E-2,-5.6390185E-2,1.00121334E-1,-6.388225E-2,3.1343156E-3],"categories":[],"categories_nodes":[],"categories_segments":[],"categories_sizes":[],"default_left":[0,0,0,0,0,0,0,0,0,0,0,0,0,0,0,0,0],"id":28,"left_children":[1,3,-1,5,7,9,11,13,15,-1,-1,-1,-1,-1,-1,-1,-1],"loss_changes":[1.8142996E2,4.913573E1,0E0,7.75869E0,4.250708E0,7.396698E-2,1.881527E0,4.5749784E0,7.8277297E0,0E0,0E0,0E0,0E0,0E0,0E0,0E0,0E0],"parents":[2147483647,0,0,1,1,3,3,4,4,5,5,6,6,7,7,8,8],"right_children":[2,4,-1,6,8,10,12,14,16,-1,-1,-1,-1,-1,-1,-1,-1],"split_conditions":[9.5E-1,4.486045E-3,1.03674136E-1,1.3942185E-3,3.8231468E-1,1.0126528E-3,5.143043E-1,3.3094928E-1,4.3368012E-1,-9.5238164E-2,-7.4460134E-2,-3.7376083E-2,-6.1563697E-2,-5.6390185E-2,1.00121334E-1,-6.388225E-2,3.1343156E-3],"split_indices":[2,1,0,1,3,1,3,3,3,0,0,0,0,0,0,0,0],"split_type":[0,0,0,0,0,0,0,0,0,0,0,0,0,0,0,0,0],"sum_hessian":[5.673964E2,4.4961667E2,1.17779724E2,2.381957E2,2.1142097E2,9.048696E1,1.4770874E2,8.473924E0,2.0294705E2,6.196815E1,2.851881E1,6.3206474E1,8.4502266E1,1.7444885E0,6.7294354E0,1.8236803E1,1.8471025E2],"tree_param":{"num_deleted":"0","num_feature":"4","num_nodes":"17","size_leaf_vector":"1"}},{"base_weights":[-5.9515536E-2,-3.300067E-1,1.03142776E-1,-6.0871094E-1,3.6006518E-2,-7.821703E-1,-3.8115868E-1,3.7334225E-1,-4.126402E-2,-9.4487585E-2,-6.599611E-2,-2.8730527E-2,-5.828327E-2,-1.1642803E-2,1.4125614E-1,-4.0205415E-2,1.1385861E-2],"categories":[],"categories_nodes":[],"categories_segments":[],"categories_sizes":[],"default_left":[0,0,0,0,0,0,0,0,0,0,0,0,0,0,0,0,0],"id":29,"left_children":[1,3,-1,5,7,9,11,13,15,-1,-1,-1,-1,-1,-1,-1,-1],"loss_changes":[1.6053172E2,4.447331E1,0E0,9.468597E0,4.950174E0,2.1494293E0,1.8953352E0,1.817354E1,8.716959E0,0E0,0E0,0E0,0E0,0E0,0E0,0E0,0E0],"parents":[2147483647,0,0,1,1,3,3,4,4,5,5,6,6,7,7,8,8],"right_children":[2,4,-1,6,8,10,12,14,16,-1,-1,-1,-1,-1,-1,-1,-1],"split_conditions":[9.5E-1,5.6807883E-3,1.03142776E-1,2.0015358E-3,4.8504552E-1,1.0126528E-3,6.612484E-1,4.3888167E-1,5.923277E-1,-9.4487585E-2,-6.599611E-2,-2.8730527E-2,-5.828327E-2,-1.1642803E-2,1.4125614E-1,-4.0205415E-2,1.1385861E-2],"split_indices":[2,1,0,1,3,1,3,3,3,0,0,0,0,0,0,0,0],"split_type":[0,0,0,0,0,0,0,0,0,0,0,0,0,0,0,0,0],"sum_hessian":[5.41855E2,4.3475763E2,1.0709737E2,2.4644025E2,1.883174E2,1.3845839E2,1.0798186E2,3.438278E1,1.5393462E2,5.6501896E1,8.195649E1,7.534364E1,3.263821E1,2.3972717E1,1.041006E1,4.5805824E1,1.0812879E2],"tree_param":{"num_deleted":"0","num_feature":"4","num_nodes":"17","size_leaf_vector":"1"}},{"base_weights":[-5.607758E-2,-3.084749E-1,1.02649085E-1,-6.140674E-1,-1.5605045E-4,-8.9669846E-2,-4.7533247E-1,1.19494386E-1,-1.7891173E-1,-3.3658635E-2,-5.7867695E-2,-7.570216E-3,8.490155E-2,-4.739363E-2,1.6198546E-2],"categories":[],"categories_nodes":[],"categories_segments":[],"categories_sizes":[],"default_left":[0,0,0,0,0,0,0,0,0,0,0,0,0,0,0],"id":30,"left_children":[1,3,-1,5,7,-1,9,11,13,-1,-1,-1,-1,-1,-1],"loss_changes":[1.4212148E2,3.9725628E1,0E0,7.8766327E0,4.531675E0,0E0,1.8722725E0,1.813807E1,8.620962E0,0E0,0E0,0E0,0E0,0E0,0E0],"parents":[2147483647,0,0,1,1,3,3,4,4,6,6,7,7,8,8],"right_children":[2,4,-1,6,8,-1,10,12,14,-1,-1,-1,-1,-1,-1],"split_conditions":[9.5E-1,4.486045E-3,1.02649085E-1,1.2606615E-3,6.475943E-1,-8.9669846E-2,5.143043E-1,6.0078025E-1,1.601438E-2,-3.3658635E-2,-5.7867695E-2,-7.570216E-3,8.490155E-2,-4.739363E-2,1.6198546E-2],"split_indices":[2,1,0,1,3,0,3,3,1,0,0,0,0,0,0],"split_type":[0,0,0,0,0,0,0,0,0,0,0,0,0,0,0],"sum_hessian":[5.179804E2,4.2062753E2,9.73529E1,2.1074973E2,2.098778E2,6.759061E1,1.4315912E2,1.2592273E2,8.3955086E1,6.2929485E1,8.022964E1,1.00049034E2,2.5873695E1,4.4796413E1,3.9158672E1],"tree_param":{"num_deleted":"0","num_feature":"4","num_nodes":"15","size_leaf_vector":"1"}},{"base_weights":[-5.2793264E-2,-2.8813082E-1,1.02187134E-1,-7.3383445E-1,-8.616661E-2,-9.2903055E-2,-6.069444E-1,-2.8369838E-1,7.183E-2,2.2958761E-2,-6.426572E-2,3.940658E-2,-3.0897304E-2,4.4086006E-2,-1.4292671E-3],"categories":[],"categories_nodes":[],"categories_segments":[],"categories_sizes":[],"default_left":[0,0,0,0,0,0,0,0,0,0,0,0,0,0,0],"id":31,"left_children":[1,3,-1,5,7,-1,9,11,13,-1,-1,-1,-1,-1,-1],"loss_changes":[1.25942986E2,3.6694214E1,0E0,2.586708E0,8.825813E0,0E0,2.5367393E0,2.2730646E0,5.01371E0,0E0,0E0,0E0,0E0,0E0,0E0],"parents":[2147483647,0,0,1,1,3,3,4,4,6,6,7,7,8,8],"right_children":[2,4,-1,6,8,-1,10,12,14,-1,-1,-1,-1,-1,-1],"split_conditions":[9.5E-1,2.0953876E-3,1.02187134E-1,1.0126528E-3,7.610717E-3,-9.2903055E-2,2.6658E-1,2.1645166E-3,4.8504552E-1,2.2958761E-2,-6.426572E-2,3.940658E-2,-3.0897304E-2,4.4086006E-2,-1.4292671E-3],"split_indices":[2,1,0,1,1,0,3,1,3,0,0,0,0,0,0],"split_type":[0,0,0,0,0,0,0,0,0,0,0,0,0,0,0],"sum_hessian":[4.958134E2,4.0734256E2,8.847083E1,1.26201645E2,2.8114093E2,4.722834E1,7.8973305E1,1.245853E2,1.5655562E2,3.0111723E0,7.5962135E1,3.9543486E0,1.2063095E2,2.8843616E1,1.27712E2],"tree_param":{"num_deleted":"0","num_feature":"4","num_nodes":"15","size_leaf_vector":"1"}},{"base_weights":[-4.940039E-2,-2.6821938E-1,1.0175166E-1,-7.122792E-1,-7.844132E-2,-9.202462E-2,-5.812572E-1,-2.6218677E-1,6.495075E-2,2.0868752E-2,-6.1771996E-2,-2.9763235E-2,2.3793045E-2,9.783611E-2,3.468223E-3],"categories":[],"categories_nodes":[],"categories_segments":[],"categories_sizes":[],"default_left":[0,0,0,0,0,0,0,0,0,0,0,0,0,0,0],"id":32,"left_children":[1,3,-1,5,7,-1,9,11,13,-1,-1,-1,-1,-1,-1],"loss_changes":[1.1162315E2,3.336435E1,0E0,2.6971283E0,7.3669033E0,0E0,2.3031025E0,2.2418737E0,4.3201575E0,0E0,0E0,0E0,0E0,0E0,0E0],"parents":[2147483647,0,0,1,1,3,3,4,4,6,6,7,7,8,8],"right_children":[2,4,-1,6,8,-1,10,12,14,-1,-1,-1,-1,-1,-1],"split_conditions":[9.5E-1,2.0953876E-3,1.0175166E-1,1.0126528E-3,7.610717E-3,-9.202462E-2,2.6658E-1,8.309493E-1,3.8231468E-1,2.0868752E-2,-6.1771996E-2,-2.9763235E-2,2.3793045E-2,9.783611E-2,3.468223E-3],"split_indices":[2,1,0,1,1,0,3,3,3,0,0,0,0,0,0],"split_type":[0,0,0,0,0,0,0,0,0,0,0,0,0,0,0],"sum_hessian":[4.7595288E2,3.955718E2,8.038108E1,1.17614235E2,2.7795758E2,4.313069E1,7.448354E1,1.2147221E2,1.5648537E2,3.077957E0,7.140559E1,1.138108E2,7.6614127E0,4.0145946E0,1.5247078E2],"tree_param":{"num_deleted":"0","num_feature":"4","num_nodes":"15","size_leaf_vector":"1"}},{"base_weights":[-4.5981094E-2,-2.490895E-1,1.01337746E-1,-6.9001305E-1,-7.1132526E-2,-9.109347E-2,-5.553259E-1,-2.7212486E-1,4.132011E-2,-3.2713376E-2,-7.0715904E-2,3.8009055E-2,-3.0355796E-2,3.1140784E-2,-5.44289E-3],"categories":[],"categories_nodes":[],"categories_segments":[],"categories_sizes":[],"default_left":[0,0,0,0,0,0,0,0,0,0,0,0,0,0,0],"id":33,"left_children":[1,3,-1,5,7,-1,9,11,13,-1,-1,-1,-1,-1,-1],"loss_changes":[9.898033E1,3.022527E1,0E0,2.7918854E0,6.249455E0,0E0,2.242962E0,2.1480908E0,4.616267E0,0E0,0E0,0E0,0E0,0E0,0E0],"parents":[2147483647,0,0,1,1,3,3,4,4,6,6,7,7,8,8],"right_children":[2,4,-1,6,8,-1,10,12,14,-1,-1,-1,-1,-1,-1],"split_conditions":[9.5E-1,2.0953876E-3,1.01337746E-1,1.0126528E-3,5.9422255E-3,-9.109347E-2,4.8504552E-1,2.1645166E-3,5.1950586E-1,-3.2713376E-2,-7.0715904E-2,3.8009055E-2,-3.0355796E-2,3.1140784E-2,-5.44289E-3],"split_indices":[2,1,0,1,1,0,3,1,3,0,0,0,0,0,0],"split_type":[0,0,0,0,0,0,0,0,0,0,0,0,0,0,0],"sum_hessian":[4.5784827E2,3.8483044E2,7.301781E1,1.0982929E2,2.7500116E2,3.9415054E1,7.041424E1,9.815099E1,1.7685017E2,2.939325E1,4.102099E1,4.0028396E0,9.4148155E1,4.5696804E1,1.3115337E2],"tree_param":{"num_deleted":"0","num_feature":"4","num_nodes":"15","size_leaf_vector":"1"}},{"base_weights":[-4.2965643E-2,-2.3113137E-1,1.00940876E-1,-6.672971E-1,-6.4660415E-2,-9.010515E-2,-5.29706E-1,-2.2484393E-1,5.52048E-2,-3.0515093E-2,-6.846483E-2,-2.594452E-2,2.3958478E-2,9.4089486E-2,2.7807592E-3],"categories":[],"categories_nodes":[],"categories_segments":[],"categories_sizes":[],"default_left":[0,0,0,0,0,0,0,0,0,0,0,0,0,0,0],"id":34,"left_children":[1,3,-1,5,7,-1,9,11,13,-1,-1,-1,-1,-1,-1],"loss_changes":[8.787661E1,2.727791E1,0E0,2.8622932E0,5.262623E0,0E0,2.1496372E0,1.9460988E0,3.7885475E0,0E0,0E0,0E0,0E0,0E0,0E0],"parents":[2147483647,0,0,1,1,3,3,4,4,6,6,7,7,8,8],"right_children":[2,4,-1,6,8,-1,10,12,14,-1,-1,-1,-1,-1,-1],"split_conditions":[9.5E-1,2.0953876E-3,1.00940876E-1,1.0126528E-3,7.610717E-3,-9.010515E-2,4.8504552E-1,8.309493E-1,3.8231468E-1,-3.0515093E-2,-6.846483E-2,-2.594452E-2,2.3958478E-2,9.4089486E-2,2.7807592E-3],"split_indices":[2,1,0,1,1,0,3,3,3,0,0,0,0,0,0],"split_type":[0,0,0,0,0,0,0,0,0,0,0,0,0,0,0],"sum_hessian":[4.415964E2,3.7527686E2,6.631955E1,1.0283454E2,2.7244232E2,3.6046375E1,6.678816E1,1.16234695E2,1.5620763E2,2.8480835E1,3.8307327E1,1.0858609E2,7.648604E0,3.6865644E0,1.5252106E2],"tree_param":{"num_deleted":"0","num_feature":"4","num_nodes":"15","size_leaf_vector":"1"}},{"base_weights":[-3.9880384E-2,-2.1397215E-1,1.005569E-1,-6.440064E-1,-5.846139E-2,-8.343276E-1,-4.6594605E-1,-2.3437934E-1,3.588132E-2,-3.6229413E-2,-8.487656E-2,5.6888312E-2,-5.082506E-2,-3.5520606E-2,-5.0974996E-3,2.75439E-2,-4.893852E-3],"categories":[],"categories_nodes":[],"categories_segments":[],"categories_sizes":[],"default_left":[0,0,0,0,0,0,0,0,0,0,0,0,0,0,0,0,0],"id":35,"left_children":[1,3,-1,5,7,9,11,13,15,-1,-1,-1,-1,-1,-1,-1,-1],"loss_changes":[7.80577E1,2.4536661E1,0E0,2.9151573E0,4.505644E0,5.039215E-3,2.5933352E0,2.0809984E0,3.6150503E0,0E0,0E0,0E0,0E0,0E0,0E0,0E0,0E0],"parents":[2147483647,0,0,1,1,3,3,4,4,5,5,6,6,7,7,8,8],"right_children":[2,4,-1,6,8,10,12,14,16,-1,-1,-1,-1,-1,-1,-1,-1],"split_conditions":[9.5E-1,2.0953876E-3,1.005569E-1,1.2606615E-3,5.9422255E-3,2.626788E-1,1.292826E-3,6.0468143E-1,5.1950586E-1,-3.6229413E-2,-8.487656E-2,5.6888312E-2,-5.082506E-2,-3.5520606E-2,-5.0974996E-3,2.75439E-2,-4.893852E-3],"split_indices":[2,1,0,1,1,3,1,3,3,0,0,0,0,0,0,0,0],"split_type":[0,0,0,0,0,0,0,0,0,0,0,0,0,0,0,0,0],"sum_hessian":[4.2669656E2,3.664666E2,6.022993E1,9.649303E1,2.699736E2,4.485923E1,5.1633793E1,9.372435E1,1.7624925E2,2.1057963E0,4.2753433E1,1.5390518E0,5.009474E1,5.5936604E1,3.7787746E1,4.5498882E1,1.3075037E2],"tree_param":{"num_deleted":"0","num_feature":"4","num_nodes":"17","size_leaf_vector":"1"}},{"base_weights":[-3.7048638E-2,-1.9785877E-1,1.0018182E-1,-6.199035E-1,-5.321763E-2,-8.802804E-2,-4.7619918E-1,-2.1625598E-1,3.2429203E-2,-2.449011E-2,-6.424349E-2,3.878488E-2,-2.4768619E-2,8.386897E-2,8.5105276E-4],"categories":[],"categories_nodes":[],"categories_segments":[],"categories_sizes":[],"default_left":[0,0,0,0,0,0,0,0,0,0,0,0,0,0,0],"id":36,"left_children":[1,3,-1,5,7,-1,9,11,13,-1,-1,-1,-1,-1,-1],"loss_changes":[6.940612E1,2.1917189E1,0E0,3.0113716E0,3.7617145E0,0E0,2.1979809E0,1.8568497E0,3.4092233E0,0E0,0E0,0E0,0E0,0E0,0E0],"parents":[2147483647,0,0,1,1,3,3,4,4,6,6,7,7,8,8],"right_children":[2,4,-1,6,8,-1,10,12,14,-1,-1,-1,-1,-1,-1],"split_conditions":[9.5E-1,2.0953876E-3,1.0018182E-1,1.0126528E-3,5.9422255E-3,-8.802804E-2,4.8504552E-1,2.1645166E-3,3.680104E-1,-2.449011E-2,-6.424349E-2,3.878488E-2,-2.4768619E-2,8.386897E-2,8.5105276E-4],"split_indices":[2,1,0,1,1,0,3,1,3,0,0,0,0,0,0],"split_type":[0,0,0,0,0,0,0,0,0,0,0,0,0,0,0],"sum_hessian":[4.13269E2,3.5857358E2,5.469542E1,9.06838E1,2.678898E2,3.0427237E1,6.025656E1,9.173567E1,1.7615411E2,2.6231548E1,3.4025013E1,3.9759455E0,8.775973E1,4.093818E0,1.720603E2],"tree_param":{"num_deleted":"0","num_feature":"4","num_nodes":"15","size_leaf_vector":"1"}},{"base_weights":[-3.418466E-2,-1.8249631E-1,9.981193E-2,-5.956968E-1,-4.7958672E-2,-8.6849205E-2,-4.5094767E-1,-1.5877423E-1,6.340698E-2,3.1722996E-2,-4.945103E-2,-6.897037E-3,-3.4999132E-2,1.4311487E-2,-2.7433405E-2],"categories":[],"categories_nodes":[],"categories_segments":[],"categories_sizes":[],"default_left":[0,0,0,0,0,0,0,0,0,0,0,0,0,0,0],"id":37,"left_children":[1,3,-1,5,7,-1,9,11,13,-1,-1,-1,-1,-1,-1],"loss_changes":[6.1745674E1,1.956382E1,0E0,3.0231667E0,3.3046126E0,0E0,2.1171818E0,2.2785451E0,3.6429443E0,0E0,0E0,0E0,0E0,0E0,0E0],"parents":[2147483647,0,0,1,1,3,3,4,4,6,6,7,7,8,8],"right_children":[2,4,-1,6,8,-1,10,12,14,-1,-1,-1,-1,-1,-1],"split_conditions":[9.5E-1,2.0953876E-3,9.981193E-2,1.0126528E-3,9.277482E-3,-8.6849205E-2,2.6658E-1,6.612484E-1,6.258175E-2,3.1722996E-2,-4.945103E-2,-6.897037E-3,-3.4999132E-2,1.4311487E-2,-2.7433405E-2],"split_indices":[2,1,0,1,1,0,3,3,1,0,0,0,0,0,0],"split_type":[0,0,0,0,0,0,0,0,0,0,0,0,0,0,0],"sum_hessian":[4.0110605E2,3.51438E2,4.9668068E1,8.5479675E1,2.659583E2,2.7899708E1,5.7579964E1,1.3309503E2,1.328633E2,2.752932E0,5.4827034E1,9.148867E1,4.160636E1,1.0796054E2,2.4902752E1],"tree_param":{"num_deleted":"0","num_feature":"4","num_nodes":"15","size_leaf_vector":"1"}},{"base_weights":[-3.168645E-2,-1.683316E-1,9.94437E-2,-5.856404E-1,-4.759693E-2,-8.559837E-2,-4.3586186E-1,-2.0078017E-1,2.414483E-2,3.305163E-2,-4.8484985E-2,-9.070373E-3,-4.489938E-2,7.95736E-2,7.129275E-5],"categories":[],"categories_nodes":[],"categories_segments":[],"categories_sizes":[],"default_left":[0,0,0,0,0,0,0,0,0,0,0,0,0,0,0],"id":38,"left_children":[1,3,-1,5,7,-1,9,11,13,-1,-1,-1,-1,-1,-1],"loss_changes":[5.5002697E1,1.7403723E1,0E0,2.7669258E0,2.9657848E0,0E0,2.1101856E0,2.3102193E0,3.333097E0,0E0,0E0,0E0,0E0,0E0,0E0],"parents":[2147483647,0,0,1,1,3,3,4,4,6,6,7,7,8,8],"right_children":[2,4,-1,6,8,-1,10,12,14,-1,-1,-1,-1,-1,-1],"split_conditions":[9.5E-1,2.0015358E-3,9.94437E-2,1.0126528E-3,5.6807883E-3,-8.559837E-2,2.6658E-1,6.612484E-1,3.680104E-1,3.305163E-2,-4.8484985E-2,-9.070373E-3,-4.489938E-2,7.95736E-2,7.129275E-5],"split_indices":[2,1,0,1,1,0,3,3,3,0,0,0,0,0,0],"split_type":[0,0,0,0,0,0,0,0,0,0,0,0,0,0,0],"sum_hessian":[3.9008078E2,3.4497736E2,4.5103436E1,7.6547386E1,2.6842996E2,2.5609116E1,5.093827E1,8.504435E1,1.833856E2,2.7151413E0,4.822313E1,5.9862343E1,2.5182005E1,4.4335437E0,1.7895207E2],"tree_param":{"num_deleted":"0","num_feature":"4","num_nodes":"15","size_leaf_vector":"1"}},{"base_weights":[-2.909765E-2,-1.5482725E-1,9.9073626E-2,-6.68431E-1,-6.608881E-2,-8.427281E-2,-4.8158902E-1,-2.1639182E-1,2.2189004E-2,1.9966552E-2,-5.302387E-2,-1.0799191E-2,-5.052218E-2,7.423639E-2,6.4200736E-5],"categories":[],"categories_nodes":[],"categories_segments":[],"categories_sizes":[],"default_left":[0,0,0,0,0,0,0,0,0,0,0,0,0,0,0],"id":39,"left_children":[1,3,-1,5,7,-1,9,11,13,-1,-1,-1,-1,-1,-1],"loss_changes":[4.9016216E1,1.5457107E1,0E0,1.222353E0,3.8674963E0,0E0,9.8294973E-1,3.3209014E0,2.8595526E0,0E0,0E0,0E0,0E0,0E0,0E0],"parents":[2147483647,0,0,1,1,3,3,4,4,6,6,7,7,8,8],"right_children":[2,4,-1,6,8,-1,10,12,14,-1,-1,-1,-1,-1,-1],"split_conditions":[9.5E-1,1.556476E-3,9.9073626E-2,1.0126528E-3,5.6807883E-3,-8.427281E-2,1.0492206E-3,6.612484E-1,3.680104E-1,1.9966552E-2,-5.302387E-2,-1.0799191E-2,-5.052218E-2,7.423639E-2,6.4200736E-5],"split_indices":[2,1,0,1,1,0,1,3,3,0,0,0,0,0,0],"split_type":[0,0,0,0,0,0,0,0,0,0,0,0,0,0,0],"sum_hessian":[3.80076E2,3.3911642E2,4.0959576E1,4.8997013E1,2.9011942E2,2.3533348E1,2.5463665E1,1.06810745E2,1.8330867E2,1.4903082E0,2.3973358E1,7.866217E1,2.814857E1,4.353295E0,1.7895537E2],"tree_param":{"num_deleted":"0","num_feature":"4","num_nodes":"15","size_leaf_vector":"1"}},{"base_weights":[-2.672884E-2,-1.422935E-1,9.869843E-2,-5.381365E-1,-3.7762098E-2,-8.28704E-2,-3.904877E-1,-5.7480697E-2,4.852807E-1,1.3782339E-3,-4.926116E-2,-1.4929466E-3,-6.5495126E-2,-3.1541195E-2,8.945133E-2],"categories":[],"categories_nodes":[],"categories_segments":[],"categories_sizes":[],"default_left":[0,0,0,0,0,0,0,0,0,0,0,0,0,0,0],"id":40,"left_children":[1,3,-1,5,7,-1,9,11,13,-1,-1,-1,-1,-1,-1],"loss_changes":[4.3725315E1,1.3834941E1,0E0,2.6742153E0,2.7710202E0,0E0,1.9977345E0,6.5290785E0,3.4830217E0,0E0,0E0,0E0,0E0,0E0,0E0],"parents":[2147483647,0,0,1,1,3,3,4,4,6,6,7,7,8,8],"right_children":[2,4,-1,6,8,-1,10,12,14,-1,-1,-1,-1,-1,-1],"split_conditions":[9.5E-1,2.0015358E-3,9.869843E-2,1.0126528E-3,9.137994E-2,-8.28704E-2,3.7321195E-1,6.258175E-2,5.949285E-1,1.3782339E-3,-4.926116E-2,-1.4929466E-3,-6.5495126E-2,-3.1541195E-2,8.945133E-2],"split_indices":[2,1,0,1,1,0,3,1,3,0,0,0,0,0,0],"split_type":[0,0,0,0,0,0,0,0,0,0,0,0,0,0,0],"sum_hessian":[3.7104514E2,3.338459E2,3.719925E1,6.887598E1,2.649699E2,2.1652319E1,4.722366E1,2.562013E2,8.768629E0,9.697993E0,3.7525665E1,2.4012483E2,1.607645E1,3.0433524E0,5.7252765E0],"tree_param":{"num_deleted":"0","num_feature":"4","num_nodes":"15","size_leaf_vector":"1"}},{"base_weights":[-2.4499528E-2,-1.30292E-1,9.831482E-2,-6.675995E-1,-5.972693E-2,-8.138965E-2,-4.646645E-1,-1.7657205E-1,4.4193145E-2,4.2219207E-2,-5.4542314E-2,-9.123231E-3,-3.7687223E-2,9.640121E-3,-3.0112028E-2],"categories":[],"categories_nodes":[],"categories_segments":[],"categories_sizes":[],"default_left":[0,0,0,0,0,0,0,0,0,0,0,0,0,0,0],"id":41,"left_children":[1,3,-1,5,7,-1,9,11,13,-1,-1,-1,-1,-1,-1],"loss_changes":[3.902682E1,1.2514238E1,0E0,7.600441E-1,3.5749454E0,0E0,1.5474672E0,2.3328452E0,2.8465655E0,0E0,0E0,0E0,0E0,0E0,0E0],"parents":[2147483647,0,0,1,1,3,3,4,4,6,6,7,7,8,8],"right_children":[2,4,-1,6,8,-1,10,12,14,-1,-1,-1,-1,-1,-1],"split_conditions":[9.5E-1,1.4506436E-3,9.831482E-2,1.0126528E-3,7.610717E-3,-8.138965E-2,2.6658E-1,6.475943E-1,8.068921E-1,4.2219207E-2,-5.4542314E-2,-9.123231E-3,-3.7687223E-2,9.640121E-3,-3.0112028E-2],"split_indices":[2,1,0,1,1,0,3,3,3,0,0,0,0,0,0],"split_type":[0,0,0,0,0,0,0,0,0,0,0,0,0,0,0],"sum_hessian":[3.638983E2,3.301108E2,3.3787487E1,3.7338844E1,2.9277197E2,1.9947765E1,1.7391079E1,1.374865E2,1.5528548E2,1.0986257E0,1.6292454E1,9.743071E1,4.005578E1,1.3551738E2,1.9768091E1],"tree_param":{"num_deleted":"0","num_feature":"4","num_nodes":"15","size_leaf_vector":"1"}},{"base_weights":[-2.26011E-2,-1.1974689E-1,9.791971E-2,-6.451169E-1,-5.449744E-2,-7.9829834E-2,-4.3942586E-1,-2.0287746E-1,1.7810741E-2,3.910559E-2,-5.2102793E-2,-6.691699E-3,-3.0818596E-2,6.689272E-2,-5.204961E-4],"categories":[],"categories_nodes":[],"categories_segments":[],"categories_sizes":[],"default_left":[0,0,0,0,0,0,0,0,0,0,0,0,0,0,0],"id":42,"left_children":[1,3,-1,5,7,-1,9,11,13,-1,-1,-1,-1,-1,-1],"loss_changes":[3.4889194E1,1.1160715E1,0E0,7.8315926E-1,3.1323283E0,0E0,1.3955464E0,1.3485367E0,2.9554646E0,0E0,0E0,0E0,0E0,0E0,0E0],"parents":[2147483647,0,0,1,1,3,3,4,4,6,6,7,7,8,8],"right_children":[2,4,-1,6,8,-1,10,12,14,-1,-1,-1,-1,-1,-1],"split_conditions":[9.5E-1,1.4506436E-3,9.791971E-2,1.0126528E-3,4.690132E-3,-7.9829834E-2,2.6658E-1,5.143043E-1,3.693108E-1,3.910559E-2,-5.2102793E-2,-6.691699E-3,-3.0818596E-2,6.689272E-2,-5.204961E-4],"split_indices":[2,1,0,1,1,0,3,3,3,0,0,0,0,0,0],"split_type":[0,0,0,0,0,0,0,0,0,0,0,0,0,0,0],"sum_hessian":[3.5629315E2,3.2559973E2,3.06934E1,3.4989258E1,2.9061047E2,1.8403109E1,1.6586147E1,9.462647E1,1.9598401E2,1.1446424E0,1.5441505E1,4.2016167E1,5.2610306E1,5.7329974E0,1.90251E2],"tree_param":{"num_deleted":"0","num_feature":"4","num_nodes":"15","size_leaf_vector":"1"}},{"base_weights":[-2.0531723E-2,-1.09613694E-1,9.750988E-2,-6.499118E-1,-5.2136555E-2,-7.8191034E-2,-4.3267876E-1,-1.2585288E-1,8.371284E-2,1.4648626E-2,-5.7044454E-2,-6.5427073E-3,-1.16329394E-1,-3.9413154E-2,1.7851572E-2],"categories":[],"categories_nodes":[],"categories_segments":[],"categories_sizes":[],"default_left":[0,0,0,0,0,0,0,0,0,0,0,0,0,0,0],"id":43,"left_children":[1,3,-1,5,7,-1,9,11,13,-1,-1,-1,-1,-1,-1],"loss_changes":[3.1195501E1,9.985414E0,0E0,5.4871464E-1,2.9417105E0,0E0,1.195121E0,1.1843365E1,4.761707E0,0E0,0E0,0E0,0E0,0E0,0E0],"parents":[2147483647,0,0,1,1,3,3,4,4,6,6,7,7,8,8],"right_children":[2,4,-1,6,8,-1,10,12,14,-1,-1,-1,-1,-1,-1],"split_conditions":[9.5E-1,1.3942185E-3,9.750988E-2,1.0126528E-3,1E0,-7.8191034E-2,1.083975E-3,2.2003625E-2,1.2379167E-2,1.4648626E-2,-5.7044454E-2,-6.5427073E-3,-1.16329394E-1,-3.9413154E-2,1.7851572E-2],"split_indices":[2,1,0,1,0,0,1,1,1,0,0,0,0,0,0],"split_type":[0,0,0,0,0,0,0,0,0,0,0,0,0,0,0],"sum_hessian":[3.4952045E2,3.2163293E2,2.7887531E1,2.9934502E1,2.9169843E2,1.700329E1,1.2931211E1,1.89139E2,1.0255942E2,2.4727042E0,1.0458508E1,1.7973349E2,9.4055195E0,1.6456203E1,8.610322E1],"tree_param":{"num_deleted":"0","num_feature":"4","num_nodes":"15","size_leaf_vector":"1"}},{"base_weights":[-1.9247841E-2,-1.0095078E-1,9.708222E-2,-5.5730003E-1,-3.9449938E-2,-7.6474234E-2,-3.7477967E-1,3.3524487E-2,-1.7053753E-1,-1.3861193E-2,-5.7622064E-2,-1.1853113E-2,7.592091E-2,-3.7458327E-2,1.5346169E-2],"categories":[],"categories_nodes":[],"categories_segments":[],"categories_sizes":[],"default_left":[0,0,0,0,0,0,0,0,0,0,0,0,0,0,0],"id":44,"left_children":[1,3,-1,5,7,-1,9,11,13,-1,-1,-1,-1,-1,-1],"loss_changes":[2.7951674E1,8.930741E0,0E0,1.1448803E0,2.7050846E0,0E0,9.70227E-1,2.0184488E1,6.739632E0,0E0,0E0,0E0,0E0,0E0,0E0],"parents":[2147483647,0,0,1,1,3,3,4,4,6,6,7,7,8,8],"right_children":[2,4,-1,6,8,-1,10,12,14,-1,-1,-1,-1,-1,-1],"split_conditions":[9.5E-1,1.556476E-3,9.708222E-2,1.0126528E-3,6.475943E-1,-7.6474234E-2,4.8504552E-1,6.0468143E-1,1.601438E-2,-1.3861193E-2,-5.7622064E-2,-1.1853113E-2,7.592091E-2,-3.7458327E-2,1.5346169E-2],"split_indices":[2,1,0,1,3,0,3,3,1,0,0,0,0,0,0],"split_type":[0,0,0,0,0,0,0,0,0,0,0,0,0,0,0],"sum_hessian":[3.4333316E2,3.1798993E2,2.5343248E1,3.6807655E1,2.8118228E2,1.5734646E1,2.107301E1,1.8110704E2,1.0007522E2,1.0477445E1,1.0595566E1,1.5042464E2,3.0682415E1,6.1308624E1,3.8766594E1],"tree_param":{"num_deleted":"0","num_feature":"4","num_nodes":"15","size_leaf_vector":"1"}},{"base_weights":[-1.771442E-2,-9.268862E-2,9.663377E-2,-4.1883084E-1,-1.4531139E-2,-7.46813E-2,-2.9944494E-1,-1.2297788E-1,8.560861E-2,-6.0039363E-3,-4.960514E-2,1.1552284E-2,-5.292952E-2,5.7207484E-2,-1.172423E-2],"categories":[],"categories_nodes":[],"categories_segments":[],"categories_sizes":[],"default_left":[0,0,0,0,0,0,0,0,0,0,0,0,0,0,0],"id":45,"left_children":[1,3,-1,5,7,-1,9,11,13,-1,-1,-1,-1,-1,-1],"loss_changes":[2.5048409E1,8.029957E0,0E0,2.1613169E0,2.7835722E0,0E0,2.1505985E0,1.1980718E1,1.3225928E1,0E0,0E0,0E0,0E0,0E0,0E0],"parents":[2147483647,0,0,1,1,3,3,4,4,6,6,7,7,8,8],"right_children":[2,4,-1,6,8,-1,10,12,14,-1,-1,-1,-1,-1,-1],"split_conditions":[9.5E-1,2.0953876E-3,9.663377E-2,1.0126528E-3,5.949285E-1,-7.46813E-2,4.8504552E-1,5.20156E-1,6.475943E-1,-6.0039363E-3,-4.960514E-2,1.1552284E-2,-5.292952E-2,5.7207484E-2,-1.172423E-2],"split_indices":[2,1,0,1,3,0,3,3,3,0,0,0,0,0,0],"split_type":[0,0,0,0,0,0,0,0,0,0,0,0,0,0,0],"sum_hessian":[3.3729413E2,3.1425696E2,2.3037193E1,5.9908173E1,2.5434877E2,1.458478E1,4.5323395E1,1.2200015E2,1.3234862E2,2.1025833E1,2.429756E1,7.732657E1,4.467358E1,3.841166E1,9.3936966E1],"tree_param":{"num_deleted":"0","num_feature":"4","num_nodes":"15","size_leaf_vector":"1"}},{"base_weights":[-1.6349247E-2,-8.506291E-2,9.6161455E-2,-6.3951904E-1,-4.302238E-2,-6.016334E-3,-6.678181E-1,-5.3236884E-1,-2.3989927E-2,-8.269478E-2,-4.3381374E-2,3.49971E-2,-7.843532E-2,8.519597E-2,-5.9620407E-3],"categories":[],"categories_nodes":[],"categories_segments":[],"categories_sizes":[],"default_left":[0,0,0,0,0,0,0,0,0,0,0,0,0,0,0],"id":46,"left_children":[1,3,-1,5,7,-1,9,11,13,-1,-1,-1,-1,-1,-1],"loss_changes":[2.2463861E1,7.2479362E0,0E0,3.1930256E-1,2.6992722E0,0E0,4.160061E-1,2.6878378E0,8.831608E0,0E0,0E0,0E0,0E0,0E0,0E0],"parents":[2147483647,0,0,1,1,3,3,4,4,6,6,7,7,8,8],"right_children":[2,4,-1,6,8,-1,10,12,14,-1,-1,-1,-1,-1,-1],"split_conditions":[9.5E-1,1.2606615E-3,9.6161455E-2,2.626788E-1,3.3420026E-1,-6.016334E-3,4.492848E-1,2.607282E-1,3.693108E-1,-8.269478E-2,-4.3381374E-2,3.49971E-2,-7.843532E-2,8.519597E-2,-5.9620407E-3],"split_indices":[2,1,0,3,3,0,3,3,3,0,0,0,0,0,0],"split_type":[0,0,0,0,0,0,0,0,0,0,0,0,0,0,0],"sum_hessian":[3.3206903E2,3.11122E2,2.0947027E1,2.0925947E1,2.9019604E2,1.1201205E0,1.9805826E1,9.854471E0,2.8034158E2,1.0280736E1,9.52509E0,2.1027372E0,7.7517343E0,1.0062062E1,2.702795E2],"tree_param":{"num_deleted":"0","num_feature":"4","num_nodes":"15","size_leaf_vector":"1"}},{"base_weights":[-1.4871659E-2,-7.76501E-2,9.56622E-2,-6.1782223E-1,-3.885685E-2,-8.5868426E-2,-4.6280125E-1,-2.5243676E-1,7.7927466E-3,4.477388E-2,-5.665915E-2,1.5733605E-2,-5.599016E-2,7.6966174E-2,-7.200026E-3],"categories":[],"categories_nodes":[],"categories_segments":[],"categories_sizes":[],"default_left":[0,0,0,0,0,0,0,0,0,0,0,0,0,0,0],"id":47,"left_children":[1,3,-1,5,7,-1,9,11,13,-1,-1,-1,-1,-1,-1],"loss_changes":[2.014735E1,6.473612E0,0E0,3.7585592E-1,2.894996E0,0E0,1.6494219E0,6.649909E0,1.4601886E1,0E0,0E0,0E0,0E0,0E0,0E0],"parents":[2147483647,0,0,1,1,3,3,4,4,6,6,7,7,8,8],"right_children":[2,4,-1,6,8,-1,10,12,14,-1,-1,-1,-1,-1,-1],"split_conditions":[9.5E-1,1.2606615E-3,9.56622E-2,6.396201E-4,4.3302992E-1,-8.5868426E-2,7.017729E-4,3.7841353E-1,4.8504552E-1,4.477388E-2,-5.665915E-2,1.5733605E-2,-5.599016E-2,7.6966174E-2,-7.200026E-3],"split_indices":[2,1,0,1,3,0,1,3,3,0,0,0,0,0,0],"split_type":[0,0,0,0,0,0,0,0,0,0,0,0,0,0,0],"sum_hessian":[3.2812683E2,3.0907437E2,1.9052479E1,1.9709244E1,2.893651E2,5.940349E0,1.3768894E1,5.108175E1,2.3828337E2,1.0697978E0,1.2699096E1,2.2106995E1,2.8974752E1,2.1770592E1,2.1651279E2],"tree_param":{"num_deleted":"0","num_feature":"4","num_nodes":"15","size_leaf_vector":"1"}},{"base_weights":[-1.3496166E-2,-7.08804E-2,9.513322E-2,-3.6765367E-1,-4.829569E-3,-6.949187E-1,-2.62852E-1,-3.206996E-1,3.2593302E-2,-8.475771E-2,-4.7197867E-2,-1.4455116E-2,-6.870201E-2,1.8420277E-2,-7.848682E-2,3.4998838E-2,-4.6553216E-3],"categories":[],"categories_nodes":[],"categories_segments":[],"categories_sizes":[],"default_left":[0,0,0,0,0,0,0,0,0,0,0,0,0,0,0,0,0],"id":48,"left_children":[1,3,-1,5,7,9,11,13,15,-1,-1,-1,-1,-1,-1,-1,-1],"loss_changes":[1.8083E1,6.0367556E0,0E0,1.7403202E0,3.0009634E0,4.2099476E-2,2.11239E0,6.446568E0,5.72115E0,0E0,0E0,0E0,0E0,0E0,0E0,0E0,0E0],"parents":[2147483647,0,0,1,1,3,3,4,4,5,5,6,6,7,7,8,8],"right_children":[2,4,-1,6,8,10,12,14,16,-1,-1,-1,-1,-1,-1,-1,-1],"split_conditions":[9.5E-1,2.0953876E-3,9.513322E-2,1.0126528E-3,4.226268E-1,6.396201E-4,6.26788E-1,3.693108E-1,5.123537E-1,-8.475771E-2,-4.7197867E-2,-1.4455116E-2,-6.870201E-2,1.8420277E-2,-7.848682E-2,3.4998838E-2,-4.6553216E-3],"split_indices":[2,1,0,1,3,1,3,3,3,0,0,0,0,0,0,0,0],"split_type":[0,0,0,0,0,0,0,0,0,0,0,0,0,0,0,0,0],"sum_hessian":[3.2439087E2,3.07055E2,1.7335897E1,5.5066994E1,2.5198798E2,1.1991195E1,4.30758E1,2.5890238E1,2.2609775E2,5.454442E0,6.536752E0,3.473028E1,8.345517E0,1.2689888E1,1.320035E1,4.4444286E1,1.8165346E2],"tree_param":{"num_deleted":"0","num_feature":"4","num_nodes":"17","size_leaf_vector":"1"}},{"base_weights":[-1.27764335E-2,-6.529122E-2,9.457144E-2,-3.0193225E-1,7.2519085E-3,-6.76125E-1,-2.2126982E-1,-7.617306E-2,2.104685E-2,-8.359845E-2,-4.498693E-2,3.5017304E-2,-2.6127523E-2,8.747938E-2,-9.757203E-4],"categories":[],"categories_nodes":[],"categories_segments":[],"categories_sizes":[],"default_left":[0,0,0,0,0,0,0,0,0,0,0,0,0,0,0],"id":49,"left_children":[1,3,-1,5,7,9,11,-1,13,-1,-1,-1,-1,-1,-1],"loss_changes":[1.6259779E1,5.2556195E0,0E0,2.0183177E0,2.5110443E0,6.70166E-2,1.4762738E0,0E0,6.1106005E0,0E0,0E0,0E0,0E0,0E0,0E0],"parents":[2147483647,0,0,1,1,3,3,4,4,5,5,6,6,8,8],"right_children":[2,4,-1,6,8,10,12,-1,14,-1,-1,-1,-1,-1,-1],"split_conditions":[9.5E-1,2.5184879E-3,9.457144E-2,1.0126528E-3,3.3094928E-1,6.396201E-4,2.6658E-1,-7.617306E-2,3.693108E-1,-8.359845E-2,-4.498693E-2,3.5017304E-2,-2.6127523E-2,8.747938E-2,-9.757203E-4],"split_indices":[2,1,0,1,3,1,3,0,3,0,0,0,0,0,0],"split_type":[0,0,0,0,0,0,0,0,0,0,0,0,0,0,0],"sum_hessian":[3.208049E2,3.0502478E2,1.5780131E1,7.08253E1,2.3419948E2,1.1250789E1,5.9574516E1,3.1718247E0,2.3102765E2,5.0135975E0,6.237191E0,3.390533E0,5.6183983E1,7.0912795E0,2.2393637E2],"tree_param":{"num_deleted":"0","num_feature":"4","num_nodes":"15","size_leaf_vector":"1"}},{"base_weights":[-1.1643482E-2,-5.9713222E-2,9.397436E-2,-5.564483E-1,-2.8552035E-2,-8.239209E-2,-4.0143558E-1,-5.054063E-1,-1.0683728E-2,4.8316743E-2,-5.1452763E-2,3.019296E-2,-7.622977E-2,6.4182796E-2,-4.114206E-3],"categories":[],"categories_nodes":[],"categories_segments":[],"categories_sizes":[],"default_left":[0,0,0,0,0,0,0,0,0,0,0,0,0,0,0],"id":50,"left_children":[1,3,-1,5,7,-1,9,11,13,-1,-1,-1,-1,-1,-1],"loss_changes":[1.46150255E1,4.6893044E0,0E0,4.1096735E-1,2.4407406E0,0E0,1.5767305E0,2.3761733E0,5.5463033E0,0E0,0E0,0E0,0E0,0E0,0E0],"parents":[2147483647,0,0,1,1,3,3,4,4,6,6,7,7,8,8],"right_children":[2,4,-1,6,8,-1,10,12,14,-1,-1,-1,-1,-1,-1],"split_conditions":[9.5E-1,1.2606615E-3,9.397436E-2,6.396201E-4,3.3420026E-1,-8.239209E-2,7.017729E-4,2.607282E-1,3.7321195E-1,4.8316743E-2,-5.1452763E-2,3.019296E-2,-7.622977E-2,6.4182796E-2,-4.114206E-3],"split_indices":[2,1,0,1,3,0,1,3,3,0,0,0,0,0,0],"split_type":[0,0,0,0,0,0,0,0,0,0,0,0,0,0,0],"sum_hessian":[3.1734634E2,3.0297546E2,1.4370889E1,1.688928E1,2.8608618E2,4.613522E0,1.2275758E1,9.347334E0,2.7673883E2,1.0205675E0,1.1255191E1,2.2140114E0,7.1333227E0,1.1446526E1,2.652923E2],"tree_param":{"num_deleted":"0","num_feature":"4","num_nodes":"15","size_leaf_vector":"1"}},{"base_weights":[-1.0510101E-2,-5.4442845E-2,9.333909E-2,-2.1582702E-1,3.4608822E-2,-6.393077E-1,-1.658644E-1,-2.8137073E-1,8.3416216E-2,-8.114062E-2,-4.11339E-2,-1.1848084E-2,-6.578111E-2,3.854596E-2,-5.213585E-2,1.1887672E-1,-2.27707E-5],"categories":[],"categories_nodes":[],"categories_segments":[],"categories_sizes":[],"default_left":[0,0,0,0,0,0,0,0,0,0,0,0,0,0,0,0,0],"id":51,"left_children":[1,3,-1,5,7,9,11,13,15,-1,-1,-1,-1,-1,-1,-1,-1],"loss_changes":[1.314085E1,4.3558745E0,0E0,2.1733003E0,3.0437799E0,9.851742E-2,2.1997015E0,4.430873E0,1.5755737E1,0E0,0E0,0E0,0E0,0E0,0E0,0E0,0E0],"parents":[2147483647,0,0,1,1,3,3,4,4,5,5,6,6,7,7,8,8],"right_children":[2,4,-1,6,8,10,12,14,16,-1,-1,-1,-1,-1,-1,-1,-1],"split_conditions":[9.5E-1,4.486045E-3,9.333909E-2,1.0126528E-3,4.3888167E-1,6.396201E-4,3.972539E-3,3.8231468E-1,4.9349806E-1,-8.114062E-2,-4.11339E-2,-1.1848084E-2,-6.578111E-2,3.854596E-2,-5.213585E-2,1.1887672E-1,-2.27707E-5],"split_indices":[2,1,0,1,3,1,1,3,3,0,0,0,0,0,0,0,0],"split_type":[0,0,0,0,0,0,0,0,0,0,0,0,0,0,0,0,0],"sum_hessian":[3.146647E2,3.0157077E2,1.3093929E1,1.0672835E2,1.9484242E2,1.0018272E1,9.6710075E1,2.5431797E1,1.6941063E2,4.2503242E0,5.7679486E0,8.9345314E1,7.3647656E0,6.57006E0,1.8861738E1,1.0988311E1,1.5842232E2],"tree_param":{"num_deleted":"0","num_feature":"4","num_nodes":"17","size_leaf_vector":"1"}},{"base_weights":[-9.530236E-3,-4.9856033E-2,9.266313E-2,-3.103086E-1,-1.2084418E-3,-1.5034555E-1,-5.369859E-1,-1.1163372E-1,9.437284E-2,-3.4669045E-2,4.6357248E-2,-8.014111E-2,-4.169616E-2,8.896585E-3,-5.036315E-2,4.7666036E-2,-8.663325E-3],"categories":[],"categories_nodes":[],"categories_segments":[],"categories_sizes":[],"default_left":[0,0,0,0,0,0,0,0,0,0,0,0,0,0,0,0,0],"id":52,"left_children":[1,3,-1,5,7,9,11,13,15,-1,-1,-1,-1,-1,-1,-1,-1],"loss_changes":[1.1825814E1,3.8019311E0,0E0,1.6316891E0,2.6900036E0,3.6655722E0,2.7360964E-1,9.342998E0,9.495044E0,0E0,0E0,0E0,0E0,0E0,0E0,0E0,0E0],"parents":[2147483647,0,0,1,1,3,3,4,4,5,5,6,6,7,7,8,8],"right_children":[2,4,-1,6,8,10,12,14,16,-1,-1,-1,-1,-1,-1,-1,-1],"split_conditions":[9.5E-1,2.0015358E-3,9.266313E-2,5.143043E-1,5.923277E-1,4.492848E-1,5.7412225E-1,5.20156E-1,6.475943E-1,-3.4669045E-2,4.6357248E-2,-8.014111E-2,-4.169616E-2,8.896585E-3,-5.036315E-2,4.7666036E-2,-8.663325E-3],"split_indices":[2,1,0,3,3,3,3,3,3,0,0,0,0,0,0,0,0],"split_type":[0,0,0,0,0,0,0,0,0,0,0,0,0,0,0,0,0],"sum_hessian":[3.1103076E2,2.9909384E2,1.1936928E1,4.6226223E1,2.5286761E2,2.807637E1,1.8149853E1,1.17245575E2,1.3562204E2,2.1602638E1,6.4737315E0,3.8939745E0,1.4255878E1,7.806825E1,3.9177326E1,4.305527E1,9.2566765E1],"tree_param":{"num_deleted":"0","num_feature":"4","num_nodes":"17","size_leaf_vector":"1"}},{"base_weights":[-8.8520385E-3,-4.5831103E-2,9.1944255E-2,-2.7124247E-1,6.7344126E-3,-3.7842643E-1,3.9450672E-1,6.003652E-1,-6.1828077E-2,-6.033049E-3,-7.196253E-2,7.568282E-2,1.3137924E-2,9.778179E-3,1.2829573E-1,-2.7181996E-2,4.7566495E-3],"categories":[],"categories_nodes":[],"categories_segments":[],"categories_sizes":[],"default_left":[0,0,0,0,0,0,0,0,0,0,0,0,0,0,0,0,0],"id":53,"left_children":[1,3,-1,5,7,9,11,13,15,-1,-1,-1,-1,-1,-1,-1,-1],"loss_changes":[1.0652666E1,3.535259E0,0E0,4.1749716E0,9.918988E0,5.2858977E0,6.9308746E-1,8.530552E0,5.0337105E0,0E0,0E0,0E0,0E0,0E0,0E0,0E0,0E0],"parents":[2147483647,0,0,1,1,3,3,4,4,5,5,6,6,7,7,8,8],"right_children":[2,4,-1,6,8,10,12,14,16,-1,-1,-1,-1,-1,-1,-1,-1],"split_conditions":[9.5E-1,4.3302992E-1,9.1944255E-2,1.8746767E-2,4.8504552E-1,3.7841353E-1,2.967888E-2,4.5123538E-1,5.949285E-1,-6.033049E-3,-7.196253E-2,7.568282E-2,1.3137924E-2,9.778179E-3,1.2829573E-1,-2.7181996E-2,4.7566495E-3],"split_indices":[2,3,0,1,3,3,1,3,3,0,0,0,0,0,0,0,0],"split_type":[0,0,0,0,0,0,0,0,0,0,0,0,0,0,0,0,0],"sum_hessian":[3.0809732E2,2.972085E2,1.0888816E1,5.5415546E1,2.4179295E2,4.810271E1,7.3128386E0,2.4231783E1,2.1756117E2,2.5503187E1,2.2599522E1,2.28717E0,5.025669E0,1.4614542E1,9.617241E0,7.400935E1,1.4355182E2],"tree_param":{"num_deleted":"0","num_feature":"4","num_nodes":"17","size_leaf_vector":"1"}},{"base_weights":[-7.483573E-3,-4.136862E-2,9.117993E-2,-4.9904656E-1,-1.5441956E-2,-7.938042E-2,-3.4000656E-1,-4.7308335E-1,8.857888E-4,4.0687542E-2,-4.5450296E-2,2.9618928E-2,-7.382277E-2,5.9398945E-2,-2.5968475E-3],"categories":[],"categories_nodes":[],"categories_segments":[],"categories_sizes":[],"default_left":[0,0,0,0,0,0,0,0,0,0,0,0,0,0,0],"id":54,"left_children":[1,3,-1,5,7,-1,9,11,13,-1,-1,-1,-1,-1,-1],"loss_changes":[9.584604E0,3.5110896E0,0E0,4.7387695E-1,2.105178E0,0E0,1.2158E0,2.1982365E0,4.363139E0,0E0,0E0,0E0,0E0,0E0,0E0],"parents":[2147483647,0,0,1,1,3,3,4,4,6,6,7,7,8,8],"right_children":[2,4,-1,6,8,-1,10,12,14,-1,-1,-1,-1,-1,-1],"split_conditions":[9.5E-1,1.2606615E-3,9.117993E-2,6.396201E-4,3.3420026E-1,-7.938042E-2,7.1148685E-4,2.607282E-1,3.693108E-1,4.0687542E-2,-4.5450296E-2,2.9618928E-2,-7.382277E-2,5.9398945E-2,-2.5968475E-3],"split_indices":[2,1,0,1,3,0,1,3,3,0,0,0,0,0,0],"split_type":[0,0,0,0,0,0,0,0,0,0,0,0,0,0,0],"sum_hessian":[3.0548163E2,2.9554282E2,9.938801E0,1.4866111E1,2.8067673E2,3.811263E0,1.1054848E1,8.705339E0,2.7197137E2,1.1300046E0,9.924843E0,2.201362E0,6.5039773E0,1.086599E1,2.6110538E2],"tree_param":{"num_deleted":"0","num_feature":"4","num_nodes":"15","size_leaf_vector":"1"}},{"base_weights":[-6.7476523E-3,-3.7772335E-2,9.036891E-2,-1.7971358E-1,3.8051307E-2,-5.906864E-1,-1.3545565E-1,-2.7234414E-1,8.0649436E-2,-7.803346E-2,-3.5719316E-2,-8.843208E-3,-6.370784E-2,3.211778E-2,-5.1699728E-2,8.648616E-2,1.1235153E-3],"categories":[],"categories_nodes":[],"categories_segments":[],"categories_sizes":[],"default_left":[0,0,0,0,0,0,0,0,0,0,0,0,0,0,0,0,0],"id":55,"left_children":[1,3,-1,5,7,9,11,13,15,-1,-1,-1,-1,-1,-1,-1,-1],"loss_changes":[8.638336E0,3.1875684E0,0E0,1.7948585E0,2.579942E0,1.5185523E-1,2.1693046E0,3.589243E0,9.292514E0,0E0,0E0,0E0,0E0,0E0,0E0,0E0,0E0],"parents":[2147483647,0,0,1,1,3,3,4,4,5,5,6,6,7,7,8,8],"right_children":[2,4,-1,6,8,10,12,14,16,-1,-1,-1,-1,-1,-1,-1,-1],"split_conditions":[9.5E-1,4.486045E-3,9.036891E-2,1.0126528E-3,4.3368012E-1,6.396201E-4,3.972539E-3,3.8231468E-1,4.9349806E-1,-7.803346E-2,-3.5719316E-2,-8.843208E-3,-6.370784E-2,3.211778E-2,-5.1699728E-2,8.648616E-2,1.1235153E-3],"split_indices":[2,1,0,1,3,1,1,3,3,0,0,0,0,0,0,0,0],"split_type":[0,0,0,0,0,0,0,0,0,0,0,0,0,0,0,0,0],"sum_hessian":[3.0361652E2,2.9453815E2,9.078377E0,1.0207828E2,1.9245987E2,8.723805E0,9.335448E1,2.2574587E1,1.6988528E2,3.5215364E0,5.2022686E0,8.642869E1,6.9257865E0,6.4979486E0,1.6076637E1,1.2882705E1,1.5700258E2],"tree_param":{"num_deleted":"0","num_feature":"4","num_nodes":"17","size_leaf_vector":"1"}},{"base_weights":[-6.215834E-3,-3.473933E-2,8.950911E-2,-4.5858258E-1,-1.2367246E-2,-6.342861E-1,-2.0871675E-1,-2.7964406E-2,4.275277E-1,-5.543279E-3,-7.1792305E-2,7.334998E-2,-6.500909E-2,1.049217E-3,-6.1389733E-2,-1.5326724E-3,1.2115848E-1],"categories":[],"categories_nodes":[],"categories_segments":[],"categories_sizes":[],"default_left":[0,0,0,0,0,0,0,0,0,0,0,0,0,0,0,0,0],"id":56,"left_children":[1,3,-1,5,7,9,11,13,15,-1,-1,-1,-1,-1,-1,-1,-1],"loss_changes":[7.7925086E0,2.7783484E0,0E0,5.1266074E-1,1.9324512E0,3.5410452E-1,3.6194072E0,6.1188283E0,3.3679552E0,0E0,0E0,0E0,0E0,0E0,0E0,0E0,0E0],"parents":[2147483647,0,0,1,1,3,3,4,4,5,5,6,6,7,7,8,8],"right_children":[2,4,-1,6,8,10,12,14,16,-1,-1,-1,-1,-1,-1,-1,-1],"split_conditions":[9.5E-1,1.2606615E-3,8.950911E-2,4.492848E-1,9.137994E-2,2.6658E-1,5.123537E-1,6.258175E-2,6.7945385E-1,-5.543279E-3,-7.1792305E-2,7.334998E-2,-6.500909E-2,1.049217E-3,-6.1389733E-2,-1.5326724E-3,1.2115848E-1],"split_indices":[2,1,0,3,1,3,3,1,3,0,0,0,0,0,0,0,0],"split_type":[0,0,0,0,0,0,0,0,0,0,0,0,0,0,0,0,0],"sum_hessian":[3.0090158E2,2.926031E2,8.2985E0,1.3692783E1,2.789103E2,7.136178E0,6.556606E0,2.702641E2,8.646206E0,1.1108354E0,6.0253425E0,1.8804624E0,4.676143E0,2.5453996E2,1.5724145E1,6.15191E0,2.4942956E0],"tree_param":{"num_deleted":"0","num_feature":"4","num_nodes":"17","size_leaf_vector":"1"}},{"base_weights":[-5.3581754E-3,-3.1471573E-2,8.859952E-2,-1.5882331E-1,3.9505173E-2,-7.58959E-2,-1.3297676E-1,7.880836E-2,-2.2586514E-1,-2.509839E-3,-2.339097E-2,-1.298832E-4,4.4796433E-2,-7.100334E-2,1.8934619E-2],"categories":[],"categories_nodes":[],"categories_segments":[],"categories_sizes":[],"default_left":[0,0,0,0,0,0,0,0,0,0,0,0,0,0,0],"id":57,"left_children":[1,3,-1,5,7,-1,9,11,13,-1,-1,-1,-1,-1,-1],"loss_changes":[7.0260653E0,2.6552982E0,0E0,1.5290172E0,1.9889019E0,0E0,1.1042501E0,4.890251E0,5.087474E0,0E0,0E0,0E0,0E0,0E0,0E0],"parents":[2147483647,0,0,1,1,3,3,4,4,6,6,7,7,8,8],"right_children":[2,4,-1,6,8,-1,10,12,14,-1,-1,-1,-1,-1,-1],"split_conditions":[9.5E-1,4.690132E-3,8.859952E-2,6.396201E-4,8.068921E-1,-7.58959E-2,5.143043E-1,6.879064E-1,8.439532E-1,-2.509839E-3,-2.339097E-2,-1.298832E-4,4.4796433E-2,-7.100334E-2,1.8934619E-2],"split_indices":[2,1,0,1,3,0,3,3,3,0,0,0,0,0,0],"split_type":[0,0,0,0,0,0,0,0,0,0,0,0,0,0,0],"sum_hessian":[2.996574E2,2.9206564E2,7.591764E0,1.0407996E2,1.8798569E2,3.1262803E0,1.0095369E2,1.6434767E2,2.3638008E1,4.9401463E1,5.1552223E1,1.3586198E2,2.8485695E1,1.0585015E1,1.3052993E1],"tree_param":{"num_deleted":"0","num_feature":"4","num_nodes":"15","size_leaf_vector":"1"}},{"base_weights":[-4.9816496E-3,-2.8992506E-2,8.763964E-2,-2.2368905E-1,1.4507471E-2,-3.3172286E-1,4.146577E-1,5.505459E-1,-4.1819435E-2,-3.2376763E-3,-6.687375E-2,7.344689E-2,1.719526E-2,7.358344E-3,1.3451916E-1,-2.2071961E-2,5.262678E-3],"categories":[],"categories_nodes":[],"categories_segments":[],"categories_sizes":[],"default_left":[0,0,0,0,0,0,0,0,0,0,0,0,0,0,0,0,0],"id":58,"left_children":[1,3,-1,5,7,9,11,13,15,-1,-1,-1,-1,-1,-1,-1,-1],"loss_changes":[6.3449955E0,2.473472E0,0E0,3.815078E0,7.2495832E0,4.635458E0,5.073204E-1,8.553661E0,3.6868165E0,0E0,0E0,0E0,0E0,0E0,0E0,0E0,0E0],"parents":[2147483647,0,0,1,1,3,3,4,4,5,5,6,6,7,7,8,8],"right_children":[2,4,-1,6,8,10,12,14,16,-1,-1,-1,-1,-1,-1,-1,-1],"split_conditions":[9.5E-1,4.3302992E-1,8.763964E-2,1.8746767E-2,4.6814045E-1,3.7841353E-1,2.967888E-2,4.5123538E-1,5.949285E-1,-3.2376763E-3,-6.687375E-2,7.344689E-2,1.719526E-2,7.358344E-3,1.3451916E-1,-2.2071961E-2,5.262678E-3],"split_indices":[2,3,0,1,3,3,1,3,3,0,0,0,0,0,0,0,0],"split_type":[0,0,0,0,0,0,0,0,0,0,0,0,0,0,0,0,0],"sum_hessian":[2.9761996E2,2.9066855E2,6.951405E0,5.232606E1,2.3834248E2,4.5163013E1,7.163048E0,2.1829227E1,2.1651326E2,2.4498667E1,2.0664349E1,2.21637E0,4.9466777E0,1.432417E1,7.5050573E0,7.434737E1,1.421659E2],"tree_param":{"num_deleted":"0","num_feature":"4","num_nodes":"17","size_leaf_vector":"1"}},{"base_weights":[-3.885429E-3,-2.5961488E-2,8.662863E-2,-5.3903157E-1,-1.01843495E-2,-7.449282E-2,-3.051965E-1,4.6901207E-2,-1.17723025E-1,4.419319E-2,-5.727763E-2,-7.1172616E-3,5.775733E-2,-6.287389E-2,-1.3781287E-3],"categories":[],"categories_nodes":[],"categories_segments":[],"categories_sizes":[],"default_left":[0,0,0,0,0,0,0,0,0,0,0,0,0,0,0],"id":59,"left_children":[1,3,-1,5,7,-1,9,11,13,-1,-1,-1,-1,-1,-1],"loss_changes":[5.722657E0,2.344901E0,0E0,1.8877697E-1,1.7410872E0,0E0,1.4008498E0,1.1657716E1,5.213701E0,0E0,0E0,0E0,0E0,0E0,0E0],"parents":[2147483647,0,0,1,1,3,3,4,4,6,6,7,7,8,8],"right_children":[2,4,-1,6,8,-1,10,12,14,-1,-1,-1,-1,-1,-1],"split_conditions":[9.5E-1,1.0126528E-3,8.662863E-2,6.396201E-4,6.475943E-1,-7.449282E-2,7.1148685E-4,6.0468143E-1,6.677503E-1,4.419319E-2,-5.727763E-2,-7.1172616E-3,5.775733E-2,-6.287389E-2,-1.3781287E-3],"split_indices":[2,1,0,1,3,0,1,3,3,0,0,0,0,0,0],"split_type":[0,0,0,0,0,0,0,0,0,0,0,0,0,0,0],"sum_hessian":[2.957297E2,2.8935892E2,6.3708053E0,7.643042E0,2.8171585E2,2.9020379E0,4.7410045E0,1.8439563E2,9.732024E1,1.078384E0,3.6626203E0,1.5154332E2,3.2852303E1,1.5595932E1,8.1724304E1],"tree_param":{"num_deleted":"0","num_feature":"4","num_nodes":"15","size_leaf_vector":"1"}},{"base_weights":[-3.666735E-3,-2.3974618E-2,8.556663E-2,-1.923881E-1,2.206289E-2,-1.3825445E-1,-5.893949E-1,-6.987064E-2,3.4792464E-2,-7.667824E-3,-6.661082E-2,-8.08517E-2,-4.8503648E-3,6.828394E-2,1.0693475E-3],"categories":[],"categories_nodes":[],"categories_segments":[],"categories_sizes":[],"default_left":[0,0,0,0,0,0,0,0,0,0,0,0,0,0,0],"id":60,"left_children":[1,3,-1,5,7,9,11,-1,13,-1,-1,-1,-1,-1,-1],"loss_changes":[5.1735764E0,2.248364E0,0E0,1.2561092E0,2.1180701E0,1.7716022E0,8.0960107E-1,0E0,3.509596E0,0E0,0E0,0E0,0E0,0E0,0E0],"parents":[2147483647,0,0,1,1,3,3,4,4,5,5,6,6,8,8],"right_children":[2,4,-1,6,8,10,12,-1,14,-1,-1,-1,-1,-1,-1],"split_conditions":[9.5E-1,2.5184879E-3,8.556663E-2,6.879064E-1,3.394018E-1,2.3389757E-3,7.958388E-1,-6.987064E-2,3.693108E-1,-7.667824E-3,-6.661082E-2,-8.08517E-2,-4.8503648E-3,6.828394E-2,1.0693475E-3],"split_indices":[2,1,0,3,3,1,3,0,3,0,0,0,0,0,0],"split_type":[0,0,0,0,0,0,0,0,0,0,0,0,0,0,0],"sum_hessian":[2.9428348E2,2.8843915E2,5.8443346E0,6.1238556E1,2.2720059E2,5.5076828E1,6.1617293E0,3.0077617E0,2.2419283E2,5.0348717E1,4.728111E0,4.033087E0,2.1286423E0,7.0581117E0,2.1713472E2],"tree_param":{"num_deleted":"0","num_feature":"4","num_nodes":"15","size_leaf_vector":"1"}},{"base_weights":[-3.621776E-3,-2.232205E-2,8.445428E-2,-5.143314E-1,-7.892615E-3,-7.286075E-2,-2.7939653E-1,-2.1808198E-2,3.8788515E-1,4.1680932E-2,-5.4924637E-2,1.3609504E-3,-5.6996893E-2,3.7312289E-3,1.24959946E-1],"categories":[],"categories_nodes":[],"categories_segments":[],"categories_sizes":[],"default_left":[0,0,0,0,0,0,0,0,0,0,0,0,0,0,0],"id":61,"left_children":[1,3,-1,5,7,-1,9,11,13,-1,-1,-1,-1,-1,-1],"loss_changes":[4.6811085E0,2.0446863E0,0E0,2.0955801E-1,1.5581139E0,0E0,1.2690924E0,5.3033314E0,2.8565848E0,0E0,0E0,0E0,0E0,0E0,0E0],"parents":[2147483647,0,0,1,1,3,3,4,4,6,6,7,7,8,8],"right_children":[2,4,-1,6,8,-1,10,12,14,-1,-1,-1,-1,-1,-1],"split_conditions":[9.5E-1,1.0126528E-3,8.445428E-2,6.396201E-4,9.137994E-2,-7.286075E-2,7.1148685E-4,6.258175E-2,7.6723015E-1,4.1680932E-2,-5.4924637E-2,1.3609504E-3,-5.6996893E-2,3.7312289E-3,1.24959946E-1],"split_indices":[2,1,0,1,1,0,1,1,3,0,0,0,0,0,0],"split_type":[0,0,0,0,0,0,0,0,0,0,0,0,0,0,0],"sum_hessian":[2.9294632E2,2.8757947E2,5.3668504E0,7.2066116E0,2.8037286E2,2.6700404E0,4.5365715E0,2.7176257E2,8.6103E0,1.1150842E0,3.421487E0,2.5618512E2,1.5577435E1,6.861943E0,1.748357E0],"tree_param":{"num_deleted":"0","num_feature":"4","num_nodes":"15","size_leaf_vector":"1"}},{"base_weights":[-3.0155135E-3,-2.0209396E-2,8.329274E-2,-1.9675682E-1,1.807748E-2,-3.0105153E-1,3.997435E-1,4.9038383E-1,-3.836143E-2,-1.8359999E-3,-6.329664E-2,2.4682747E-3,5.9893828E-2,-5.0791916E-3,8.8879146E-2,-2.174216E-2,4.3422007E-3],"categories":[],"categories_nodes":[],"categories_segments":[],"categories_sizes":[],"default_left":[0,0,0,0,0,0,0,0,0,0,0,0,0,0,0,0,0],"id":62,"left_children":[1,3,-1,5,7,9,11,13,15,-1,-1,-1,-1,-1,-1,-1,-1],"loss_changes":[4.2316976E0,1.9523939E0,0E0,3.3221421E0,6.3589664E0,4.1522646E0,5.895426E-1,5.5346704E0,3.1343024E0,0E0,0E0,0E0,0E0,0E0,0E0,0E0,0E0],"parents":[2147483647,0,0,1,1,3,3,4,4,5,5,6,6,7,7,8,8],"right_children":[2,4,-1,6,8,10,12,14,16,-1,-1,-1,-1,-1,-1,-1,-1],"split_conditions":[9.5E-1,4.3302992E-1,8.329274E-2,1.8746767E-2,4.8504552E-1,3.7841353E-1,4.226268E-1,4.4213265E-1,5.923277E-1,-1.8359999E-3,-6.329664E-2,2.4682747E-3,5.9893828E-2,-5.0791916E-3,8.8879146E-2,-2.174216E-2,4.3422007E-3],"split_indices":[2,3,0,1,3,3,3,3,3,0,0,0,0,0,0,0,0],"split_type":[0,0,0,0,0,0,0,0,0,0,0,0,0,0,0,0,0],"sum_hessian":[2.9224667E2,2.8731296E2,4.933701E0,5.0466084E1,2.3684688E2,4.337714E1,7.088943E0,2.4460617E1,2.1238626E2,2.3995508E1,1.9381634E1,2.8488328E0,4.24011E0,1.0741902E1,1.3718715E1,6.60704E1,1.4631587E2],"tree_param":{"num_deleted":"0","num_feature":"4","num_nodes":"17","size_leaf_vector":"1"}},{"base_weights":[-2.3818181E-3,-1.825125E-2,8.208389E-2,-4.3285626E-1,-1.9551434E-3,9.141098E-2,-8.323945E-2,3.9400983E-1,-2.2532517E-2,5.9378475E-2,-3.8545128E-2,-4.080334E-2,5.9565872E-2,-5.8943104E-2,1.1374997E-3],"categories":[],"categories_nodes":[],"categories_segments":[],"categories_sizes":[],"default_left":[0,0,0,0,0,0,0,0,0,0,0,0,0,0,0],"id":63,"left_children":[1,3,-1,5,7,9,-1,11,13,-1,-1,-1,-1,-1,-1],"loss_changes":[3.8272512E0,1.9400996E0,0E0,2.350825E0,2.26922E0,1.5699017E0,0E0,2.4682164E0,5.093934E0,0E0,0E0,0E0,0E0,0E0,0E0],"parents":[2147483647,0,0,1,1,3,3,4,4,5,5,7,7,8,8],"right_children":[2,4,-1,6,8,10,-1,12,14,-1,-1,-1,-1,-1,-1],"split_conditions":[9.5E-1,3.3420026E-1,8.208389E-2,2.6658E-1,3.693108E-1,1.6553715E-3,-8.323945E-2,1.4810077E-3,4.226268E-1,5.9378475E-2,-3.8545128E-2,-4.080334E-2,5.9565872E-2,-5.8943104E-2,1.1374997E-3],"split_indices":[2,3,0,3,3,1,0,1,3,0,0,0,0,0,0],"split_type":[0,0,0,0,0,0,0,0,0,0,0,0,0,0,0],"sum_hessian":[2.908139E2,2.8627316E2,4.5407295E0,9.859751E0,2.7641342E2,4.5978017E0,5.261949E0,1.2758439E1,2.6365497E2,2.119607E0,2.4781947E0,2.357636E0,1.0400803E1,1.3955189E1,2.4969978E2],"tree_param":{"num_deleted":"0","num_feature":"4","num_nodes":"15","size_leaf_vector":"1"}},{"base_weights":[-2.3397559E-3,-1.6984398E-2,8.082945E-2,-1.16601884E-1,4.6499547E-2,-5.797303E-3,-2.363389E-1,8.817016E-2,-2.081413E-1,-9.184573E-3,5.182249E-2,-6.9727324E-2,-4.5877337E-3,-2.7055163E-2,1.3737117E-2,-5.2709937E-2,3.6056764E-2],"categories":[],"categories_nodes":[],"categories_segments":[],"categories_sizes":[],"default_left":[0,0,0,0,0,0,0,0,0,0,0,0,0,0,0,0,0],"id":64,"left_children":[1,3,-1,5,7,9,11,13,15,-1,-1,-1,-1,-1,-1,-1,-1],"loss_changes":[3.4680102E0,1.8191137E0,0E0,1.4834163E0,1.8845973E0,2.7147171E0,4.6878777E0,2.7171721E0,4.730615E0,0E0,0E0,0E0,0E0,0E0,0E0,0E0,0E0],"parents":[2147483647,0,0,1,1,3,3,4,4,5,5,6,6,7,7,8,8],"right_children":[2,4,-1,6,8,10,12,14,16,-1,-1,-1,-1,-1,-1,-1,-1],"split_conditions":[9.5E-1,5.5335374E-3,8.082945E-2,5.2600783E-1,6.258175E-2,5.0845253E-1,6.0468143E-1,4.3888167E-1,9.137994E-2,-9.184573E-3,5.182249E-2,-6.9727324E-2,-4.5877337E-3,-2.7055163E-2,1.3737117E-2,-5.2709937E-2,3.6056764E-2],"split_indices":[2,1,0,3,1,3,3,3,1,0,0,0,0,0,0,0,0],"split_type":[0,0,0,0,0,0,0,0,0,0,0,0,0,0,0,0,0],"sum_hessian":[2.8997394E2,2.8579E2,4.183937E0,1.1091232E2,1.7487769E2,5.8149353E1,5.2762974E1,1.5084625E2,2.4031437E1,5.0655987E1,7.493368E0,1.4649319E1,3.8113655E1,1.7651468E1,1.3319478E2,1.5443295E1,8.588143E0],"tree_param":{"num_deleted":"0","num_feature":"4","num_nodes":"17","size_leaf_vector":"1"}},{"base_weights":[-2.1905547E-3,-1.5740814E-2,7.953257E-2,-4.8639286E-1,-2.5950228E-3,-7.109839E-2,-2.4914372E-1,5.806253E-2,-1.1562253E-1,2.2591818E-2,-6.740776E-2,-4.596454E-3,5.0594747E-2,-2.9736793E-2,1.6010901E-2],"categories":[],"categories_nodes":[],"categories_segments":[],"categories_sizes":[],"default_left":[0,0,0,0,0,0,0,0,0,0,0,0,0,0,0],"id":65,"left_children":[1,3,-1,5,7,-1,9,11,13,-1,-1,-1,-1,-1,-1],"loss_changes":[3.1435955E0,1.767496E0,0E0,2.3648274E-1,1.9203259E0,0E0,1.225095E0,8.517177E0,4.9492817E0,0E0,0E0,0E0,0E0,0E0,0E0],"parents":[2147483647,0,0,1,1,3,3,4,4,6,6,7,7,8,8],"right_children":[2,4,-1,6,8,-1,10,12,14,-1,-1,-1,-1,-1,-1],"split_conditions":[9.5E-1,1.0126528E-3,7.953257E-2,6.396201E-4,6.475943E-1,-7.109839E-2,8.1581133E-4,6.0468143E-1,1.601438E-2,2.2591818E-2,-6.740776E-2,-4.596454E-3,5.0594747E-2,-2.9736793E-2,1.6010901E-2],"split_indices":[2,1,0,1,3,0,1,3,1,0,0,0,0,0,0],"split_type":[0,0,0,0,0,0,0,0,0,0,0,0,0,0,0],"sum_hessian":[2.8873868E2,2.848787E2,3.8599901E0,6.7625537E0,2.7811615E2,2.4481962E0,4.3143578E0,1.8130368E2,9.681247E1,2.2581575E0,2.0562E0,1.478589E2,3.344477E1,5.8303734E1,3.8508736E1],"tree_param":{"num_deleted":"0","num_feature":"4","num_nodes":"15","size_leaf_vector":"1"}},{"base_weights":[-2.1210702E-3,-1.4695543E-2,7.819559E-2,-3.2143024E-1,3.7170958E-3,-5.8579654E-1,-9.815344E-2,6.370363E-2,-1.0630106E-1,-1.1057679E-2,-6.670143E-2,9.177253E-2,-4.035875E-2,-2.887095E-3,5.1161077E-2,-4.3615498E-2,4.84305E-3],"categories":[],"categories_nodes":[],"categories_segments":[],"categories_sizes":[],"default_left":[0,0,0,0,0,0,0,0,0,0,0,0,0,0,0,0,0],"id":66,"left_children":[1,3,-1,5,7,9,11,13,15,-1,-1,-1,-1,-1,-1,-1,-1],"loss_changes":[2.851776E0,1.6080751E0,0E0,8.9419794E-1,1.7846502E0,2.03403E-1,3.4552593E0,7.269513E0,4.8917627E0,0E0,0E0,0E0,0E0,0E0,0E0,0E0,0E0],"parents":[2147483647,0,0,1,1,3,3,4,4,5,5,6,6,7,7,8,8],"right_children":[2,4,-1,6,8,10,12,14,16,-1,-1,-1,-1,-1,-1,-1,-1],"split_conditions":[9.5E-1,1.3942185E-3,7.819559E-2,4.3302992E-1,6.475943E-1,6.487761E-4,4.5253575E-1,6.0858256E-1,6.9245774E-1,-1.1057679E-2,-6.670143E-2,9.177253E-2,-4.035875E-2,-2.887095E-3,5.1161077E-2,-4.3615498E-2,4.84305E-3],"split_indices":[2,1,0,3,3,1,3,3,3,0,0,0,0,0,0,0,0],"split_type":[0,0,0,0,0,0,0,0,0,0,0,0,0,0,0,0,0],"sum_hessian":[2.870802E2,2.8351465E2,3.5655506E0,1.5123098E1,2.6839154E2,6.18099E0,8.942109E0,1.7396143E2,9.4430115E1,1.2468615E0,4.9341288E0,1.6036576E0,7.338451E0,1.4494034E2,2.902109E1,2.9571451E1,6.4858665E1],"tree_param":{"num_deleted":"0","num_feature":"4","num_nodes":"17","size_leaf_vector":"1"}},{"base_weights":[-1.848068E-3,-1.3506041E-2,7.682281E-2,-6.950005E-2,-5.54327E-3,1.0619475E-1,-6.458329E-2,-1.050557E-2,4.07956E-2,-4.1814562E-2,3.1971845E-3],"categories":[],"categories_nodes":[],"categories_segments":[],"categories_sizes":[],"default_left":[0,0,0,0,0,0,0,0,0,0,0],"id":67,"left_children":[1,3,-1,-1,5,7,9,-1,-1,-1,-1],"loss_changes":[2.5873163E0,1.5359166E0,0E0,0E0,1.8637632E0,6.270193E0,6.3217278E0,0E0,0E0,0E0,0E0],"parents":[2147483647,0,0,1,1,4,4,5,5,6,6],"right_children":[2,4,-1,-1,6,8,10,-1,-1,-1,-1],"split_conditions":[9.5E-1,6.396201E-4,7.682281E-2,-6.950005E-2,5.20156E-1,4.4213265E-1,5.923277E-1,-1.050557E-2,4.07956E-2,-4.1814562E-2,3.1971845E-3],"split_indices":[2,1,0,0,3,3,3,0,0,0,0],"split_type":[0,0,0,0,0,0,0,0,0,0,0],"sum_hessian":[2.8604352E2,2.8274554E2,3.2979467E0,2.2690318E0,2.8047653E2,9.668798E1,1.8378854E2,5.7256767E1,3.9431213E1,3.8710197E1,1.4507834E2],"tree_param":{"num_deleted":"0","num_feature":"4","num_nodes":"11","size_leaf_vector":"1"}},{"base_weights":[-1.7943846E-3,-1.2610999E-2,7.541867E-2,-3.8274214E-1,1.0908938E-3,1.2961969E-1,-8.0521084E-2,3.980686E-1,-1.9657092E-2,6.091411E-2,-3.5240773E-2,-3.484913E-2,5.6023534E-2,-5.3143103E-2,9.2985353E-4],"categories":[],"categories_nodes":[],"categories_segments":[],"categories_sizes":[],"default_left":[0,0,0,0,0,0,0,0,0,0,0,0,0,0,0],"id":68,"left_children":[1,3,-1,5,7,9,-1,11,13,-1,-1,-1,-1,-1,-1],"loss_changes":[2.350409E0,1.4367576E0,0E0,2.2934062E0,2.2654886E0,1.4701456E0,0E0,1.8492045E0,3.8792043E0,0E0,0E0,0E0,0E0,0E0,0E0],"parents":[2147483647,0,0,1,1,3,3,4,4,5,5,7,7,8,8],"right_children":[2,4,-1,6,8,10,-1,12,14,-1,-1,-1,-1,-1,-1],"split_conditions":[9.5E-1,3.3420026E-1,7.541867E-2,2.6658E-1,3.693108E-1,1.6553715E-3,-8.0521084E-2,1.4810077E-3,4.226268E-1,6.091411E-2,-3.5240773E-2,-3.484913E-2,5.6023534E-2,-5.3143103E-2,9.2985353E-4],"split_indices":[2,3,0,3,3,1,0,1,3,0,0,0,0,0,0],"split_type":[0,0,0,0,0,0,0,0,0,0,0,0,0,0,0],"sum_hessian":[2.8527283E2,2.8221814E2,3.0546725E0,9.113031E0,2.7310513E2,4.4316263E0,4.681405E0,1.2661564E1,2.6044354E2,2.0893912E0,2.342235E0,2.0544791E0,1.0607084E1,1.3017285E1,2.4742627E2],"tree_param":{"num_deleted":"0","num_feature":"4","num_nodes":"15","size_leaf_vector":"1"}},{"base_weights":[-1.7727695E-3,-1.181647E-2,7.398648E-2,-6.779719E-2,-4.4255373E-3,9.958205E-2,-5.959787E-2,-8.88383E-3,3.5961926E-2,-3.8836483E-2,2.7817274E-3],"categories":[],"categories_nodes":[],"categories_segments":[],"categories_sizes":[],"default_left":[0,0,0,0,0,0,0,0,0,0,0],"id":69,"left_children":[1,3,-1,-1,5,7,9,-1,-1,-1,-1],"loss_changes":[2.1369023E0,1.3897245E0,0E0,0E0,1.6171174E0,4.818495E0,5.3012013E0,0E0,0E0,0E0,0E0],"parents":[2147483647,0,0,1,1,4,4,5,5,6,6],"right_children":[2,4,-1,-1,6,8,10,-1,-1,-1,-1],"split_conditions":[9.5E-1,6.396201E-4,7.398648E-2,-6.779719E-2,5.20156E-1,4.4213265E-1,5.923277E-1,-8.88383E-3,3.5961926E-2,-3.8836483E-2,2.7817274E-3],"split_indices":[2,1,0,0,3,3,3,0,0,0,0],"split_type":[0,0,0,0,0,0,0,0,0,0,0],"sum_hessian":[2.847056E2,2.8187238E2,2.8332176E0,2.0974336E0,2.7977493E2,9.6692E1,1.8308295E2,5.644841E1,4.0243595E1,3.773173E1,1.4535121E2],"tree_param":{"num_deleted":"0","num_feature":"4","num_nodes":"11","size_leaf_vector":"1"}},{"base_weights":[-1.712966E-3,-1.1055544E-2,7.253003E-2,-1.4731452E-1,2.4798783E-2,-9.3023E-2,-5.5851483E-1,8.8325046E-2,1.4518779E-2,-3.166968E-3,-6.3921705E-2,-7.920223E-2,-6.485174E-4,1.6781924E-2,-2.938811E-3],"categories":[],"categories_nodes":[],"categories_segments":[],"categories_sizes":[],"default_left":[0,0,0,0,0,0,0,0,0,0,0,0,0,0,0],"id":70,"left_children":[1,3,-1,5,7,9,11,-1,13,-1,-1,-1,-1,-1,-1],"loss_changes":[1.9440198E0,1.3833232E0,0E0,1.2646136E0,1.9677354E0,1.7657233E0,8.55731E-1,0E0,1.5045183E0,0E0,0E0,0E0,0E0,0E0,0E0],"parents":[2147483647,0,0,1,1,3,3,4,4,5,5,6,6,8,8],"right_children":[2,4,-1,6,8,10,12,-1,14,-1,-1,-1,-1,-1,-1],"split_conditions":[9.5E-1,2.5184879E-3,7.253003E-2,6.879064E-1,2.5703171E-3,2.3389757E-3,2.1331795E-3,8.8325046E-2,5.026008E-1,-3.166968E-3,-6.3921705E-2,-7.920223E-2,-6.485174E-4,1.6781924E-2,-2.938811E-3],"split_indices":[2,1,0,3,1,1,1,0,3,0,0,0,0,0,0],"split_type":[0,0,0,0,0,0,0,0,0,0,0,0,0,0,0],"sum_hessian":[2.8403394E2,2.8140253E2,2.631406E0,5.797366E1,2.2342886E2,5.2295246E1,5.678411E0,1.6390318E0,2.2178983E2,4.796534E1,4.329907E0,3.6849425E0,1.9934688E0,4.8751675E1,1.7303815E2],"tree_param":{"num_deleted":"0","num_feature":"4","num_nodes":"15","size_leaf_vector":"1"}},{"base_weights":[-1.5247831E-3,-1.0227118E-2,7.105701E-2,-6.6181734E-2,-3.3243806E-3,4.8107315E-2,-1.0028104E-1,-3.2871354E-3,3.956502E-2,-2.6299214E-2,1.4011591E-2],"categories":[],"categories_nodes":[],"categories_segments":[],"categories_sizes":[],"default_left":[0,0,0,0,0,0,0,0,0,0,0],"id":71,"left_children":[1,3,-1,-1,5,7,9,-1,-1,-1,-1],"loss_changes":[1.7696226E0,1.2659237E0,0E0,0E0,1.4010623E0,5.1808453E0,3.8455472E0,0E0,0E0,0E0,0E0],"parents":[2147483647,0,0,1,1,4,4,5,5,6,6],"right_children":[2,4,-1,-1,6,8,10,-1,-1,-1,-1],"split_conditions":[9.5E-1,6.396201E-4,7.105701E-2,-6.6181734E-2,6.423927E-1,6.0468143E-1,1.601438E-2,-3.2871354E-3,3.956502E-2,-2.6299214E-2,1.4011591E-2],"split_indices":[2,1,0,0,3,3,1,0,0,0,0],"split_type":[0,0,0,0,0,0,0,0,0,0,0],"sum_hessian":[2.8339365E2,2.8094592E2,2.4477322E0,1.9504857E0,2.7899542E2,1.8262425E2,9.637116E1,1.4884766E2,3.3776596E1,5.7415718E1,3.895545E1],"tree_param":{"num_deleted":"0","num_feature":"4","num_nodes":"11","size_leaf_vector":"1"}},{"base_weights":[-1.3603623E-3,-9.4969645E-3,6.957008E-2,-1.7395431E-2,5.368413E-1,-2.440932E-3,-7.824142E-1,8.023608E-2,1.4176438E-2,-1.8550343E-3,4.0481716E-2,-9.5275335E-2,-1.8443057E-2],"categories":[],"categories_nodes":[],"categories_segments":[],"categories_sizes":[],"default_left":[0,0,0,0,0,0,0,0,0,0,0,0,0],"id":72,"left_children":[1,3,-1,5,7,9,11,-1,-1,-1,-1,-1,-1],"loss_changes":[1.612414E0,1.2212533E0,0E0,3.1763895E0,3.0939543E-1,1.801782E0,3.6652327E-1,0E0,0E0,0E0,0E0,0E0,0E0],"parents":[2147483647,0,0,1,1,3,3,4,4,5,5,6,6],"right_children":[2,4,-1,6,8,10,12,-1,-1,-1,-1,-1,-1],"split_conditions":[9.5E-1,9.349805E-1,6.957008E-2,8.9011705E-1,6.1867773E-3,8.439532E-1,1.601438E-2,8.023608E-2,1.4176438E-2,-1.8550343E-3,4.0481716E-2,-9.5275335E-2,-1.8443057E-2],"split_indices":[2,3,0,3,1,3,1,0,0,0,0,0,0],"split_type":[0,0,0,0,0,0,0,0,0,0,0,0,0],"sum_hessian":[2.821258E2,2.7984558E2,2.280185E0,2.7681186E2,3.0337372E0,2.7248846E2,4.323383E0,1.1978201E0,1.8359172E0,2.6303824E2,9.450231E0,2.9031322E0,1.4202509E0],"tree_param":{"num_deleted":"0","num_feature":"4","num_nodes":"13","size_leaf_vector":"1"}},{"base_weights":[-9.4695704E-4,-8.537534E-3,6.807089E-2,-1.6337259E-1,1.9045046E-2,1.6201E-2,-4.274179E-1,5.893765E-2,-1.4299415E-1,-7.7990997E-3,8.913102E-2,-2.9991308E-2,-7.614912E-2,-2.304069E-2,9.6467305E-3,-1.0608943E-1,-8.93573E-4],"categories":[],"categories_nodes":[],"categories_segments":[],"categories_sizes":[],"default_left":[0,0,0,0,0,0,0,0,0,0,0,0,0,0,0,0,0],"id":73,"left_children":[1,3,-1,5,7,9,11,13,15,-1,-1,-1,-1,-1,-1,-1,-1],"loss_changes":[1.4691086E0,1.2018328E0,0E0,2.0242226E0,1.5542463E0,2.236275E0,5.067587E-1,2.1136932E0,5.8397417E0,0E0,0E0,0E0,0E0,0E0,0E0,0E0,0E0],"parents":[2147483647,0,0,1,1,3,3,4,4,5,5,6,6,7,7,8,8],"right_children":[2,4,-1,6,8,10,12,14,16,-1,-1,-1,-1,-1,-1,-1,-1],"split_conditions":[9.5E-1,2.0953876E-3,6.807089E-2,5.143043E-1,3.4720343E-2,5.091027E-1,6.879064E-1,4.226268E-1,1E0,-7.7990997E-3,8.913102E-2,-2.9991308E-2,-7.614912E-2,-2.304069E-2,9.6467305E-3,-1.0608943E-1,-8.93573E-4],"split_indices":[2,1,0,3,1,3,3,3,0,0,0,0,0,0,0,0,0],"split_type":[0,0,0,0,0,0,0,0,0,0,0,0,0,0,0,0,0],"sum_hessian":[2.8180856E2,2.7968167E2,2.1269188E0,4.154506E1,2.381366E2,2.528662E1,1.625844E1,1.9160214E2,4.653446E1,2.365175E1,1.6348674E0,1.314078E1,3.117659E0,2.1408495E1,1.7019365E2,5.049154E0,4.1485306E1],"tree_param":{"num_deleted":"0","num_feature":"4","num_nodes":"17","size_leaf_vector":"1"}},{"base_weights":[-1.2729767E-3,-8.377283E-3,6.65714E-2,-6.438267E-2,-1.952615E-3,9.238141E-2,-5.2576367E-2,-7.467285E-3,3.1604137E-2,-5.338048E-2,-2.3032298E-4],"categories":[],"categories_nodes":[],"categories_segments":[],"categories_sizes":[],"default_left":[0,0,0,0,0,0,0,0,0,0,0],"id":74,"left_children":[1,3,-1,-1,5,7,9,-1,-1,-1,-1],"loss_changes":[1.3430941E0,1.1430001E0,0E0,0E0,1.3347386E0,3.6708498E0,4.3985295E0,0E0,0E0,0E0,0E0],"parents":[2147483647,0,0,1,1,4,4,5,5,6,6],"right_children":[2,4,-1,-1,6,8,10,-1,-1,-1,-1],"split_conditions":[9.5E-1,6.396201E-4,6.65714E-2,-6.438267E-2,5.20156E-1,4.4213265E-1,5.403121E-1,-7.467285E-3,3.1604137E-2,-5.338048E-2,-2.3032298E-4],"split_indices":[2,1,0,0,3,3,3,0,0,0,0],"split_type":[0,0,0,0,0,0,0,0,0,0,0],"sum_hessian":[2.8126718E2,2.792799E2,1.9872656E0,1.8023449E0,2.7747757E2,9.661571E1,1.8086186E2,5.5687897E1,4.092781E1,1.6197435E1,1.6466443E2],"tree_param":{"num_deleted":"0","num_feature":"4","num_nodes":"11","size_leaf_vector":"1"}},{"base_weights":[-1.3338318E-3,-7.988892E-3,6.507225E-2,-8.797401E-2,4.227537E-2,2.1361254E-2,-1.9179066E-1,1.0732927E-1,-1.3286178E-1,-6.241553E-3,9.148656E-2,-5.1537246E-2,-3.5929133E-3,2.3016794E-2,-7.706457E-3,-1.0301941E-1,-8.229902E-4],"categories":[],"categories_nodes":[],"categories_segments":[],"categories_sizes":[],"default_left":[0,0,0,0,0,0,0,0,0,0,0,0,0,0,0,0,0],"id":75,"left_children":[1,3,-1,5,7,9,11,13,15,-1,-1,-1,-1,-1,-1,-1,-1],"loss_changes":[1.228213E0,1.1293294E0,0E0,1.2341762E0,1.9808214E0,4.0754266E0,2.7900333E0,2.8810146E0,5.269727E0,0E0,0E0,0E0,0E0,0E0,0E0,0E0,0E0],"parents":[2147483647,0,0,1,1,3,3,4,4,5,5,6,6,7,7,8,8],"right_children":[2,4,-1,6,8,10,12,14,16,-1,-1,-1,-1,-1,-1,-1,-1],"split_conditions":[9.5E-1,5.5335374E-3,6.507225E-2,5.143043E-1,3.4720343E-2,5.0845253E-1,6.0468143E-1,6.475943E-1,1E0,-6.241553E-3,9.148656E-2,-5.1537246E-2,-3.5929133E-3,2.3016794E-2,-7.706457E-3,-1.0301941E-1,-8.229902E-4],"split_indices":[2,1,0,3,1,3,3,3,0,0,0,0,0,0,0,0,0],"split_type":[0,0,0,0,0,0,0,0,0,0,0,0,0,0,0,0,0],"sum_hessian":[2.8083475E2,2.789752E2,1.8595464E0,1.073692E2,1.71606E2,5.268151E1,5.4687687E1,1.2541014E2,4.619586E1,4.9015835E1,3.665679E0,1.702849E1,3.76592E1,7.511928E1,5.0290863E1,4.747637E0,4.1448227E1],"tree_param":{"num_deleted":"0","num_feature":"4","num_nodes":"17","size_leaf_vector":"1"}},{"base_weights":[-1.3755087E-3,-7.634992E-3,6.357729E-2,1.1568845E-2,-2.0636585E-1,-7.02322E-2,9.50728E-2,-4.916606E-1,3.0200228E-1,-1.033476E-2,5.081562E-2,1.5165764E-2,-3.0389085E-2,1.9564083E-2,-7.0046805E-2,-2.333177E-3,1.1188668E-1],"categories":[],"categories_nodes":[],"categories_segments":[],"categories_sizes":[],"default_left":[0,0,0,0,0,0,0,0,0,0,0,0,0,0,0,0,0],"id":76,"left_children":[1,3,-1,5,7,9,11,13,15,-1,-1,-1,-1,-1,-1,-1,-1],"loss_changes":[1.1243026E0,1.0669563E0,0E0,1.7506473E0,3.7211378E0,2.533799E0,2.907875E0,2.4560566E0,2.543921E0,0E0,0E0,0E0,0E0,0E0,0E0,0E0,0E0],"parents":[2147483647,0,0,1,1,3,3,4,4,5,5,6,6,7,7,8,8],"right_children":[2,4,-1,6,8,10,12,14,16,-1,-1,-1,-1,-1,-1,-1,-1],"split_conditions":[9.5E-1,6.258175E-2,6.357729E-2,7.2182585E-3,9.137994E-2,8.309493E-1,8.1794536E-1,5.1820546E-1,7.6723015E-1,-1.033476E-2,5.081562E-2,1.5165764E-2,-3.0389085E-2,1.9564083E-2,-7.0046805E-2,-2.333177E-3,1.1188668E-1],"split_indices":[2,1,0,1,1,3,3,3,3,0,0,0,0,0,0,0,0],"split_type":[0,0,0,0,0,0,0,0,0,0,0,0,0,0,0,0,0],"sum_hessian":[2.796888E2,2.779462E2,1.7425866E0,2.5431311E2,2.3633097E1,1.2854677E2,1.2576635E2,1.51588545E1,8.474241E0,1.2236228E2,6.184486E0,1.1068746E2,1.5078885E1,3.5469437E0,1.1611911E1,6.7552524E0,1.7189887E0],"tree_param":{"num_deleted":"0","num_feature":"4","num_nodes":"17","size_leaf_vector":"1"}},{"base_weights":[-7.820047E-4,-6.6718804E-3,6.2088307E-2,-6.2486183E-2,-6.941416E-4,4.444544E-2,-8.636446E-2,-2.9084398E-3,3.547179E-2,-5.2897464E-2,5.4090004E-4],"categories":[],"categories_nodes":[],"categories_segments":[],"categories_sizes":[],"default_left":[0,0,0,0,0,0,0,0,0,0,0],"id":77,"left_children":[1,3,-1,-1,5,7,9,-1,-1,-1,-1],"loss_changes":[1.0280668E0,1.0269133E0,0E0,0E0,1.0725071E0,4.154444E0,3.8902247E0,0E0,0E0,0E0,0E0],"parents":[2147483647,0,0,1,1,4,4,5,5,6,6],"right_children":[2,4,-1,-1,6,8,10,-1,-1,-1,-1],"split_conditions":[9.5E-1,6.396201E-4,6.2088307E-2,-6.2486183E-2,6.423927E-1,6.0468143E-1,6.677503E-1,-2.9084398E-3,3.547179E-2,-5.2897464E-2,5.4090004E-4],"split_indices":[2,1,0,0,3,3,3,0,0,0,0],"split_type":[0,0,0,0,0,0,0,0,0,0,0],"sum_hessian":[2.7864386E2,2.7700867E2,1.6352106E0,1.6614146E0,2.7534723E2,1.806462E2,9.470104E1,1.4677017E2,3.387603E1,1.5445536E1,7.92555E1],"tree_param":{"num_deleted":"0","num_feature":"4","num_nodes":"11","size_leaf_vector":"1"}},{"base_weights":[-8.4776053E-4,-8.226144E-3,4.8266798E-1,5.420067E-3,-7.3181814E-1,-6.9752038E-3,7.114528E-2,-4.433895E-3,5.240442E-1,-9.13206E-2,-1.4052006E-2,1.964568E-3,-3.2776814E-2,9.455636E-2,-5.8227903E-3],"categories":[],"categories_nodes":[],"categories_segments":[],"categories_sizes":[],"default_left":[0,0,0,0,0,0,0,0,0,0,0,0,0,0,0],"id":78,"left_children":[1,3,5,7,9,-1,-1,11,13,-1,-1,-1,-1,-1,-1],"loss_changes":[9.999492E-1,2.7289064E0,5.8207554E-1,1.3916023E0,4.2032504E-1,0E0,0E0,2.0912333E0,1.301211E0,0E0,0E0,0E0,0E0,0E0,0E0],"parents":[2147483647,0,0,1,1,2,2,3,3,4,4,7,7,8,8],"right_children":[2,4,6,8,10,-1,-1,12,14,-1,-1,-1,-1,-1,-1],"split_conditions":[9.349805E-1,8.9011705E-1,4.9744467E-3,8.517555E-1,1.601438E-2,-6.9752038E-3,7.114528E-2,8.068921E-1,1.40085155E-2,-9.13206E-2,-1.4052006E-2,1.964568E-3,-3.2776814E-2,9.455636E-2,-5.8227903E-3],"split_indices":[3,3,1,3,1,0,0,3,1,0,0,0,0,0,0],"split_type":[0,0,0,0,0,0,0,0,0,0,0,0,0,0,0],"sum_hessian":[2.7817606E2,2.7496313E2,3.212913E0,2.7084775E2,4.115404E0,1.1445123E0,2.0684009E0,2.667705E2,4.0772414E0,2.7327054E0,1.3826989E0,2.4915453E2,1.761597E1,2.0031776E0,2.0740638E0],"tree_param":{"num_deleted":"0","num_feature":"4",