{"learner":{"attributes":{"scikit_learn":"{\"_estimator_type\": \"classifier\"}"},"feature_names":["score_if","score_ae","score_lstm","network_risk_score"],"feature_types":["float","float","float","float"],"gradient_booster":{"model":{"gbtree_model_param":{"num_parallel_tree":"1","num_trees":"100"},"iteration_indptr":[0,1,2,3,4,5,6,7,8,9,10,11,12,13,14,15,16,17,18,19,20,21,22,23,24,25,26,27,28,29,30,31,32,33,34,35,36,37,38,39,40,41,42,43,44,45,46,47,48,49,50,51,52,53,54,55,56,57,58,59,60,61,62,63,64,65,66,67,68,69,70,71,72,73,74,75,76,77,78,79,80,81,82,83,84,85,86,87,88,89,90,91,92,93,94,95,96,97,98,99,100],"tree_info":[0,0,0,0,0,0,0,0,0,0,0,0,0,0,0,0,0,0,0,0,0,0,0,0,0,0,0,0,0,0,0,0,0,0,0,0,0,0,0,0,0,0,0,0,0,0,0,0,0,0,0,0,0,0,0,0,0,0,0,0,0,0,0,0,0,0,0,0,0,0,0,0,0,0,0,0,0,0,0,0,0,0,0,0,0,0,0,0,0,0,0,0,0,0,0,0,0,0,0,0],"trees":[{"base_weights":[-1.6293247E-1,-1.1373967E0,4.2179927E-1,-1.2598828E0,1.5107791E0,-1.2787601E0,-2.4952278E-1,3.6189207E-1,1.3474298E0,-1.2883097E-1,-1.11551836E-1,6.49706E-4,-1.1692611E-1,-1.1310754E-1,1.5285453E-1],"categories":[],"categories_nodes":[],"categories_segments":[],"categories_sizes":[],"default_left":[0,0,0,0,0,0,0,0,0,0,0,0,0,0,0],"id":0,"left_children":[1,3,-1,5,7,9,11,-1,13,-1,-1,-1,-1,-1,-1],"loss_changes":[1.2347373E4,7.69312E2,0E0,4.2820557E1,3.1297852E1,2.0236816E0,1.0068544E1,0E0,4.620781E1,0E0,0E0,0E0,0E0,0E0,0E0],"parents":[2147483647,0,0,1,1,3,3,4,4,5,5,6,6,8,8],"right_children":[2,4,-1,6,8,10,12,-1,14,-1,-1,-1,-1,-1,-1],"split_conditions":[9.5E-1,7.665946E-3,4.2179927E-1,3.9719157E-3,3.723057E-1,2.3941135E-3,8.3801436E-1,3.6189207E-1,4.2847812E-1,-1.2883097E-1,-1.11551836E-1,6.49706E-4,-1.1692611E-1,-1.1310754E-1,1.5285453E-1],"split_indices":[2,1,0,1,3,1,3,0,3,0,0,0,0,0,0],"split_type":[0,0,0,0,0,0,0,0,0,0,0,0,0,0,0],"sum_hessian":[2.8901724E3,2.3648835E3,5.252888E2,2.2608374E3,1.0404621E2,2.2191106E3,4.1726864E1,5.960981E0,9.808523E1,2.089956E3,1.2915459E2,3.3417618E1,8.309246E0,6.3222523E0,9.176298E1],"tree_param":{"num_deleted":"0","num_feature":"4","num_nodes":"15","size_leaf_vector":"1"}},{"base_weights":[-1.601619E-1,-1.0941856E0,3.1109288E-1,-1.2246485E0,1.175903E0,-1.2393178E0,-2.9323688E-1,1.4238663E0,-6.0396146E-2,-1.24927066E-1,-1.0709417E-1,-8.937932E-3,-1.0919755E-1,2.1484001E-1,1.1345015E-1,-6.6259086E-2,5.2393377E-2],"categories":[],"categories_nodes":[],"categories_segments":[],"categories_sizes":[],"default_left":[0,0,0,0,0,0,0,0,0,0,0,0,0,0,0,0,0],"id":1,"left_children":[1,3,-1,5,7,9,11,13,15,-1,-1,-1,-1,-1,-1,-1,-1],"loss_changes":[8.731192E3,6.5976953E2,0E0,2.8363525E1,3.7276352E1,2.130371E0,5.4240103E0,1.8756592E1,7.8163857E0,0E0,0E0,0E0,0E0,0E0,0E0,0E0,0E0],"parents":[2147483647,0,0,1,1,3,3,4,4,5,5,6,6,7,7,8,8],"right_children":[2,4,-1,6,8,10,12,14,16,-1,-1,-1,-1,-1,-1,-1,-1],"split_conditions":[9.5E-1,6.3579157E-3,3.1109288E-1,3.9719157E-3,7.6355326E-1,2.3941135E-3,7.6943177E-1,4.6048334E-1,1.2512996E-2,-1.24927066E-1,-1.0709417E-1,-8.937932E-3,-1.0919755E-1,2.1484001E-1,1.1345015E-1,-6.6259086E-2,5.2393377E-2],"split_indices":[2,1,0,1,3,1,3,3,1,0,0,0,0,0,0,0,0],"split_type":[0,0,0,0,0,0,0,0,0,0,0,0,0,0,0,0,0],"sum_hessian":[2.8556284E3,2.221865E3,6.3376337E2,2.1015486E3,1.20316376E2,2.0686382E3,3.2910503E1,1.0008975E2,2.0226624E1,1.947122E3,1.2151617E2,2.710464E1,5.805865E0,2.6731884E1,7.3357864E1,9.895083E0,1.033154E1],"tree_param":{"num_deleted":"0","num_feature":"4","num_nodes":"17","size_leaf_vector":"1"}},{"base_weights":[-1.5526924E-1,-1.055775E0,2.546486E-1,-1.1944003E0,9.4242513E-1,-1.2050179E0,-3.4419444E-1,1.1601368E0,-1.6205785E-1,-1.2155016E-1,-1.0298351E-1,-7.060113E-2,-1.2101468E-3,1.7153834E-1,9.16868E-2,-7.24444E-2,4.6525512E-2],"categories":[],"categories_nodes":[],"categories_segments":[],"categories_sizes":[],"default_left":[0,0,0,0,0,0,0,0,0,0,0,0,0,0,0,0,0],"id":2,"left_children":[1,3,-1,5,7,9,11,13,15,-1,-1,-1,-1,-1,-1,-1,-1],"loss_changes":[6.755738E3,5.779812E2,0E0,1.7168701E1,3.2808685E1,2.2805176E0,3.0464382E0,1.3750702E1,8.527166E0,0E0,0E0,0E0,0E0,0E0,0E0,0E0,0E0],"parents":[2147483647,0,0,1,1,3,3,4,4,5,5,6,6,7,7,8,8],"right_children":[2,4,-1,6,8,10,12,14,16,-1,-1,-1,-1,-1,-1,-1,-1],"split_conditions":[9.5E-1,5.494717E-3,2.546486E-1,3.9719157E-3,7.6355326E-1,2.3941135E-3,6.002613E-1,4.9052906E-1,1.2512996E-2,-1.2155016E-1,-1.0298351E-1,-7.060113E-2,-1.2101468E-3,1.7153834E-1,9.16868E-2,-7.24444E-2,4.6525512E-2],"split_indices":[2,1,0,1,3,1,3,3,1,0,0,0,0,0,0,0,0],"split_type":[0,0,0,0,0,0,0,0,0,0,0,0,0,0,0,0,0],"sum_hessian":[2.7746672E3,2.0815032E3,6.931641E2,1.946843E3,1.3466006E2,1.9224181E3,2.4424952E1,1.1244493E2,2.2215132E1,1.8082653E3,1.1415281E2,1.1150493E1,1.3274458E1,3.2412956E1,8.0031975E1,1.1632108E1,1.0583023E1],"tree_param":{"num_deleted":"0","num_feature":"4","num_nodes":"17","size_leaf_vector":"1"}},{"base_weights":[-1.5015562E-1,-1.021173E0,2.1986166E-1,-1.1676234E0,7.708456E-1,-1.1748656E0,-3.8128906E-1,8.997284E-1,-7.090347E-1,-1.1859999E-1,-9.914265E-2,-6.2001873E-2,1.2665547E-2,1.4413981E-1,7.0100956E-2,-1.14283256E-1,7.48549E-2],"categories":[],"categories_nodes":[],"categories_segments":[],"categories_sizes":[],"default_left":[0,0,0,0,0,0,0,0,0,0,0,0,0,0,0,0,0],"id":3,"left_children":[1,3,-1,5,7,9,11,13,15,-1,-1,-1,-1,-1,-1,-1,-1],"loss_changes":[5.459256E3,5.1174097E2,0E0,9.802002E0,2.8801079E1,2.4658203E0,2.2498162E0,1.3657707E1,8.688775E0,0E0,0E0,0E0,0E0,0E0,0E0,0E0,0E0],"parents":[2147483647,0,0,1,1,3,3,4,4,5,5,6,6,7,7,8,8],"right_children":[2,4,-1,6,8,10,12,14,16,-1,-1,-1,-1,-1,-1,-1,-1],"split_conditions":[9.5E-1,4.9280734E-3,2.1986166E-1,3.9719157E-3,8.981058E-1,2.3941135E-3,6.4337033E-1,4.9052906E-1,1.2512996E-2,-1.1859999E-1,-9.914265E-2,-6.2001873E-2,1.2665547E-2,1.4413981E-1,7.0100956E-2,-1.14283256E-1,7.48549E-2],"split_indices":[2,1,0,1,3,1,3,3,1,0,0,0,0,0,0,0,0],"split_type":[0,0,0,0,0,0,0,0,0,0,0,0,0,0,0,0,0],"sum_hessian":[2.6663936E3,1.9454932E3,7.209004E2,1.7988342E3,1.4665889E2,1.7819283E3,1.690584E1,1.3527023E2,1.1388661E1,1.6748062E3,1.07122284E2,1.135054E1,5.5553E0,3.4627857E1,1.0064237E2,8.943028E0,2.445633E0],"tree_param":{"num_deleted":"0","num_feature":"4","num_nodes":"17","size_leaf_vector":"1"}},{"base_weights":[-1.4529409E-1,-9.8955345E-1,1.9617939E-1,-1.1403942E0,6.7588377E-1,-1.1480806E0,-3.5347512E-1,8.4273976E-1,-2.2479664E-1,-1.1599817E-1,-9.551078E-2,-5.8225375E-2,1.1520468E-2,1.4173008E-2,9.5859885E-2,-9.152708E-2,2.1855367E-2],"categories":[],"categories_nodes":[],"categories_segments":[],"categories_sizes":[],"default_left":[0,0,0,0,0,0,0,0,0,0,0,0,0,0,0,0,0],"id":4,"left_children":[1,3,-1,5,7,9,11,13,15,-1,-1,-1,-1,-1,-1,-1,-1],"loss_changes":[4.525628E3,4.570204E2,0E0,9.669189E0,2.2951332E1,2.6794434E0,1.9496641E0,1.0259827E1,7.68855E0,0E0,0E0,0E0,0E0,0E0,0E0,0E0,0E0],"parents":[2147483647,0,0,1,1,3,3,4,4,5,5,6,6,7,7,8,8],"right_children":[2,4,-1,6,8,10,12,14,16,-1,-1,-1,-1,-1,-1,-1,-1],"split_conditions":[9.5E-1,4.9280734E-3,1.9617939E-1,3.9719157E-3,7.6355326E-1,2.3941135E-3,6.4337033E-1,7.665946E-3,8.959705E-3,-1.1599817E-1,-9.551078E-2,-5.8225375E-2,1.1520468E-2,1.4173008E-2,9.5859885E-2,-9.152708E-2,2.1855367E-2],"split_indices":[2,1,0,1,3,1,3,1,1,0,0,0,0,0,0,0,0],"split_type":[0,0,0,0,0,0,0,0,0,0,0,0,0,0,0,0,0],"sum_hessian":[2.5419275E3,1.815165E3,7.267625E2,1.6647057E3,1.5045929E2,1.6481482E3,1.6557512E1,1.2699677E2,2.3462519E1,1.5476873E3,1.0046101E2,1.0963516E1,5.5939956E0,1.832769E1,1.0866908E2,8.758141E0,1.4704377E1],"tree_param":{"num_deleted":"0","num_feature":"4","num_nodes":"17","size_leaf_vector":"1"}},{"base_weights":[-1.408321E-1,-9.6034175E-1,1.7901872E-1,-1.1158534E0,5.9577525E-1,-1.1240402E0,-3.275366E-1,6.9164467E-1,-6.492742E-1,-1.13682345E-1,-9.2039734E-2,-5.2235454E-2,1.5587941E-2,1.7356561E-1,6.1053295E-2,-1.0920749E-1,6.595742E-2],"categories":[],"categories_nodes":[],"categories_segments":[],"categories_sizes":[],"default_left":[0,0,0,0,0,0,0,0,0,0,0,0,0,0,0,0,0],"id":5,"left_children":[1,3,-1,5,7,9,11,13,15,-1,-1,-1,-1,-1,-1,-1,-1],"loss_changes":[3.8148667E3,4.1019495E2,0E0,9.563477E0,1.8879612E1,2.9176025E0,1.7039918E0,1.1122055E1,7.4172797E0,0E0,0E0,0E0,0E0,0E0,0E0,0E0,0E0],"parents":[2147483647,0,0,1,1,3,3,4,4,5,5,6,6,7,7,8,8],"right_children":[2,4,-1,6,8,10,12,14,16,-1,-1,-1,-1,-1,-1,-1,-1],"split_conditions":[9.5E-1,4.9280734E-3,1.7901872E-1,3.9719157E-3,8.981058E-1,2.3941135E-3,6.5904635E-1,3.723057E-1,1.2512996E-2,-1.13682345E-1,-9.2039734E-2,-5.2235454E-2,1.5587941E-2,1.7356561E-1,6.1053295E-2,-1.0920749E-1,6.595742E-2],"split_indices":[2,1,0,1,3,1,3,3,1,0,0,0,0,0,0,0,0],"split_type":[0,0,0,0,0,0,0,0,0,0,0,0,0,0,0,0,0],"sum_hessian":[2.408589E3,1.691312E3,7.172771E2,1.5379033E3,1.5340857E2,1.5216747E3,1.622871E1,1.4285329E2,1.0555295E1,1.4274855E3,9.418921E1,1.1509716E1,4.7189946E0,8.827955E0,1.3402533E2,8.010768E0,2.544527E0],"tree_param":{"num_deleted":"0","num_feature":"4","num_nodes":"17","size_leaf_vector":"1"}},{"base_weights":[-1.3664033E-1,-9.3286556E-1,1.6603726E-1,-1.0934907E0,5.2902204E-1,-1.1022393E0,-3.0292273E-1,6.1197037E-1,-6.165609E-1,-1.1160208E-1,-8.8691264E-2,-5.13843E-2,1.0054109E-2,1.5617059E-1,5.3896673E-2,-1.0626328E-1,6.0080953E-2],"categories":[],"categories_nodes":[],"categories_segments":[],"categories_sizes":[],"default_left":[0,0,0,0,0,0,0,0,0,0,0,0,0,0,0,0,0],"id":6,"left_children":[1,3,-1,5,7,9,11,13,15,-1,-1,-1,-1,-1,-1,-1,-1],"loss_changes":[3.2530444E3,3.7049927E2,0E0,9.485474E0,1.5261112E1,3.1761475E0,1.4913644E0,9.319763E0,6.6518044E0,0E0,0E0,0E0,0E0,0E0,0E0,0E0,0E0],"parents":[2147483647,0,0,1,1,3,3,4,4,5,5,6,6,7,7,8,8],"right_children":[2,4,-1,6,8,10,12,14,16,-1,-1,-1,-1,-1,-1,-1,-1],"split_conditions":[9.5E-1,4.9280734E-3,1.6603726E-1,3.9719157E-3,8.981058E-1,2.3941135E-3,6.4337033E-1,3.723057E-1,1.2512996E-2,-1.1160208E-1,-8.8691264E-2,-5.13843E-2,1.0054109E-2,1.5617059E-1,5.3896673E-2,-1.0626328E-1,6.0080953E-2],"split_indices":[2,1,0,1,3,1,3,3,1,0,0,0,0,0,0,0,0],"split_type":[0,0,0,0,0,0,0,0,0,0,0,0,0,0,0,0,0],"sum_hessian":[2.2714587E3,1.5743656E3,6.9709314E2,1.418734E3,1.5563162E2,1.4028159E3,1.5918027E1,1.4555798E2,1.0073628E1,1.3145011E3,8.8314865E1,1.0273653E1,5.6443744E0,8.934398E0,1.366236E2,7.4652867E0,2.6083415E0],"tree_param":{"num_deleted":"0","num_feature":"4","num_nodes":"17","size_leaf_vector":"1"}},{"base_weights":[-1.3276653E-1,-9.068085E-1,1.5590346E-1,-1.0822611E0,4.0240684E-1,-1.0971599E0,-8.543514E-1,-2.3509596E-1,5.961105E-1,-1.12914875E-1,-1.0372335E-1,-5.4569818E-2,-9.0027146E-2,-1.857459E-3,-8.507921E-2,1.6610757E-1,5.132245E-2],"categories":[],"categories_nodes":[],"categories_segments":[],"categories_sizes":[],"default_left":[0,0,0,0,0,0,0,0,0,0,0,0,0,0,0,0,0],"id":7,"left_children":[1,3,-1,5,7,9,11,13,15,-1,-1,-1,-1,-1,-1,-1,-1],"loss_changes":[2.7975288E3,3.370891E2,0E0,3.4520264E0,2.1617802E1,1.1479492E0,6.969681E-1,5.4831524E0,1.094735E1,0E0,0E0,0E0,0E0,0E0,0E0,0E0,0E0],"parents":[2147483647,0,0,1,1,3,3,4,4,5,5,6,6,7,7,8,8],"right_children":[2,4,-1,6,8,10,12,14,16,-1,-1,-1,-1,-1,-1,-1,-1],"split_conditions":[9.5E-1,3.9719157E-3,1.5590346E-1,2.3941135E-3,7.665946E-3,1.0153103E-3,2.500318E-3,7.517962E-1,3.723057E-1,-1.12914875E-1,-1.0372335E-1,-5.4569818E-2,-9.0027146E-2,-1.857459E-3,-8.507921E-2,1.6610757E-1,5.132245E-2],"split_indices":[2,1,0,1,1,1,1,3,3,0,0,0,0,0,0,0,0],"split_type":[0,0,0,0,0,0,0,0,0,0,0,0,0,0,0,0,0],"sum_hessian":[2.1342131E3,1.46459E3,6.6962305E2,1.2916631E3,1.7292697E2,1.2088263E3,8.283678E1,4.0248962E1,1.3267801E2,7.7649066E2,4.323356E2,1.2396552E1,7.044022E1,3.0539371E1,9.70959E0,8.205738E0,1.24472275E2],"tree_param":{"num_deleted":"0","num_feature":"4","num_nodes":"17","size_leaf_vector":"1"}},{"base_weights":[-1.2921175E-1,-8.8183033E-1,1.4780067E-1,-1.0637853E0,3.60656E-1,-1.0799125E0,-8.2278305E-1,-2.1699171E-1,5.320311E-1,-1.1143261E-1,-1.0159161E-1,-5.1503416E-2,-8.698681E-2,-6.2216553E-3,-1.0009515E-1,1.5400688E-1,4.560582E-2],"categories":[],"categories_nodes":[],"categories_segments":[],"categories_sizes":[],"default_left":[0,0,0,0,0,0,0,0,0,0,0,0,0,0,0,0,0],"id":8,"left_children":[1,3,-1,5,7,9,11,13,15,-1,-1,-1,-1,-1,-1,-1,-1],"loss_changes":[2.4212124E3,3.0855872E2,0E0,3.7337646E0,1.742679E1,1.315918E0,6.936989E-1,4.878669E0,9.648003E0,0E0,0E0,0E0,0E0,0E0,0E0,0E0,0E0],"parents":[2147483647,0,0,1,1,3,3,4,4,5,5,6,6,7,7,8,8],"right_children":[2,4,-1,6,8,10,12,14,16,-1,-1,-1,-1,-1,-1,-1,-1],"split_conditions":[9.5E-1,3.9719157E-3,1.4780067E-1,2.3941135E-3,7.665946E-3,1.0153103E-3,2.500318E-3,8.3801436E-1,3.723057E-1,-1.1143261E-1,-1.0159161E-1,-5.1503416E-2,-8.698681E-2,-6.2216553E-3,-1.0009515E-1,1.5400688E-1,4.560582E-2],"split_indices":[2,1,0,1,1,1,1,3,3,0,0,0,0,0,0,0,0],"split_type":[0,0,0,0,0,0,0,0,0,0,0,0,0,0,0,0,0],"sum_hessian":[1.9995491E3,1.3621439E3,6.374052E2,1.1882721E3,1.7387181E2,1.1104811E3,7.779101E1,3.9720673E1,1.3415112E2,7.114767E2,3.990044E2,1.1906741E1,6.588427E1,3.4073074E1,5.6475973E0,8.051363E0,1.2609977E2],"tree_param":{"num_deleted":"0","num_feature":"4","num_nodes":"17","size_leaf_vector":"1"}},{"base_weights":[-1.2588666E-1,-8.576518E-1,1.4119862E-1,-1.046494E0,3.238053E-1,-1.0639744E0,-7.917527E-1,-2.0081536E-1,4.763278E-1,-1.1011448E-1,-9.954239E-2,-6.366394E-2,-9.05067E-2,-5.1737493E-3,-9.8889E-2,1.4424206E-1,4.0630233E-2],"categories":[],"categories_nodes":[],"categories_segments":[],"categories_sizes":[],"default_left":[0,0,0,0,0,0,0,0,0,0,0,0,0,0,0,0,0],"id":9,"left_children":[1,3,-1,5,7,9,11,13,15,-1,-1,-1,-1,-1,-1,-1,-1],"loss_changes":[2.1057874E3,2.8319562E2,0E0,4.026123E0,1.413693E1,1.503418E0,7.264786E-1,4.67515E0,8.631445E0,0E0,0E0,0E0,0E0,0E0,0E0,0E0,0E0],"parents":[2147483647,0,0,1,1,3,3,4,4,5,5,6,6,7,7,8,8],"right_children":[2,4,-1,6,8,10,12,14,16,-1,-1,-1,-1,-1,-1,-1,-1],"split_conditions":[9.5E-1,3.9719157E-3,1.4119862E-1,2.3941135E-3,7.665946E-3,1.0153103E-3,5.473547E-1,1E0,3.723057E-1,-1.1011448E-1,-9.954239E-2,-6.366394E-2,-9.05067E-2,-5.1737493E-3,-9.8889E-2,1.4424206E-1,4.0630233E-2],"split_indices":[2,1,0,1,1,1,3,0,3,0,0,0,0,0,0,0,0],"split_type":[0,0,0,0,0,0,0,0,0,0,0,0,0,0,0,0,0],"sum_hessian":[1.8691333E3,1.2667965E3,6.023368E2,1.0923167E3,1.7447986E2,1.0192022E3,7.311447E1,3.9229244E1,1.3525061E2,6.510935E2,3.6810873E2,3.365849E1,3.945598E1,3.3884968E1,5.3442745E0,7.8162813E0,1.27434326E2],"tree_param":{"num_deleted":"0","num_feature":"4","num_nodes":"17","size_leaf_vector":"1"}},{"base_weights":[-1.22735366E-1,-8.339344E-1,1.357371E-1,-1.0301329E0,2.9103976E-1,-1.0490967E0,-7.6119304E-1,4.0779698E-1,-2.9581416E-1,-1.0893699E-1,-9.755122E-2,-4.3950688E-2,-8.125998E-2,-3.2391425E-2,5.2475747E-2,-6.9933034E-2,1.674719E-2],"categories":[],"categories_nodes":[],"categories_segments":[],"categories_sizes":[],"default_left":[0,0,0,0,0,0,0,0,0,0,0,0,0,0,0,0,0],"id":10,"left_children":[1,3,-1,5,7,9,11,13,15,-1,-1,-1,-1,-1,-1,-1,-1],"loss_changes":[1.838345E3,2.6063416E2,0E0,4.324829E0,1.2175773E1,1.7103271E0,7.9733276E-1,1.2764362E1,5.6832914E0,0E0,0E0,0E0,0E0,0E0,0E0,0E0,0E0],"parents":[2147483647,0,0,1,1,3,3,4,4,5,5,6,6,7,7,8,8],"right_children":[2,4,-1,6,8,10,12,14,16,-1,-1,-1,-1,-1,-1,-1,-1],"split_conditions":[9.5E-1,3.9719157E-3,1.357371E-1,2.3941135E-3,7.537557E-1,1.0153103E-3,2.500318E-3,4.2847812E-1,1.2512996E-2,-1.0893699E-1,-9.755122E-2,-4.3950688E-2,-8.125998E-2,-3.2391425E-2,5.2475747E-2,-6.9933034E-2,1.674719E-2],"split_indices":[2,1,0,1,3,1,1,3,1,0,0,0,0,0,0,0,0],"split_type":[0,0,0,0,0,0,0,0,0,0,0,0,0,0,0,0,0],"sum_hessian":[1.7443212E3,1.1784879E3,5.658332E2,1.0035504E3,1.7493752E2,9.347381E2,6.881232E1,1.4616287E2,2.8774643E1,5.9518604E2,3.395521E2,1.0797133E1,5.8015182E1,1.989972E1,1.2626316E2,1.5107076E1,1.3667568E1],"tree_param":{"num_deleted":"0","num_feature":"4","num_nodes":"17","size_leaf_vector":"1"}},{"base_weights":[-1.1975771E-1,-8.1020933E-1,1.3116254E-1,-1.0144812E0,2.6004115E-1,-1.07880354E-1,-9.193958E-1,-2.0205094E-1,3.927078E-1,-9.559692E-2,-7.3084384E-2,-6.3875727E-3,-9.5753096E-2,1.3790642E-1,3.245419E-2],"categories":[],"categories_nodes":[],"categories_segments":[],"categories_sizes":[],"default_left":[0,0,0,0,0,0,0,0,0,0,0,0,0,0,0],"id":11,"left_children":[1,3,-1,5,7,-1,9,11,13,-1,-1,-1,-1,-1,-1],"loss_changes":[1.6094246E3,2.4041101E2,0E0,4.65094E0,1.092096E1,0E0,1.9152527E0,4.125681E0,8.813587E0,0E0,0E0,0E0,0E0,0E0,0E0],"parents":[2147483647,0,0,1,1,3,3,4,4,6,6,7,7,8,8],"right_children":[2,4,-1,6,8,-1,10,12,14,-1,-1,-1,-1,-1,-1],"split_conditions":[9.5E-1,3.9719157E-3,1.3116254E-1,1.0153103E-3,7.665946E-3,-1.07880354E-1,2.3941135E-3,1E0,3.723057E-1,-9.559692E-2,-7.3084384E-2,-6.3875727E-3,-9.5753096E-2,1.3790642E-1,3.245419E-2],"split_indices":[2,1,0,1,1,0,1,0,3,0,0,0,0,0,0],"split_type":[0,0,0,0,0,0,0,0,0,0,0,0,0,0,0],"sum_hessian":[1.6264014E3,1.0974581E3,5.2894336E2,9.2160864E2,1.7584946E2,5.4356104E2,3.7804758E2,3.910825E1,1.3674121E2,3.1322205E2,6.482551E1,3.3978268E1,5.129982E0,7.5960364E0,1.2914517E2],"tree_param":{"num_deleted":"0","num_feature":"4","num_nodes":"15","size_leaf_vector":"1"}},{"base_weights":[-1.1679537E-1,-7.869781E-1,1.2729089E-1,-9.993281E-1,2.3433681E-1,-1.0692771E-1,-8.974712E-1,3.36379E-1,-2.9018888E-1,-9.366098E-2,-7.003235E-2,-3.5900146E-2,4.446302E-2,-6.6403404E-2,1.1990143E-2],"categories":[],"categories_nodes":[],"categories_segments":[],"categories_sizes":[],"default_left":[0,0,0,0,0,0,0,0,0,0,0,0,0,0,0],"id":12,"left_children":[1,3,-1,5,7,-1,9,11,13,-1,-1,-1,-1,-1,-1],"loss_changes":[1.4124341E3,2.221037E2,0E0,5.0759277E0,9.566099E0,0E0,2.0533142E0,1.1342249E1,4.5788183E0,0E0,0E0,0E0,0E0,0E0,0E0],"parents":[2147483647,0,0,1,1,3,3,4,4,6,6,7,7,8,8],"right_children":[2,4,-1,6,8,-1,10,12,14,-1,-1,-1,-1,-1,-1],"split_conditions":[9.5E-1,3.9719157E-3,1.2729089E-1,1.0153103E-3,7.537557E-1,-1.0692771E-1,2.3941135E-3,4.2847812E-1,1.2512996E-2,-9.366098E-2,-7.003235E-2,-3.5900146E-2,4.446302E-2,-6.6403404E-2,1.1990143E-2],"split_indices":[2,1,0,1,3,0,1,3,1,0,0,0,0,0,0],"split_type":[0,0,0,0,0,0,0,0,0,0,0,0,0,0,0],"sum_hessian":[1.5144596E3,1.0220239E3,4.9243573E2,8.461214E2,1.7590251E2,4.9600098E2,3.501204E2,1.475555E2,2.8347021E1,2.889967E2,6.1123688E1,1.956407E1,1.27991425E2,1.4504887E1,1.38421335E1],"tree_param":{"num_deleted":"0","num_feature":"4","num_nodes":"15","size_leaf_vector":"1"}},{"base_weights":[-1.1396411E-1,-7.6347303E-1,1.2398523E-1,-9.845188E-1,2.0976253E-1,-1.0606456E-1,-8.754757E-1,6.275596E-1,7.936823E-2,-9.1727324E-2,-6.6999815E-2,-2.9036198E-2,1.5502788E-1,-3.0628791E-2,2.6166735E-2],"categories":[],"categories_nodes":[],"categories_segments":[],"categories_sizes":[],"default_left":[0,0,0,0,0,0,0,0,0,0,0,0,0,0,0],"id":13,"left_children":[1,3,-1,5,7,-1,9,11,13,-1,-1,-1,-1,-1,-1],"loss_changes":[1.2416979E3,2.054787E2,0E0,5.527588E0,9.61631E0,0E0,2.1807556E0,3.607369E1,9.6676855E0,0E0,0E0,0E0,0E0,0E0,0E0],"parents":[2147483647,0,0,1,1,3,3,4,4,6,6,7,7,8,8],"right_children":[2,4,-1,6,8,-1,10,12,14,-1,-1,-1,-1,-1,-1],"split_conditions":[9.5E-1,3.9719157E-3,1.2398523E-1,1.0153103E-3,4.9052906E-1,-1.0606456E-1,2.3941135E-3,4.2978445E-1,5.898106E-1,-9.1727324E-2,-6.6999815E-2,-2.9036198E-2,1.5502788E-1,-3.0628791E-2,2.6166735E-2],"split_indices":[2,1,0,1,3,0,1,3,3,0,0,0,0,0,0],"split_type":[0,0,0,0,0,0,0,0,0,0,0,0,0,0,0],"sum_hessian":[1.4100416E3,9.531791E2,4.5686252E2,7.767487E2,1.764304E2,4.5227408E2,3.2447464E2,4.1059296E1,1.3537111E2,2.6674927E2,5.772537E1,2.0926712E1,2.0132586E1,4.3232353E1,9.213875E1],"tree_param":{"num_deleted":"0","num_feature":"4","num_nodes":"15","size_leaf_vector":"1"}},{"base_weights":[-1.1103196E-1,-7.396679E-1,1.2114147E-1,-9.6989983E-1,1.8887721E-1,-1.0527839E-1,-8.532866E-1,-2.145758E-1,3.0441082E-1,-8.9781895E-2,-6.398666E-2,-8.7017E-3,-9.341469E-2,1.340771E-1,2.3550522E-2],"categories":[],"categories_nodes":[],"categories_segments":[],"categories_sizes":[],"default_left":[0,0,0,0,0,0,0,0,0,0,0,0,0,0,0],"id":14,"left_children":[1,3,-1,5,7,-1,9,11,13,-1,-1,-1,-1,-1,-1],"loss_changes":[1.092918E3,1.9065378E2,0E0,6.003723E0,8.355707E0,0E0,2.295395E0,3.6067595E0,9.587368E0,0E0,0E0,0E0,0E0,0E0,0E0],"parents":[2147483647,0,0,1,1,3,3,4,4,6,6,7,7,8,8],"right_children":[2,4,-1,6,8,-1,10,12,14,-1,-1,-1,-1,-1,-1],"split_conditions":[9.5E-1,3.9719157E-3,1.2114147E-1,1.0153103E-3,7.665946E-3,-1.0527839E-1,2.3941135E-3,1E0,3.723057E-1,-8.9781895E-2,-6.398666E-2,-8.7017E-3,-9.341469E-2,1.340771E-1,2.3550522E-2],"split_indices":[2,1,0,1,1,0,1,0,3,0,0,0,0,0,0],"split_type":[0,0,0,0,0,0,0,0,0,0,0,0,0,0,0],"sum_hessian":[1.3125724E3,8.8996216E2,4.226102E2,7.131041E2,1.7685806E2,4.121419E2,3.009622E2,3.9180214E1,1.3767784E2,2.4635158E2,5.4610615E1,3.4232693E1,4.9475207E0,7.432521E0,1.3024533E2],"tree_param":{"num_deleted":"0","num_feature":"4","num_nodes":"15","size_leaf_vector":"1"}},{"base_weights":[-1.0820215E-1,-7.163067E-1,1.18679E-1,-9.5533246E-1,1.7063327E-1,-1.0455825E-1,-8.308038E-1,2.513239E-1,-3.629202E-1,-8.7812535E-2,-6.099511E-2,-3.5909235E-2,3.401754E-2,-9.423858E-2,-1.5112311E-3],"categories":[],"categories_nodes":[],"categories_segments":[],"categories_sizes":[],"default_left":[0,0,0,0,0,0,0,0,0,0,0,0,0,0,0],"id":15,"left_children":[1,3,-1,5,7,-1,9,11,13,-1,-1,-1,-1,-1,-1],"loss_changes":[9.6338605E2,1.7662146E2,0E0,6.501709E0,7.734924E0,0E0,2.3952484E0,8.518532E0,4.768813E0,0E0,0E0,0E0,0E0,0E0,0E0],"parents":[2147483647,0,0,1,1,3,3,4,4,6,6,7,7,8,8],"right_children":[2,4,-1,6,8,-1,10,12,14,-1,-1,-1,-1,-1,-1],"split_conditions":[9.5E-1,3.9719157E-3,1.18679E-1,1.0153103E-3,7.6943177E-1,-1.0455825E-1,2.3941135E-3,4.2847812E-1,8.959705E-3,-8.7812535E-2,-6.099511E-2,-3.5909235E-2,3.401754E-2,-9.423858E-2,-1.5112311E-3],"split_indices":[2,1,0,1,3,0,1,3,1,0,0,0,0,0,0],"split_type":[0,0,0,0,0,0,0,0,0,0,0,0,0,0,0],"sum_hessian":[1.2212825E3,8.3134503E2,3.8993747E2,6.5480206E2,1.7654294E2,3.7536572E2,2.7943634E2,1.5381071E2,2.2732216E1,2.2767657E2,5.175977E1,1.9157286E1,1.3465343E2,7.8853397E0,1.4846876E1],"tree_param":{"num_deleted":"0","num_feature":"4","num_nodes":"15","size_leaf_vector":"1"}},{"base_weights":[-1.0549288E-1,-6.925071E-1,1.16534375E-1,-9.4069135E-1,1.5264016E-1,-1.03894524E-1,-8.0794823E-1,5.629173E-1,3.753366E-2,-8.5808896E-2,-5.8029275E-2,-2.9145584E-2,1.534199E-1,-2.9436577E-2,2.0385671E-2],"categories":[],"categories_nodes":[],"categories_segments":[],"categories_sizes":[],"default_left":[0,0,0,0,0,0,0,0,0,0,0,0,0,0,0],"id":16,"left_children":[1,3,-1,5,7,-1,9,11,13,-1,-1,-1,-1,-1,-1],"loss_changes":[8.499097E2,1.6358316E2,0E0,7.0182495E0,8.372649E0,0E0,2.478531E0,3.2702293E1,7.781117E0,0E0,0E0,0E0,0E0,0E0,0E0],"parents":[2147483647,0,0,1,1,3,3,4,4,6,6,7,7,8,8],"right_children":[2,4,-1,6,8,-1,10,12,14,-1,-1,-1,-1,-1,-1],"split_conditions":[9.5E-1,3.9719157E-3,1.16534375E-1,1.0153103E-3,4.6048334E-1,-1.03894524E-1,2.3941135E-3,4.2978445E-1,5.898106E-1,-8.5808896E-2,-5.8029275E-2,-2.9145584E-2,1.534199E-1,-2.9436577E-2,2.0385671E-2],"split_indices":[2,1,0,1,3,0,1,3,3,0,0,0,0,0,0],"split_type":[0,0,0,0,0,0,0,0,0,0,0,0,0,0,0],"sum_hessian":[1.1372087E3,7.782029E2,3.5900586E2,6.0146484E2,1.7673802E2,3.4171066E2,2.5975418E2,3.7869255E1,1.3886876E2,2.106005E2,4.9153675E1,2.0519508E1,1.7349747E1,4.610196E1,9.276681E1],"tree_param":{"num_deleted":"0","num_feature":"4","num_nodes":"15","size_leaf_vector":"1"}},{"base_weights":[-1.0255038E-1,-6.683025E-1,1.1465694E-1,-9.2586243E-1,1.3808048E-1,-1.03278615E-1,-7.8466105E-1,3.8589343E-1,-2.0806294E-2,-8.376229E-2,-5.509484E-2,2.4599712E-2,1.7671075E-1,-1.2182855E-1,1.8275386E-2],"categories":[],"categories_nodes":[],"categories_segments":[],"categories_sizes":[],"default_left":[0,0,0,0,0,0,0,0,0,0,0,0,0,0,0],"id":17,"left_children":[1,3,-1,5,7,-1,9,11,13,-1,-1,-1,-1,-1,-1],"loss_changes":[7.5008527E2,1.518295E2,0E0,7.5496216E0,7.0044255E0,0E0,2.5435944E0,1.2988737E1,2.6846008E1,0E0,0E0,0E0,0E0,0E0,0E0],"parents":[2147483647,0,0,1,1,3,3,4,4,6,6,7,7,8,8],"right_children":[2,4,-1,6,8,-1,10,12,14,-1,-1,-1,-1,-1,-1],"split_conditions":[9.5E-1,3.9719157E-3,1.1465694E-1,1.0153103E-3,5.551927E-1,-1.03278615E-1,2.3941135E-3,5.336381E-1,5.898106E-1,-8.376229E-2,-5.509484E-2,2.4599712E-2,1.7671075E-1,-1.2182855E-1,1.8275386E-2],"split_indices":[2,1,0,1,3,0,1,3,3,0,0,0,0,0,0],"split_type":[0,0,0,0,0,0,0,0,0,0,0,0,0,0,0],"sum_hessian":[1.059319E3,7.294163E2,3.2990268E2,5.5272644E2,1.7668988E2,3.1094858E2,2.4177783E2,6.846987E1,1.0822E2,1.9500389E2,4.677395E1,6.324246E1,5.2274127E0,1.4999262E1,9.322074E1],"tree_param":{"num_deleted":"0","num_feature":"4","num_nodes":"15","size_leaf_vector":"1"}},{"base_weights":[-9.963868E-2,-6.438723E-1,1.130057E-1,-9.1074246E-1,1.2452589E-1,-1.0270289E-1,-7.609037E-1,2.103703E-1,-3.198707E-1,-8.16657E-2,-5.219866E-2,-3.2153632E-2,2.9074648E-2,-6.4244986E-2,2.036308E-3],"categories":[],"categories_nodes":[],"categories_segments":[],"categories_sizes":[],"default_left":[0,0,0,0,0,0,0,0,0,0,0,0,0,0,0],"id":18,"left_children":[1,3,-1,5,7,-1,9,11,13,-1,-1,-1,-1,-1,-1],"loss_changes":[6.6233704E2,1.4077316E2,0E0,8.091553E0,6.8463407E0,0E0,2.5891418E0,6.4864416E0,3.21409E0,0E0,0E0,0E0,0E0,0E0,0E0],"parents":[2147483647,0,0,1,1,3,3,4,4,6,6,7,7,8,8],"right_children":[2,4,-1,6,8,-1,10,12,14,-1,-1,-1,-1,-1,-1],"split_conditions":[9.5E-1,3.9719157E-3,1.130057E-1,1.0153103E-3,7.537557E-1,-1.0270289E-1,2.3941135E-3,4.2847812E-1,1.2512996E-2,-8.16657E-2,-5.219866E-2,-3.2153632E-2,2.9074648E-2,-6.4244986E-2,2.036308E-3],"split_indices":[2,1,0,1,3,0,1,3,1,0,0,0,0,0,0],"split_type":[0,0,0,0,0,0,0,0,0,0,0,0,0,0,0],"sum_hessian":[9.875956E2,6.8493585E2,3.026597E2,5.0823648E2,1.766994E2,2.8286057E2,2.2537592E2,1.4853366E2,2.8165741E1,1.8077287E2,4.4603043E1,1.9104582E1,1.2942908E2,1.4002022E1,1.4163719E1],"tree_param":{"num_deleted":"0","num_feature":"4","num_nodes":"15","size_leaf_vector":"1"}},{"base_weights":[-9.684287E-2,-6.19506E-1,1.11547165E-1,-8.9847726E-1,1.0399656E-1,-1.0216042E-1,-7.417116E-1,4.6670023E-1,3.4251253E-3,-7.951381E-2,-5.0224494E-2,-2.1145945E-2,1.4432813E-1,-2.7594417E-2,1.4004767E-2],"categories":[],"categories_nodes":[],"categories_segments":[],"categories_sizes":[],"default_left":[0,0,0,0,0,0,0,0,0,0,0,0,0,0,0],"id":19,"left_children":[1,3,-1,5,7,-1,9,11,13,-1,-1,-1,-1,-1,-1],"loss_changes":[5.852305E2,1.3032932E2,0E0,8.233063E0,6.5811367E0,0E0,2.268898E0,2.6245422E1,5.4696417E0,0E0,0E0,0E0,0E0,0E0,0E0],"parents":[2147483647,0,0,1,1,3,3,4,4,6,6,7,7,8,8],"right_children":[2,4,-1,6,8,-1,10,12,14,-1,-1,-1,-1,-1,-1],"split_conditions":[9.5E-1,3.734764E-3,1.11547165E-1,1.0153103E-3,4.6048334E-1,-1.0216042E-1,2.3941135E-3,4.3566296E-1,5.898106E-1,-7.951381E-2,-5.0224494E-2,-2.1145945E-2,1.4432813E-1,-2.7594417E-2,1.4004767E-2],"split_indices":[2,1,0,1,3,0,1,3,3,0,0,0,0,0,0],"split_type":[0,0,0,0,0,0,0,0,0,0,0,0,0,0,0],"sum_hessian":[9.21522E2,6.442546E2,2.7726743E2,4.64795E2,1.7945953E2,2.5723816E2,2.0755687E2,3.8168194E1,1.4129134E2,1.6779936E2,3.9757507E1,2.2988167E1,1.5180027E1,4.6068836E1,9.52225E1],"tree_param":{"num_deleted":"0","num_feature":"4","num_nodes":"15","size_leaf_vector":"1"}},{"base_weights":[-9.376625E-2,-5.9475255E-1,1.1025359E-1,-8.827323E-1,9.4531894E-2,-1.0164487E-1,-7.171641E-1,1.7671901E-1,-3.2903728E-1,-7.7302925E-2,-4.742059E-2,7.739663E-3,6.0365047E-2,-7.443072E-2,-6.044558E-3],"categories":[],"categories_nodes":[],"categories_segments":[],"categories_sizes":[],"default_left":[0,0,0,0,0,0,0,0,0,0,0,0,0,0,0],"id":20,"left_children":[1,3,-1,5,7,-1,9,11,13,-1,-1,-1,-1,-1,-1],"loss_changes":[5.170755E2,1.2076642E2,0E0,8.766846E0,6.326419E0,0E0,2.2805252E0,6.3753886E0,3.2576454E0,0E0,0E0,0E0,0E0,0E0,0E0],"parents":[2147483647,0,0,1,1,3,3,4,4,6,6,7,7,8,8],"right_children":[2,4,-1,6,8,-1,10,12,14,-1,-1,-1,-1,-1,-1],"split_conditions":[9.5E-1,3.734764E-3,1.1025359E-1,1.0153103E-3,7.537557E-1,-1.0164487E-1,2.3941135E-3,6.701502E-1,8.959705E-3,-7.7302925E-2,-4.742059E-2,7.739663E-3,6.0365047E-2,-7.443072E-2,-6.044558E-3],"split_indices":[2,1,0,1,3,0,1,3,1,0,0,0,0,0,0],"split_type":[0,0,0,0,0,0,0,0,0,0,0,0,0,0,0],"sum_hessian":[8.6066046E2,6.069749E2,2.5368556E2,4.2791388E2,1.7906104E2,2.3388446E2,1.9402942E2,1.504511E2,2.8609943E1,1.5598172E2,3.8047707E1,1.23014084E2,2.743701E1,1.0541137E1,1.8068808E1],"tree_param":{"num_deleted":"0","num_feature":"4","num_nodes":"15","size_leaf_vector":"1"}},{"base_weights":[-9.08303E-2,-5.7000834E-1,1.0910185E-1,-8.6645377E-1,8.499337E-2,-1.0115045E-1,-6.9213176E-1,3.1686896E-1,-6.2363815E-2,-7.503108E-2,-4.4675868E-2,1.7233329E-2,1.4334345E-1,-1.1529201E-1,1.1483508E-2],"categories":[],"categories_nodes":[],"categories_segments":[],"categories_sizes":[],"default_left":[0,0,0,0,0,0,0,0,0,0,0,0,0,0,0],"id":21,"left_children":[1,3,-1,5,7,-1,9,11,13,-1,-1,-1,-1,-1,-1],"loss_changes":[4.5705853E2,1.11552185E2,0E0,9.2960205E0,6.1629767E0,0E0,2.2731705E0,1.105393E1,2.1537441E1,0E0,0E0,0E0,0E0,0E0,0E0],"parents":[2147483647,0,0,1,1,3,3,4,4,6,6,7,7,8,8],"right_children":[2,4,-1,6,8,-1,10,12,14,-1,-1,-1,-1,-1,-1],"split_conditions":[9.5E-1,3.734764E-3,1.0910185E-1,1.0153103E-3,5.551927E-1,-1.0115045E-1,2.3941135E-3,5.264533E-1,5.898106E-1,-7.503108E-2,-4.4675868E-2,1.7233329E-2,1.4334345E-1,-1.1529201E-1,1.1483508E-2],"split_indices":[2,1,0,1,3,0,1,3,3,0,0,0,0,0,0],"split_type":[0,0,0,0,0,0,0,0,0,0,0,0,0,0,0],"sum_hessian":[8.0497516E2,5.731218E2,2.3185333E2,3.943302E2,1.7879163E2,2.1261436E2,1.8171585E2,6.902547E1,1.0976616E2,1.4522461E2,3.6491234E1,6.213645E1,6.8890133E0,1.45727825E1,9.5193375E1],"tree_param":{"num_deleted":"0","num_feature":"4","num_nodes":"15","size_leaf_vector":"1"}},{"base_weights":[-8.777391E-2,-5.450784E-1,1.0807248E-1,-8.4957635E-1,7.6694824E-2,-1.00671746E-1,-6.666474E-1,1.7060247E-1,-2.6247478E-1,-7.2698E-2,-4.1998547E-2,6.2838704E-3,8.817164E-2,-1.18057646E-1,-1.9321717E-2],"categories":[],"categories_nodes":[],"categories_segments":[],"categories_sizes":[],"default_left":[0,0,0,0,0,0,0,0,0,0,0,0,0,0,0],"id":22,"left_children":[1,3,-1,5,7,-1,9,11,13,-1,-1,-1,-1,-1,-1],"loss_changes":[4.0401837E2,1.0292409E2,0E0,9.814423E0,5.7623878E0,0E0,2.247116E0,1.0764618E1,2.272027E0,0E0,0E0,0E0,0E0,0E0,0E0],"parents":[2147483647,0,0,1,1,3,3,4,4,6,6,7,7,8,8],"right_children":[2,4,-1,6,8,-1,10,12,14,-1,-1,-1,-1,-1,-1],"split_conditions":[9.5E-1,3.734764E-3,1.0807248E-1,1.0153103E-3,7.15872E-1,-1.00671746E-1,2.3941135E-3,6.701502E-1,7.2697586E-1,-7.2698E-2,-4.1998547E-2,6.2838704E-3,8.817164E-2,-1.18057646E-1,-1.9321717E-2],"split_indices":[2,1,0,1,3,0,1,3,3,0,0,0,0,0,0],"split_type":[0,0,0,0,0,0,0,0,0,0,0,0,0,0,0],"sum_hessian":[7.539769E2,5.422824E2,2.1169452E2,3.6376917E2,1.7851326E2,1.932547E2,1.7051445E2,1.4019402E2,3.8319244E1,1.3543922E2,3.5075222E1,1.22689705E2,1.7504303E1,1.5623293E0,3.6756916E1],"tree_param":{"num_deleted":"0","num_feature":"4","num_nodes":"15","size_leaf_vector":"1"}},{"base_weights":[-8.473132E-2,-5.200249E-1,1.0714896E-1,-8.795661E-1,-6.4046476E-3,-1.0126641E-1,-7.1211237E-1,-3.1257883E-1,1.627944E-1,-8.190196E-2,-4.297493E-2,-2.1039803E-2,-7.115631E-2,1.3053305E-1,8.938047E-3],"categories":[],"categories_nodes":[],"categories_segments":[],"categories_sizes":[],"default_left":[0,0,0,0,0,0,0,0,0,0,0,0,0,0,0],"id":23,"left_children":[1,3,-1,5,7,-1,9,11,13,-1,-1,-1,-1,-1,-1],"loss_changes":[3.571718E2,9.517854E1,0E0,6.0362396E0,1.1098053E1,0E0,3.8027573E0,2.958623E0,1.14588585E1,0E0,0E0,0E0,0E0,0E0,0E0],"parents":[2147483647,0,0,1,1,3,3,4,4,6,6,7,7,8,8],"right_children":[2,4,-1,6,8,-1,10,12,14,-1,-1,-1,-1,-1,-1],"split_conditions":[9.5E-1,2.3941135E-3,1.0714896E-1,9.37992E-4,7.665946E-3,-1.0126641E-1,5.969954E-1,7.517962E-1,3.723057E-1,-8.190196E-2,-4.297493E-2,-2.1039803E-2,-7.115631E-2,1.3053305E-1,8.938047E-3],"split_indices":[2,1,0,1,1,0,3,3,3,0,0,0,0,0,0],"split_type":[0,0,0,0,0,0,0,0,0,0,0,0,0,0,0],"sum_hessian":[7.075591E2,5.1443506E2,1.9312407E2,3.0218732E2,2.1224773E2,1.6555284E2,1.3663448E2,7.524348E1,1.3700424E2,9.773127E1,3.8903206E1,6.1118275E1,1.4125199E1,7.258607E0,1.2974564E2],"tree_param":{"num_deleted":"0","num_feature":"4","num_nodes":"15","size_leaf_vector":"1"}},{"base_weights":[-8.1601515E-2,-4.954853E-1,1.0631712E-1,-8.6455345E-1,-5.663927E-3,-1.00906454E-1,-6.8814534E-1,-2.8918004E-1,1.4797452E-1,-7.996604E-2,-4.0427793E-2,-2.228684E-2,-9.411254E-2,1.2455843E-1,8.046139E-3],"categories":[],"categories_nodes":[],"categories_segments":[],"categories_sizes":[],"default_left":[0,0,0,0,0,0,0,0,0,0,0,0,0,0,0],"id":24,"left_children":[1,3,-1,5,7,-1,9,11,13,-1,-1,-1,-1,-1,-1],"loss_changes":[3.1587265E2,8.848795E1,0E0,6.422226E0,9.249069E0,0E0,3.7555695E0,3.0161238E0,1.0106266E1,0E0,0E0,0E0,0E0,0E0,0E0],"parents":[2147483647,0,0,1,1,3,3,4,4,6,6,7,7,8,8],"right_children":[2,4,-1,6,8,-1,10,12,14,-1,-1,-1,-1,-1,-1],"split_conditions":[9.5E-1,2.3941135E-3,1.0631712E-1,9.37992E-4,7.665946E-3,-1.00906454E-1,5.969954E-1,1E0,3.723057E-1,-7.996604E-2,-4.0427793E-2,-2.228684E-2,-9.411254E-2,1.2455843E-1,8.046139E-3],"split_indices":[2,1,0,1,1,0,3,0,3,0,0,0,0,0,0],"split_type":[0,0,0,0,0,0,0,0,0,0,0,0,0,0,0],"sum_hessian":[6.645634E2,4.885126E2,1.7605083E2,2.7816055E2,2.1035205E2,1.5030922E2,1.2785134E2,7.361841E1,1.3673366E2,9.048717E1,3.7364174E1,6.80397E1,5.578705E0,6.9119277E0,1.2982172E2],"tree_param":{"num_deleted":"0","num_feature":"4","num_nodes":"15","size_leaf_vector":"1"}},{"base_weights":[-7.845078E-2,-4.710039E-1,1.05564766E-1,-8.488808E-1,-5.0791577E-3,-1.00558035E-1,-6.636568E-1,-2.9006204E-1,1.23472415E-1,-7.795911E-2,-3.7944816E-2,-2.0499535E-2,-8.3488986E-2,1.1103149E-1,6.707616E-3],"categories":[],"categories_nodes":[],"categories_segments":[],"categories_sizes":[],"default_left":[0,0,0,0,0,0,0,0,0,0,0,0,0,0,0],"id":25,"left_children":[1,3,-1,5,7,-1,9,11,13,-1,-1,-1,-1,-1,-1],"loss_changes":[2.7937494E2,8.2047195E1,0E0,6.8014374E0,7.7185335E0,0E0,3.6868248E0,2.8640552E0,8.007669E0,0E0,0E0,0E0,0E0,0E0,0E0],"parents":[2147483647,0,0,1,1,3,3,4,4,6,6,7,7,8,8],"right_children":[2,4,-1,6,8,-1,10,12,14,-1,-1,-1,-1,-1,-1],"split_conditions":[9.5E-1,2.3941135E-3,1.05564766E-1,9.37992E-4,6.3579157E-3,-1.00558035E-1,5.969954E-1,7.759634E-1,3.723057E-1,-7.795911E-2,-3.7944816E-2,-2.0499535E-2,-8.3488986E-2,1.1103149E-1,6.707616E-3],"split_indices":[2,1,0,1,1,0,3,3,3,0,0,0,0,0,0],"split_type":[0,0,0,0,0,0,0,0,0,0,0,0,0,0,0],"sum_hessian":[6.254187E2,4.65037E2,1.603817E2,2.5632715E2,2.0870982E2,1.3645625E2,1.1987089E2,6.44891E1,1.4422072E2,8.3902405E1,3.5968487E1,5.69703E1,7.518801E0,6.786165E0,1.3743456E2],"tree_param":{"num_deleted":"0","num_feature":"4","num_nodes":"15","size_leaf_vector":"1"}},{"base_weights":[-7.529835E-2,-4.4685867E-1,1.0488128E-1,-8.325013E-1,-4.6004737E-3,-1.0021748E-1,-6.387018E-1,-2.4842966E-1,1.233441E-1,-7.587985E-2,-3.553457E-2,-1.8378986E-2,-9.004908E-2,1.1512176E-1,6.575569E-3],"categories":[],"categories_nodes":[],"categories_segments":[],"categories_sizes":[],"default_left":[0,0,0,0,0,0,0,0,0,0,0,0,0,0,0],"id":26,"left_children":[1,3,-1,5,7,-1,9,11,13,-1,-1,-1,-1,-1,-1],"loss_changes":[2.4715637E2,7.582395E1,0E0,7.169388E0,6.522744E0,0E0,3.5969543E0,2.8671088E0,8.042891E0,0E0,0E0,0E0,0E0,0E0,0E0],"parents":[2147483647,0,0,1,1,3,3,4,4,6,6,7,7,8,8],"right_children":[2,4,-1,6,8,-1,10,12,14,-1,-1,-1,-1,-1,-1],"split_conditions":[9.5E-1,2.3941135E-3,1.0488128E-1,9.37992E-4,7.665946E-3,-1.0021748E-1,5.969954E-1,1E0,3.723057E-1,-7.587985E-2,-3.553457E-2,-1.8378986E-2,-9.004908E-2,1.1512176E-1,6.575569E-3],"split_indices":[2,1,0,1,1,0,3,0,3,0,0,0,0,0,0],"split_type":[0,0,0,0,0,0,0,0,0,0,0,0,0,0,0],"sum_hessian":[5.8962103E2,4.4359796E2,1.4602307E2,2.3649524E2,2.0710274E2,1.2387245E2,1.1262279E2,7.094957E1,1.3615317E2,7.791968E1,3.470311E1,6.571682E1,5.2327476E0,6.215986E0,1.2993718E2],"tree_param":{"num_deleted":"0","num_feature":"4","num_nodes":"15","size_leaf_vector":"1"}},{"base_weights":[-7.209356E-2,-4.229376E-1,1.04257405E-1,-8.153772E-1,-4.1049216E-3,-1.007231E-1,-6.2177E-1,-4.65344E-1,6.728858E-2,-7.3728085E-2,-3.5568662E-2,1.0327001E-2,-1.2089608E-1,1.1454637E-1,-7.0817233E-3],"categories":[],"categories_nodes":[],"categories_segments":[],"categories_sizes":[],"default_left":[0,0,0,0,0,0,0,0,0,0,0,0,0,0,0],"id":27,"left_children":[1,3,-1,5,7,-1,9,11,13,-1,-1,-1,-1,-1,-1],"loss_changes":[2.1867542E2,6.987789E1,0E0,7.5264587E0,6.83674E0,0E0,3.1757736E0,1.1891272E1,2.6859558E1,0E0,0E0,0E0,0E0,0E0,0E0],"parents":[2147483647,0,0,1,1,3,3,4,4,6,6,7,7,8,8],"right_children":[2,4,-1,6,8,-1,10,12,14,-1,-1,-1,-1,-1,-1],"split_conditions":[9.5E-1,2.3941135E-3,1.04257405E-1,8.802223E-4,4.2847812E-1,-1.007231E-1,5.969954E-1,3.723057E-1,4.5591116E-1,-7.3728085E-2,-3.5568662E-2,1.0327001E-2,-1.2089608E-1,1.1454637E-1,-7.0817233E-3],"split_indices":[2,1,0,1,3,0,3,3,3,0,0,0,0,0,0],"split_type":[0,0,0,0,0,0,0,0,0,0,0,0,0,0,0],"sum_hessian":[5.570381E2,4.2415497E2,1.3288313E2,2.184882E2,2.0566678E2,1.0763023E2,1.1085797E2,2.6827723E1,1.7883905E2,7.606579E1,3.4792175E1,1.5690755E1,1.1136969E1,1.9478521E1,1.5936053E2],"tree_param":{"num_deleted":"0","num_feature":"4","num_nodes":"15","size_leaf_vector":"1"}},{"base_weights":[-6.890053E-2,-3.9910606E-1,1.03684984E-1,-7.974763E-1,-3.849653E-3,-1.00470796E-1,-5.962413E-1,-4.3112218E-1,6.13408E-2,-7.150753E-2,-3.3240594E-2,9.325887E-3,-1.1495624E-1,1.0434222E-1,-6.3912184E-3],"categories":[],"categories_nodes":[],"categories_segments":[],"categories_sizes":[],"default_left":[0,0,0,0,0,0,0,0,0,0,0,0,0,0,0],"id":28,"left_children":[1,3,-1,5,7,-1,9,11,13,-1,-1,-1,-1,-1,-1],"loss_changes":[1.934833E2,6.422479E1,0E0,7.872635E0,5.7576165E0,0E0,3.0707664E0,1.0415436E1,2.2133821E1,0E0,0E0,0E0,0E0,0E0,0E0],"parents":[2147483647,0,0,1,1,3,3,4,4,6,6,7,7,8,8],"right_children":[2,4,-1,6,8,-1,10,12,14,-1,-1,-1,-1,-1,-1],"split_conditions":[9.5E-1,2.3941135E-3,1.03684984E-1,8.802223E-4,4.2847812E-1,-1.00470796E-1,5.969954E-1,3.723057E-1,4.5591116E-1,-7.150753E-2,-3.3240594E-2,9.325887E-3,-1.1495624E-1,1.0434222E-1,-6.3912184E-3],"split_indices":[2,1,0,1,3,0,3,3,3,0,0,0,0,0,0],"split_type":[0,0,0,0,0,0,0,0,0,0,0,0,0,0,0],"sum_hessian":[5.277766E2,4.0690375E2,1.2087286E2,2.021468E2,2.0475693E2,9.7622505E1,1.045243E2,2.6361912E1,1.7839502E2,7.088618E1,3.3638126E1,1.5742117E1,1.0619794E1,1.9349476E1,1.5904555E2],"tree_param":{"num_deleted":"0","num_feature":"4","num_nodes":"15","size_leaf_vector":"1"}},{"base_weights":[-6.57194E-2,-3.7587324E-1,1.0315678E-1,-7.787869E-1,-3.627776E-3,-1.0022464E-1,-5.7044905E-1,-2.5103542E-1,1.056841E-1,-6.921875E-2,-3.0998781E-2,-1.6971333E-2,-8.05234E-2,1.00943506E-1,5.8424138E-3],"categories":[],"categories_nodes":[],"categories_segments":[],"categories_sizes":[],"default_left":[0,0,0,0,0,0,0,0,0,0,0,0,0,0,0],"id":29,"left_children":[1,3,-1,5,7,-1,9,11,13,-1,-1,-1,-1,-1,-1],"loss_changes":[1.7125584E2,5.88148E1,0E0,8.195465E0,5.5664434E0,0E0,2.9491997E0,2.7057195E0,6.039157E0,0E0,0E0,0E0,0E0,0E0,0E0],"parents":[2147483647,0,0,1,1,3,3,4,4,6,6,7,7,8,8],"right_children":[2,4,-1,6,8,-1,10,12,14,-1,-1,-1,-1,-1,-1],"split_conditions":[9.5E-1,2.3941135E-3,1.0315678E-1,8.802223E-4,6.3579157E-3,-1.0022464E-1,5.969954E-1,7.759634E-1,3.723057E-1,-6.921875E-2,-3.0998781E-2,-1.6971333E-2,-8.05234E-2,1.00943506E-1,5.8424138E-3],"split_indices":[2,1,0,1,1,0,3,3,3,0,0,0,0,0,0],"split_type":[0,0,0,0,0,0,0,0,0,0,0,0,0,0,0],"sum_hessian":[5.0106915E2,3.911625E2,1.0990663E2,1.8731886E2,2.0384364E2,8.854086E1,9.877801E1,6.2067837E1,1.4177582E2,6.618561E1,3.25924E1,5.5264637E1,6.803201E0,6.0337324E0,1.3574208E2],"tree_param":{"num_deleted":"0","num_feature":"4","num_nodes":"15","size_leaf_vector":"1"}},{"base_weights":[-6.255475E-2,-3.5366714E-1,1.0266631E-1,-7.593043E-1,-3.2846944E-3,-9.9982135E-2,-5.4449344E-1,-4.140544E-1,6.235409E-2,-6.6866234E-2,-2.8848717E-2,6.033205E-3,-9.859278E-2,1.0720384E-1,-5.4741274E-3],"categories":[],"categories_nodes":[],"categories_segments":[],"categories_sizes":[],"default_left":[0,0,0,0,0,0,0,0,0,0,0,0,0,0,0],"id":30,"left_children":[1,3,-1,5,7,-1,9,11,13,-1,-1,-1,-1,-1,-1],"loss_changes":[1.516839E2,5.362556E1,0E0,8.49028E0,5.5114255E0,0E0,2.8131676E0,7.6996365E0,2.09015E1,0E0,0E0,0E0,0E0,0E0,0E0],"parents":[2147483647,0,0,1,1,3,3,4,4,6,6,7,7,8,8],"right_children":[2,4,-1,6,8,-1,10,12,14,-1,-1,-1,-1,-1,-1],"split_conditions":[9.5E-1,2.3941135E-3,1.0266631E-1,8.802223E-4,4.2978445E-1,-9.9982135E-2,5.969954E-1,3.723057E-1,4.5591116E-1,-6.6866234E-2,-2.8848717E-2,6.033205E-3,-9.859278E-2,1.0720384E-1,-5.4741274E-3],"split_indices":[2,1,0,1,3,0,3,3,3,0,0,0,0,0,0],"split_type":[0,0,0,0,0,0,0,0,0,0,0,0,0,0,0],"sum_hessian":[4.7622504E2,3.763218E2,9.9903244E1,1.7386801E2,2.0245378E2,8.030196E1,9.356605E1,2.7162416E1,1.7529137E2,6.1921043E1,3.1645004E1,1.5335583E1,1.1826833E1,1.7368847E1,1.5792252E2],"tree_param":{"num_deleted":"0","num_feature":"4","num_nodes":"15","size_leaf_vector":"1"}},{"base_weights":[-5.936532E-2,-3.3173522E-1,1.0220772E-1,-7.390361E-1,-2.985452E-3,-9.974094E-2,-5.184817E-1,-2.1592265E-1,1.0751272E-1,-6.445586E-2,-2.6794678E-2,-7.655285E-2,-1.3445347E-2,1.06832884E-1,5.8434703E-3],"categories":[],"categories_nodes":[],"categories_segments":[],"categories_sizes":[],"default_left":[0,0,0,0,0,0,0,0,0,0,0,0,0,0,0],"id":31,"left_children":[1,3,-1,5,7,-1,9,11,13,-1,-1,-1,-1,-1,-1],"loss_changes":[1.343608E2,4.876631E1,0E0,8.752632E0,4.7889647E0,0E0,2.665039E0,3.0103524E0,6.2571025E0,0E0,0E0,0E0,0E0,0E0,0E0],"parents":[2147483647,0,0,1,1,3,3,4,4,6,6,7,7,8,8],"right_children":[2,4,-1,6,8,-1,10,12,14,-1,-1,-1,-1,-1,-1],"split_conditions":[9.5E-1,2.3941135E-3,1.0220772E-1,8.802223E-4,7.665946E-3,-9.974094E-2,5.969954E-1,3.5467014E-1,3.723057E-1,-6.445586E-2,-2.6794678E-2,-7.655285E-2,-1.3445347E-2,1.06832884E-1,5.8434703E-3],"split_indices":[2,1,0,1,1,0,3,3,3,0,0,0,0,0,0],"split_type":[0,0,0,0,0,0,0,0,0,0,0,0,0,0,0],"sum_hessian":[4.5400134E2,3.632158E2,9.078554E1,1.6166934E2,2.0154645E2,7.282944E1,8.883991E1,6.85302E1,1.3301625E2,5.8053066E1,3.0786842E1,7.763008E0,6.076719E1,5.454951E0,1.275613E2],"tree_param":{"num_deleted":"0","num_feature":"4","num_nodes":"15","size_leaf_vector":"1"}},{"base_weights":[-5.6220274E-2,-3.108873E-1,1.0177573E-1,-7.180031E-1,-2.6107822E-3,-9.949871E-2,-4.925259E-1,-3.9390787E-1,5.7372864E-2,-6.1994918E-2,-2.4839744E-2,6.007339E-3,-9.335296E-2,9.8726444E-2,-4.9214135E-3],"categories":[],"categories_nodes":[],"categories_segments":[],"categories_sizes":[],"default_left":[0,0,0,0,0,0,0,0,0,0,0,0,0,0,0],"id":32,"left_children":[1,3,-1,5,7,-1,9,11,13,-1,-1,-1,-1,-1,-1],"loss_changes":[1.1910468E2,4.415487E1,0E0,8.978447E0,4.745658E0,0E0,2.5074291E0,6.6395764E0,1.7428493E1,0E0,0E0,0E0,0E0,0E0,0E0],"parents":[2147483647,0,0,1,1,3,3,4,4,6,6,7,7,8,8],"right_children":[2,4,-1,6,8,-1,10,12,14,-1,-1,-1,-1,-1,-1],"split_conditions":[9.5E-1,2.3941135E-3,1.0177573E-1,8.802223E-4,4.2978445E-1,-9.949871E-2,5.969954E-1,3.723057E-1,4.5591116E-1,-6.1994918E-2,-2.4839744E-2,6.007339E-3,-9.335296E-2,9.8726444E-2,-4.9214135E-3],"split_indices":[2,1,0,1,3,0,3,3,3,0,0,0,0,0,0],"split_type":[0,0,0,0,0,0,0,0,0,0,0,0,0,0,0],"sum_hessian":[4.333158E2,3.5083463E2,8.248117E1,1.5060876E2,2.0022586E2,6.605352E1,8.455525E1,2.5873812E1,1.7435205E2,5.4545624E1,3.0009623E1,1.4534596E1,1.1339215E1,1.7079933E1,1.5727213E2],"tree_param":{"num_deleted":"0","num_feature":"4","num_nodes":"15","size_leaf_vector":"1"}},{"base_weights":[-5.312522E-2,-2.905277E-1,1.013655E-1,-6.9623953E-1,-2.382711E-3,-9.925316E-2,-4.667407E-1,3.295735E-2,-6.227551E-1,-5.9491903E-2,-2.2985866E-2,-3.834222E-2,9.458385E-3,-8.862759E-2,6.460153E-2],"categories":[],"categories_nodes":[],"categories_segments":[],"categories_sizes":[],"default_left":[0,0,0,0,0,0,0,0,0,0,0,0,0,0,0],"id":33,"left_children":[1,3,-1,5,7,-1,9,11,13,-1,-1,-1,-1,-1,-1],"loss_changes":[1.0561439E2,3.985553E1,0E0,9.164146E0,4.4131684E0,0E0,2.3430595E0,4.9247317E0,4.199776E0,0E0,0E0,0E0,0E0,0E0,0E0],"parents":[2147483647,0,0,1,1,3,3,4,4,6,6,7,7,8,8],"right_children":[2,4,-1,6,8,-1,10,12,14,-1,-1,-1,-1,-1,-1],"split_conditions":[9.5E-1,2.3941135E-3,1.013655E-1,8.802223E-4,8.981058E-1,-9.925316E-2,5.969954E-1,4.2847812E-1,4.6149343E-2,-5.9491903E-2,-2.2985866E-2,-3.834222E-2,9.458385E-3,-8.862759E-2,6.460153E-2],"split_indices":[2,1,0,1,3,0,3,3,1,0,0,0,0,0,0],"split_type":[0,0,0,0,0,0,0,0,0,0,0,0,0,0,0],"sum_hessian":[4.1486295E2,3.3993997E2,7.492297E1,1.4058218E2,1.9935779E2,5.9910534E1,8.0671646E1,1.8950911E2,9.84868E0,5.136582E1,2.9305822E1,2.3759092E1,1.6575003E2,8.404543E0,1.4441364E0],"tree_param":{"num_deleted":"0","num_feature":"4","num_nodes":"15","size_leaf_vector":"1"}},{"base_weights":[-5.0245907E-2,-2.7096435E-1,1.0097251E-1,-9.463111E-1,-1.0864503E-1,-9.900206E-2,-6.0072297E-1,-3.5270187E-1,7.4823044E-2,-6.5607205E-2,-1.3216007E-2,1.4996019E-2,-4.1648626E-2,8.0328844E-2,4.052335E-3],"categories":[],"categories_nodes":[],"categories_segments":[],"categories_sizes":[],"default_left":[0,0,0,0,0,0,0,0,0,0,0,0,0,0,0],"id":34,"left_children":[1,3,-1,5,7,-1,9,11,13,-1,-1,-1,-1,-1,-1],"loss_changes":[9.371747E1,3.622171E1,0E0,3.732376E-1,1.2039152E1,0E0,1.6584086E-1,3.7593813E0,3.814724E0,0E0,0E0,0E0,0E0,0E0,0E0],"parents":[2147483647,0,0,1,1,3,3,4,4,6,6,7,7,8,8],"right_children":[2,4,-1,6,8,-1,10,12,14,-1,-1,-1,-1,-1,-1],"split_conditions":[9.5E-1,1.0153103E-3,1.0097251E-1,8.802223E-4,4.9280734E-3,-9.900206E-2,6.9627696E-1,1.1530877E-3,3.723057E-1,-6.5607205E-2,-1.3216007E-2,1.4996019E-2,-4.1648626E-2,8.0328844E-2,4.052335E-3],"split_indices":[2,1,0,1,1,0,3,1,3,0,0,0,0,0,0],"split_type":[0,0,0,0,0,0,0,0,0,0,0,0,0,0,0],"sum_hessian":[3.984093E2,3.3036212E2,6.804716E1,6.308023E1,2.672819E2,5.4342342E1,8.73789E0,1.14305534E2,1.5297638E2,7.456868E0,1.2810218E0,1.2719175E1,1.0158636E2,5.8708167E0,1.4710556E2],"tree_param":{"num_deleted":"0","num_feature":"4","num_nodes":"15","size_leaf_vector":"1"}},{"base_weights":[-4.7145527E-2,-2.5229087E-1,1.00592636E-1,-9.3968225E-1,-9.920093E-2,-9.874316E-2,-5.7880646E-1,-3.5553586E-1,5.1950436E-2,-6.347719E-2,-1.2568322E-2,1.3414285E-2,-4.3113653E-2,-4.0969416E-2,1.00391125E-2],"categories":[],"categories_nodes":[],"categories_segments":[],"categories_sizes":[],"default_left":[0,0,0,0,0,0,0,0,0,0,0,0,0,0,0],"id":35,"left_children":[1,3,-1,5,7,-1,9,11,13,-1,-1,-1,-1,-1,-1],"loss_changes":[8.319238E1,3.3804413E1,0E0,4.3745804E-1,1.0269173E1,0E0,1.5501642E-1,3.6955872E0,3.7823858E0,0E0,0E0,0E0,0E0,0E0,0E0],"parents":[2147483647,0,0,1,1,3,3,4,4,6,6,7,7,8,8],"right_children":[2,4,-1,6,8,-1,10,12,14,-1,-1,-1,-1,-1,-1],"split_conditions":[9.5E-1,1.0153103E-3,1.00592636E-1,8.802223E-4,3.9719157E-3,-9.874316E-2,6.9627696E-1,1.1530877E-3,4.2847812E-1,-6.347719E-2,-1.2568322E-2,1.3414285E-2,-4.3113653E-2,-4.0969416E-2,1.00391125E-2],"split_indices":[2,1,0,1,1,0,3,1,3,0,0,0,0,0,0],"split_type":[0,0,0,0,0,0,0,0,0,0,0,0,0,0,0],"sum_hessian":[3.8291666E2,3.2112064E2,6.1795998E1,5.755482E1,2.6356583E2,4.9295998E1,8.258824E0,9.7264496E1,1.6630133E2,6.9941E0,1.2647245E0,1.2904621E1,8.435987E1,1.5084726E1,1.5121661E2],"tree_param":{"num_deleted":"0","num_feature":"4","num_nodes":"15","size_leaf_vector":"1"}},{"base_weights":[-4.4453874E-2,-2.3468177E-1,1.0022197E-1,-9.326303E-1,-9.085937E-2,-9.8474205E-2,-5.568479E-1,-3.072864E-1,6.2416773E-2,-2.348355E-2,-6.737188E-2,3.7257683E-2,-3.470641E-2,7.831781E-2,2.913114E-3],"categories":[],"categories_nodes":[],"categories_segments":[],"categories_sizes":[],"default_left":[0,0,0,0,0,0,0,0,0,0,0,0,0,0,0],"id":36,"left_children":[1,3,-1,5,7,-1,9,11,13,-1,-1,-1,-1,-1,-1],"loss_changes":[7.3932976E1,3.1437498E1,0E0,5.0021744E-1,8.693325E0,0E0,1.7381263E-1,3.0655994E0,3.669503E0,0E0,0E0,0E0,0E0,0E0,0E0],"parents":[2147483647,0,0,1,1,3,3,4,4,6,6,7,7,8,8],"right_children":[2,4,-1,6,8,-1,10,12,14,-1,-1,-1,-1,-1,-1],"split_conditions":[9.5E-1,1.0153103E-3,1.0022197E-1,8.802223E-4,4.9280734E-3,-9.8474205E-2,4.4872633E-1,1.0701079E-3,3.723057E-1,-2.348355E-2,-6.737188E-2,3.7257683E-2,-3.470641E-2,7.831781E-2,2.913114E-3],"split_indices":[2,1,0,1,1,0,3,1,3,0,0,0,0,0,0],"split_type":[0,0,0,0,0,0,0,0,0,0,0,0,0,0,0],"sum_hessian":[3.6914246E2,3.1302707E2,5.6115383E1,5.254576E1,2.604813E2,4.4723244E1,7.822519E0,1.07577E2,1.529043E2,2.8844383E0,4.938081E0,5.4837995E0,1.020932E2,5.7551107E0,1.471492E2],"tree_param":{"num_deleted":"0","num_feature":"4","num_nodes":"15","size_leaf_vector":"1"}},{"base_weights":[-4.147655E-2,-2.1772057E-1,9.985678E-2,-9.251338E-1,-8.263724E-2,-9.819294E-2,-5.3583485E-1,-3.109578E-1,4.4220522E-2,-5.9630502E-2,-8.63251E-3,1.2422192E-2,-3.8392644E-2,-4.050669E-2,9.040999E-3],"categories":[],"categories_nodes":[],"categories_segments":[],"categories_sizes":[],"default_left":[0,0,0,0,0,0,0,0,0,0,0,0,0,0,0],"id":37,"left_children":[1,3,-1,5,7,-1,9,11,13,-1,-1,-1,-1,-1,-1],"loss_changes":[6.5713875E1,2.9199247E1,0E0,5.5776215E-1,7.496296E0,0E0,1.7801023E-1,2.9816132E0,3.501091E0,0E0,0E0,0E0,0E0,0E0,0E0],"parents":[2147483647,0,0,1,1,3,3,4,4,6,6,7,7,8,8],"right_children":[2,4,-1,6,8,-1,10,12,14,-1,-1,-1,-1,-1,-1],"split_conditions":[9.5E-1,1.0153103E-3,9.985678E-2,8.802223E-4,3.9719157E-3,-9.819294E-2,6.9627696E-1,1.1530877E-3,4.2847812E-1,-5.9630502E-2,-8.63251E-3,1.2422192E-2,-3.8392644E-2,-4.050669E-2,9.040999E-3],"split_indices":[2,1,0,1,1,0,3,1,3,0,0,0,0,0,0],"split_type":[0,0,0,0,0,0,0,0,0,0,0,0,0,0,0],"sum_hessian":[3.563153E2,3.0536017E2,5.095512E1,4.802277E1,2.573374E2,4.0580154E1,7.442615E0,9.139395E1,1.6594345E2,6.2722716E0,1.170343E0,1.3023046E1,7.83709E1,1.4745315E1,1.5119815E2],"tree_param":{"num_deleted":"0","num_feature":"4","num_nodes":"15","size_leaf_vector":"1"}},{"base_weights":[-3.8964815E-2,-2.0191237E-1,9.949355E-2,-9.171182E-1,-7.5565726E-2,-9.789705E-2,-5.1388454E-1,-2.8902155E-1,3.9574523E-2,-1.8641403E-2,-6.401511E-2,1.1136982E-2,-3.593987E-2,7.342433E-3,-5.4547638E-2],"categories":[],"categories_nodes":[],"categories_segments":[],"categories_sizes":[],"default_left":[0,0,0,0,0,0,0,0,0,0,0,0,0,0,0],"id":38,"left_children":[1,3,-1,5,7,-1,9,11,13,-1,-1,-1,-1,-1,-1],"loss_changes":[5.848436E1,2.701139E1,0E0,6.1685944E-1,6.297871E0,0E0,2.1462679E-1,2.5689359E0,3.3479915E0,0E0,0E0,0E0,0E0,0E0,0E0],"parents":[2147483647,0,0,1,1,3,3,4,4,6,6,7,7,8,8],"right_children":[2,4,-1,6,8,-1,10,12,14,-1,-1,-1,-1,-1,-1],"split_conditions":[9.5E-1,1.0153103E-3,9.949355E-2,8.802223E-4,3.9719157E-3,-9.789705E-2,4.4872633E-1,1.1530877E-3,8.981058E-1,-1.8641403E-2,-6.401511E-2,1.1136982E-2,-3.593987E-2,7.342433E-3,-5.4547638E-2],"split_indices":[2,1,0,1,1,0,3,1,3,0,0,0,0,0,0],"split_type":[0,0,0,0,0,0,0,0,0,0,0,0,0,0,0],"sum_hessian":[3.4495444E2,2.98685E2,4.626946E1,4.3903477E1,2.5478151E2,3.6826782E1,7.076693E0,8.874642E1,1.660351E2,2.6584342E0,4.418259E0,1.3179993E1,7.556643E1,1.5778073E2,8.254362E0],"tree_param":{"num_deleted":"0","num_feature":"4","num_nodes":"15","size_leaf_vector":"1"}},{"base_weights":[-3.667318E-2,-1.8724123E-1,9.912888E-2,-9.0859497E-1,-6.918558E-2,-9.758423E-2,-4.9318236E-1,-4.1773286E-1,-4.7590595E-4,-1.753035E-2,-6.202522E-2,-1.5074362E-2,-9.131018E-2,6.0983397E-2,-8.035808E-3],"categories":[],"categories_nodes":[],"categories_segments":[],"categories_sizes":[],"default_left":[0,0,0,0,0,0,0,0,0,0,0,0,0,0,0],"id":39,"left_children":[1,3,-1,5,7,-1,9,11,13,-1,-1,-1,-1,-1,-1],"loss_changes":[5.2106613E1,2.4926281E1,0E0,6.693039E-1,6.0647974E0,0E0,2.0472622E-1,5.3777404E0,1.041139E1,0E0,0E0,0E0,0E0,0E0,0E0],"parents":[2147483647,0,0,1,1,3,3,4,4,6,6,7,7,8,8],"right_children":[2,4,-1,6,8,-1,10,12,14,-1,-1,-1,-1,-1,-1],"split_conditions":[9.5E-1,1.0153103E-3,9.912888E-2,8.802223E-4,4.2847812E-1,-9.758423E-2,4.4872633E-1,3.723057E-1,4.5591116E-1,-1.753035E-2,-6.202522E-2,-1.5074362E-2,-9.131018E-2,6.0983397E-2,-8.035808E-3],"split_indices":[2,1,0,1,3,0,3,3,3,0,0,0,0,0,0],"split_type":[0,0,0,0,0,0,0,0,0,0,0,0,0,0,0],"sum_hessian":[3.3445416E2,2.9243793E2,4.201623E1,4.0187077E1,2.5225087E2,3.3426826E1,6.760252E0,4.070166E1,2.1154921E2,2.610183E0,4.150069E0,2.729485E1,1.3406813E1,2.371667E1,1.8783253E2],"tree_param":{"num_deleted":"0","num_feature":"4","num_nodes":"15","size_leaf_vector":"1"}},{"base_weights":[-3.4333866E-2,-1.7286411E-1,9.8759435E-2,-8.995114E-1,-6.3035496E-2,-9.7252116E-2,-4.7277394E-1,-2.1521473E-1,7.772492E-2,-5.4193664E-2,-1.9553825E-3,-3.8208354E-2,4.0649236E-4,1.02396265E-1,3.2243337E-3],"categories":[],"categories_nodes":[],"categories_segments":[],"categories_sizes":[],"default_left":[0,0,0,0,0,0,0,0,0,0,0,0,0,0,0],"id":40,"left_children":[1,3,-1,5,7,-1,9,11,13,-1,-1,-1,-1,-1,-1],"loss_changes":[4.6429688E1,2.2975927E1,0E0,7.1848106E-1,5.4102097E0,0E0,2.2358918E-1,4.4382586E0,5.627798E0,0E0,0E0,0E0,0E0,0E0,0E0],"parents":[2147483647,0,0,1,1,3,3,4,4,6,6,7,7,8,8],"right_children":[2,4,-1,6,8,-1,10,12,14,-1,-1,-1,-1,-1,-1],"split_conditions":[9.5E-1,1.0153103E-3,9.8759435E-2,8.802223E-4,7.665946E-3,-9.7252116E-2,6.9627696E-1,5.969954E-1,3.723057E-1,-5.4193664E-2,-1.9553825E-3,-3.8208354E-2,4.0649236E-4,1.02396265E-1,3.2243337E-3],"split_indices":[2,1,0,1,1,0,3,3,3,0,0,0,0,0,0],"split_type":[0,0,0,0,0,0,0,0,0,0,0,0,0,0,0],"sum_hessian":[3.257616E2,2.8760532E2,3.8156273E1,3.6818287E1,2.5078702E2,3.0347261E1,6.4710274E0,1.20251495E2,1.3053552E2,5.4444427E0,1.0265846E0,6.786484E1,5.238666E1,4.9998837E0,1.25535645E2],"tree_param":{"num_deleted":"0","num_feature":"4","num_nodes":"15","size_leaf_vector":"1"}},{"base_weights":[-3.1722292E-2,-1.5952511E-1,9.838208E-2,-8.897775E-1,-5.7121694E-2,-9.689829E-2,-4.512222E-1,-3.8887575E-1,4.9658553E-3,-2.1409465E-2,-6.882822E-2,-1.3079128E-2,-8.798742E-2,5.7172317E-2,-6.9335005E-3],"categories":[],"categories_nodes":[],"categories_segments":[],"categories_sizes":[],"default_left":[0,0,0,0,0,0,0,0,0,0,0,0,0,0,0],"id":41,"left_children":[1,3,-1,5,7,-1,9,11,13,-1,-1,-1,-1,-1,-1],"loss_changes":[4.1394497E1,2.1117393E1,0E0,7.696667E-1,5.137523E0,0E0,2.566278E-1,4.867267E0,8.925357E0,0E0,0E0,0E0,0E0,0E0,0E0],"parents":[2147483647,0,0,1,1,3,3,4,4,6,6,7,7,8,8],"right_children":[2,4,-1,6,8,-1,10,12,14,-1,-1,-1,-1,-1,-1],"split_conditions":[9.5E-1,1.0153103E-3,9.838208E-2,8.802223E-4,4.2847812E-1,-9.689829E-2,9.692451E-4,3.723057E-1,4.5591116E-1,-2.1409465E-2,-6.882822E-2,-1.3079128E-2,-8.798742E-2,5.7172317E-2,-6.9335005E-3],"split_indices":[2,1,0,1,3,0,1,3,3,0,0,0,0,0,0],"split_type":[0,0,0,0,0,0,0,0,0,0,0,0,0,0,0],"sum_hessian":[3.1672696E2,2.8207202E2,3.4654934E1,3.3744755E1,2.4832727E2,2.7558123E1,6.186632E0,3.831805E1,2.1000922E2,4.044302E0,2.1423304E0,2.594625E1,1.23718E1,2.3564857E1,1.8644437E2],"tree_param":{"num_deleted":"0","num_feature":"4","num_nodes":"15","size_leaf_vector":"1"}},{"base_weights":[-2.9704314E-2,-1.4710777E-1,9.799359E-2,-9.3333316E-1,-5.808728E-2,-9.65203E-2,-3.9652228E-1,-2.5421894E-1,4.3336954E-2,-6.111894E-4,-5.6592304E-2,1.1608554E-3,-3.2238968E-2,1.1438296E-2,-2.2271805E-2],"categories":[],"categories_nodes":[],"categories_segments":[],"categories_sizes":[],"default_left":[0,0,0,0,0,0,0,0,0,0,0,0,0,0,0],"id":42,"left_children":[1,3,-1,5,7,-1,9,11,13,-1,-1,-1,-1,-1,-1],"loss_changes":[3.695367E1,1.947707E1,0E0,1.0171127E-1,5.0187793E0,0E0,2.1374184E-1,1.5613647E0,3.1781187E0,0E0,0E0,0E0,0E0,0E0,0E0],"parents":[2147483647,0,0,1,1,3,3,4,4,6,6,7,7,8,8],"right_children":[2,4,-1,6,8,-1,10,12,14,-1,-1,-1,-1,-1,-1],"split_conditions":[9.5E-1,9.37992E-4,9.799359E-2,8.802223E-4,3.734764E-3,-9.65203E-2,4.5460483E-1,1.1713755E-3,4.6149343E-2,-6.111894E-4,-5.6592304E-2,1.1608554E-3,-3.2238968E-2,1.1438296E-2,-2.2271805E-2],"split_indices":[2,1,0,1,1,0,3,1,1,0,0,0,0,0,0],"split_type":[0,0,0,0,0,0,0,0,0,0,0,0,0,0,0],"sum_hessian":[3.0953644E2,2.7805753E2,3.1478918E1,2.7316328E1,2.507412E2,2.5032167E1,2.2841601E0,8.495358E1,1.6578761E2,1.0047159E0,1.2794442E0,1.7508812E1,6.744477E1,1.3129683E2,3.4490776E1],"tree_param":{"num_deleted":"0","num_feature":"4","num_nodes":"15","size_leaf_vector":"1"}},{"base_weights":[-2.7691757E-2,-1.3564366E-1,9.7590886E-2,-9.266008E-1,-5.2957587E-2,-9.6115686E-2,-3.8304487E-1,-2.8793788E-1,2.2095319E-2,-5.80739E-4,-5.518041E-2,-4.723694E-2,-3.0307912E-3,7.346441E-3,-3.529895E-2],"categories":[],"categories_nodes":[],"categories_segments":[],"categories_sizes":[],"default_left":[0,0,0,0,0,0,0,0,0,0,0,0,0,0,0],"id":43,"left_children":[1,3,-1,5,7,-1,9,11,13,-1,-1,-1,-1,-1,-1],"loss_changes":[3.3015453E1,1.7930803E1,0E0,1.1942291E-1,4.4146085E0,0E0,2.0142192E-1,2.864202E0,3.6940677E0,0E0,0E0,0E0,0E0,0E0,0E0],"parents":[2147483647,0,0,1,1,3,3,4,4,6,6,7,7,8,8],"right_children":[2,4,-1,6,8,-1,10,12,14,-1,-1,-1,-1,-1,-1],"split_conditions":[9.5E-1,9.37992E-4,9.7590886E-2,8.802223E-4,2.3941135E-3,-9.6115686E-2,4.5460483E-1,5.60418E-1,7.759634E-1,-5.80739E-4,-5.518041E-2,-4.723694E-2,-3.0307912E-3,7.346441E-3,-3.529895E-2],"split_indices":[2,1,0,1,1,0,3,3,3,0,0,0,0,0,0],"split_type":[0,0,0,0,0,0,0,0,0,0,0,0,0,0,0],"sum_hessian":[3.0251578E2,2.7391684E2,2.8598913E1,2.4958923E1,2.4895793E2,2.2744677E1,2.2142472E0,5.958114E1,1.8937679E2,1.004111E0,1.2101362E0,3.423765E1,2.5343487E1,1.6727243E2,2.2104364E1],"tree_param":{"num_deleted":"0","num_feature":"4","num_nodes":"15","size_leaf_vector":"1"}},{"base_weights":[-2.5973616E-2,-1.2522231E-1,9.717091E-2,-9.1940963E-1,-4.849177E-2,-9.568194E-2,-3.700797E-1,-1.8075238E-1,7.23135E-2,-5.5180694E-4,-5.3797938E-2,-3.3747014E-2,1.52238E-3,9.954736E-2,2.9924267E-3],"categories":[],"categories_nodes":[],"categories_segments":[],"categories_sizes":[],"default_left":[0,0,0,0,0,0,0,0,0,0,0,0,0,0,0],"id":44,"left_children":[1,3,-1,5,7,-1,9,11,13,-1,-1,-1,-1,-1,-1],"loss_changes":[2.9531986E1,1.6471546E1,0E0,1.3546753E-1,3.9788659E0,0E0,1.8982118E-1,3.6529603E0,5.0744157E0,0E0,0E0,0E0,0E0,0E0,0E0],"parents":[2147483647,0,0,1,1,3,3,4,4,6,6,7,7,8,8],"right_children":[2,4,-1,6,8,-1,10,12,14,-1,-1,-1,-1,-1,-1],"split_conditions":[9.5E-1,9.37992E-4,9.717091E-2,8.802223E-4,7.665946E-3,-9.568194E-2,4.5460483E-1,5.969954E-1,3.723057E-1,-5.5180694E-4,-5.3797938E-2,-3.3747014E-2,1.52238E-3,9.954736E-2,2.9924267E-3],"split_indices":[2,1,0,1,1,0,3,3,3,0,0,0,0,0,0],"split_type":[0,0,0,0,0,0,0,0,0,0,0,0,0,0,0],"sum_hessian":[2.9601767E2,2.700298E2,2.5987865E1,2.282288E1,2.4720691E2,2.0673223E1,2.1496565E0,1.17771515E2,1.294354E2,1.0035367E0,1.1461198E0,6.503916E1,5.2732357E1,4.6953416E0,1.2474006E2],"tree_param":{"num_deleted":"0","num_feature":"4","num_nodes":"15","size_leaf_vector":"1"}},{"base_weights":[-2.3802115E-2,-1.150967E-1,9.673058E-2,-9.117345E-1,-4.378956E-2,-9.521654E-2,-3.5762087E-1,-3.356899E-1,8.011982E-3,-5.243184E-4,-5.244639E-2,-1.0745808E-2,-7.713634E-2,5.4509368E-2,-6.1453343E-3],"categories":[],"categories_nodes":[],"categories_segments":[],"categories_sizes":[],"default_left":[0,0,0,0,0,0,0,0,0,0,0,0,0,0,0],"id":45,"left_children":[1,3,-1,5,7,-1,9,11,13,-1,-1,-1,-1,-1,-1],"loss_changes":[2.6409811E1,1.5128714E1,0E0,1.498375E-1,3.7245166E0,0E0,1.7891163E-1,3.6081595E0,7.868955E0,0E0,0E0,0E0,0E0,0E0,0E0],"parents":[2147483647,0,0,1,1,3,3,4,4,6,6,7,7,8,8],"right_children":[2,4,-1,6,8,-1,10,12,14,-1,-1,-1,-1,-1,-1],"split_conditions":[9.5E-1,9.37992E-4,9.673058E-2,8.802223E-4,4.2847812E-1,-9.521654E-2,4.5460483E-1,3.723057E-1,4.5591116E-1,-5.243184E-4,-5.244639E-2,-1.0745808E-2,-7.713634E-2,5.4509368E-2,-6.1453343E-3],"split_indices":[2,1,0,1,3,0,3,3,3,0,0,0,0,0,0],"split_type":[0,0,0,0,0,0,0,0,0,0,0,0,0,0,0],"sum_hessian":[2.8964618E2,2.6602545E2,2.3620712E1,2.0887371E1,2.4513809E2,1.8797457E1,2.0899146E0,3.612038E1,2.0901772E2,1.0029913E0,1.0869231E0,2.4521303E1,1.1599078E1,2.3153778E1,1.8586394E2],"tree_param":{"num_deleted":"0","num_feature":"4","num_nodes":"15","size_leaf_vector":"1"}},{"base_weights":[-2.2146402E-2,-1.05833545E-1,9.626689E-2,-9.035526E-1,-3.986991E-2,-9.471698E-2,-3.4565973E-1,-1.6269991E-1,7.089803E-2,-4.981911E-4,-5.1126946E-2,-3.1289887E-2,1.9823469E-3,9.7051345E-2,3.1335223E-3],"categories":[],"categories_nodes":[],"categories_segments":[],"categories_sizes":[],"default_left":[0,0,0,0,0,0,0,0,0,0,0,0,0,0,0],"id":46,"left_children":[1,3,-1,5,7,-1,9,11,13,-1,-1,-1,-1,-1,-1],"loss_changes":[2.3647755E1,1.3867293E1,0E0,1.6252518E-1,3.3460753E0,0E0,1.686632E-1,3.2005394E0,4.5810413E0,0E0,0E0,0E0,0E0,0E0,0E0],"parents":[2147483647,0,0,1,1,3,3,4,4,6,6,7,7,8,8],"right_children":[2,4,-1,6,8,-1,10,12,14,-1,-1,-1,-1,-1,-1],"split_conditions":[9.5E-1,9.37992E-4,9.626689E-2,8.802223E-4,7.665946E-3,-9.471698E-2,4.5460483E-1,5.969954E-1,3.723057E-1,-4.981911E-4,-5.1126946E-2,-3.1289887E-2,1.9823469E-3,9.7051345E-2,3.1335223E-3],"split_indices":[2,1,0,1,1,0,3,3,3,0,0,0,0,0,0],"split_type":[0,0,0,0,0,0,0,0,0,0,0,0,0,0,0],"sum_hessian":[2.8469406E2,2.632189E2,2.1475151E1,1.9133518E1,2.4408539E2,1.7098927E1,2.0345917E0,1.15518585E2,1.285668E2,1.0024732E0,1.0321183E0,6.2978836E1,5.253975E1,4.424627E0,1.2414218E2],"tree_param":{"num_deleted":"0","num_feature":"4","num_nodes":"15","size_leaf_vector":"1"}},{"base_weights":[-2.0212501E-2,-9.713039E-2,9.577697E-2,-8.948436E-1,-3.5914086E-2,-9.418076E-2,-3.3418592E-2,-3.1130373E-1,1.0826983E-2,-9.311981E-3,-7.36511E-2,5.096016E-2,-5.3722523E-3],"categories":[],"categories_nodes":[],"categories_segments":[],"categories_sizes":[],"default_left":[0,0,0,0,0,0,0,0,0,0,0,0,0],"id":47,"left_children":[1,3,-1,5,7,-1,-1,9,11,-1,-1,-1,-1],"loss_changes":[2.1179333E1,1.2702608E1,0E0,1.7354584E-1,3.1343198E0,0E0,0E0,3.2088442E0,6.753368E0,0E0,0E0,0E0,0E0],"parents":[2147483647,0,0,1,1,3,3,4,4,7,7,8,8],"right_children":[2,4,-1,6,8,-1,-1,10,12,-1,-1,-1,-1],"split_conditions":[9.5E-1,9.37992E-4,9.577697E-2,8.802223E-4,4.2847812E-1,-9.418076E-2,-3.3418592E-2,3.723057E-1,4.5591116E-1,-9.311981E-3,-7.36511E-2,5.096016E-2,-5.3722523E-3],"split_indices":[2,1,0,1,3,0,0,3,3,0,0,0,0],"split_type":[0,0,0,0,0,0,0,0,0,0,0,0,0],"sum_hessian":[2.7931232E2,2.597813E2,1.9531008E1,1.7544193E1,2.4223712E2,1.5560892E1,1.9833007E0,3.4327244E1,2.0790988E2,2.3491959E1,1.0835284E1,2.303368E1,1.8487619E2],"tree_param":{"num_deleted":"0","num_feature":"4","num_nodes":"13","size_leaf_vector":"1"}},{"base_weights":[-1.874731E-2,-8.922482E-2,9.525776E-2,-8.8546157E-1,-3.271093E-2,-9.3605466E-2,-3.1921368E-2,2.268767E-2,-2.5226337E-1,-7.1513117E-3,6.94076E-2,-1.11583605E-1,-1.8653544E-2],"categories":[],"categories_nodes":[],"categories_segments":[],"categories_sizes":[],"default_left":[0,0,0,0,0,0,0,0,0,0,0,0,0],"id":48,"left_children":[1,3,-1,5,7,-1,-1,9,11,-1,-1,-1,-1],"loss_changes":[1.8991314E1,1.1599113E1,0E0,1.9071579E-1,2.9530797E0,0E0,0E0,1.2345559E1,2.5678682E0,0E0,0E0,0E0,0E0],"parents":[2147483647,0,0,1,1,3,3,4,4,7,7,8,8],"right_children":[2,4,-1,6,8,-1,-1,10,12,-1,-1,-1,-1],"split_conditions":[9.5E-1,9.37992E-4,9.525776E-2,8.802223E-4,7.15872E-1,-9.3605466E-2,-3.1921368E-2,6.701502E-1,7.2697586E-1,-7.1513117E-3,6.94076E-2,-1.11583605E-1,-1.8653544E-2],"split_indices":[2,1,0,1,3,0,0,3,3,0,0,0,0],"split_type":[0,0,0,0,0,0,0,0,0,0,0,0,0],"sum_hessian":[2.751798E2,2.574107E2,1.7769096E1,1.6087158E1,2.4132355E2,1.4168178E1,1.9189804E0,1.9341638E2,4.790715E1,1.704013E2,2.3015089E1,2.2583976E0,4.5648754E1],"tree_param":{"num_deleted":"0","num_feature":"4","num_nodes":"13","size_leaf_vector":"1"}},{"base_weights":[-1.7480075E-2,-8.198387E-2,9.4706446E-2,-8.7549245E-1,-2.9893572E-2,-9.298873E-2,-3.0476913E-2,-2.2945696E-1,3.0265937E-2,-4.471363E-3,-4.732242E-2,2.0258177E-2,-7.3667318E-3],"categories":[],"categories_nodes":[],"categories_segments":[],"categories_sizes":[],"default_left":[0,0,0,0,0,0,0,0,0,0,0,0,0],"id":49,"left_children":[1,3,-1,5,7,-1,-1,9,11,-1,-1,-1,-1],"loss_changes":[1.7043478E1,1.0576702E1,0E0,2.0606041E-1,2.909306E0,0E0,0E0,2.5058525E0,3.357469E0,0E0,0E0,0E0,0E0],"parents":[2147483647,0,0,1,1,3,3,4,4,7,7,8,8],"right_children":[2,4,-1,6,8,-1,-1,10,12,-1,-1,-1,-1],"split_conditions":[9.5E-1,9.37992E-4,9.4706446E-2,8.802223E-4,2.3941135E-3,-9.298873E-2,-3.0476913E-2,1.4912718E-3,5.551927E-1,-4.471363E-3,-4.732242E-2,2.0258177E-2,-7.3667318E-3],"split_indices":[2,1,0,1,1,0,0,1,3,0,0,0,0],"split_type":[0,0,0,0,0,0,0,0,0,0,0,0,0],"sum_hessian":[2.7168903E2,2.5551642E2,1.6172625E1,1.4766486E1,2.4074992E2,1.29070215E1,1.859465E0,5.511297E1,1.8563696E2,3.2025383E1,2.3087584E1,6.948514E1,1.16151825E2],"tree_param":{"num_deleted":"0","num_feature":"4","num_nodes":"13","size_leaf_vector":"1"}},{"base_weights":[-1.6259119E-2,-7.5453855E-2,9.412026E-2,-9.232835E-2,-3.0481938E-2,-3.0232856E-1,1.5461275E-2,-9.457362E-3,-7.1589865E-2,4.933196E-2,-4.689821E-3],"categories":[],"categories_nodes":[],"categories_segments":[],"categories_sizes":[],"default_left":[0,0,0,0,0,0,0,0,0,0,0],"id":50,"left_children":[1,3,-1,-1,5,7,9,-1,-1,-1,-1],"loss_changes":[1.5306808E1,9.660051E0,0E0,0E0,3.0312343E0,2.9466088E0,6.228655E0,0E0,0E0,0E0,0E0],"parents":[2147483647,0,0,1,1,4,4,5,5,6,6],"right_children":[2,4,-1,-1,6,8,10,-1,-1,-1,-1],"split_conditions":[9.5E-1,8.802223E-4,9.412026E-2,-9.232835E-2,4.2847812E-1,3.723057E-1,4.5591116E-1,-9.457362E-3,-7.1589865E-2,4.933196E-2,-4.689821E-3],"split_indices":[2,1,0,0,3,3,3,0,0,0,0],"split_type":[0,0,0,0,0,0,0,0,0,0,0],"sum_hessian":[2.6781937E2,2.5309315E2,1.4726202E1,1.1764958E1,2.4132819E2,3.4082294E1,2.072459E2,2.35039E1,1.0578396E1,2.3125463E1,1.8412044E2],"tree_param":{"num_deleted":"0","num_feature":"4","num_nodes":"11","size_leaf_vector":"1"}},{"base_weights":[-1.4982754E-2,-6.921826E-2,9.3496464E-2,-9.162222E-2,-2.7786884E-2,-1.3888638E-1,7.199257E-2,-9.820965E-3,-8.7203555E-2,9.455945E-2,3.5026923E-3],"categories":[],"categories_nodes":[],"categories_segments":[],"categories_sizes":[],"default_left":[0,0,0,0,0,0,0,0,0,0,0],"id":51,"left_children":[1,3,-1,-1,5,7,9,-1,-1,-1,-1],"loss_changes":[1.3750395E1,8.825508E0,0E0,0E0,2.686993E0,3.3320746E0,4.0966625E0,0E0,0E0,0E0,0E0],"parents":[2147483647,0,0,1,1,4,4,5,5,6,6],"right_children":[2,4,-1,-1,6,8,10,-1,-1,-1,-1],"split_conditions":[9.5E-1,8.802223E-4,9.3496464E-2,-9.162222E-2,7.665946E-3,1E0,3.723057E-1,-9.820965E-3,-8.7203555E-2,9.455945E-2,3.5026923E-3],"split_indices":[2,1,0,0,1,0,3,0,0,0,0],"split_type":[0,0,0,0,0,0,0,0,0,0,0],"sum_hessian":[2.6463364E2,2.5121794E2,1.3415695E1,1.0730681E1,2.4048726E2,1.1360347E2,1.2688379E2,1.0870617E2,4.897302E0,4.153137E0,1.2273065E2],"tree_param":{"num_deleted":"0","num_feature":"4","num_nodes":"11","size_leaf_vector":"1"}},{"base_weights":[-1.3618969E-2,-6.343077E-2,9.283244E-2,-9.086848E-2,-2.5163991E-2,-2.8936514E-1,1.8195909E-2,-9.566952E-3,-6.844441E-2,4.4978723E-2,-3.8637524E-3],"categories":[],"categories_nodes":[],"categories_segments":[],"categories_sizes":[],"default_left":[0,0,0,0,0,0,0,0,0,0,0],"id":52,"left_children":[1,3,-1,-1,5,7,9,-1,-1,-1,-1],"loss_changes":[1.2356664E1,8.059324E0,0E0,0E0,2.7555513E0,2.529141E0,5.0991087E0,0E0,0E0,0E0,0E0],"parents":[2147483647,0,0,1,1,4,4,5,5,6,6],"right_children":[2,4,-1,-1,6,8,10,-1,-1,-1,-1],"split_conditions":[9.5E-1,8.802223E-4,9.283244E-2,-9.086848E-2,4.2847812E-1,3.723057E-1,4.5591116E-1,-9.566952E-3,-6.844441E-2,4.4978723E-2,-3.8637524E-3],"split_indices":[2,1,0,0,3,3,3,0,0,0,0],"split_type":[0,0,0,0,0,0,0,0,0,0,0],"sum_hessian":[2.6110162E2,2.4887337E2,1.2228249E1,9.793956E0,2.390794E2,3.2905514E1,2.0617389E2,2.2913734E1,9.991779E0,2.3185999E1,1.829879E2],"tree_param":{"num_deleted":"0","num_feature":"4","num_nodes":"11","size_leaf_vector":"1"}},{"base_weights":[-1.2559516E-2,-5.8215577E-2,9.212603E-2,-9.006553E-2,-2.2965986E-2,-1.2997161E-1,8.426524E-2,1.2632702E-3,-7.676852E-2,4.6689082E-2,-7.790317E-3],"categories":[],"categories_nodes":[],"categories_segments":[],"categories_sizes":[],"default_left":[0,0,0,0,0,0,0,0,0,0,0],"id":53,"left_children":[1,3,-1,-1,5,7,9,-1,-1,-1,-1],"loss_changes":[1.1114736E1,7.352372E0,0E0,0E0,2.757243E0,1.0939886E1,7.491751E0,0E0,0E0,0E0,0E0],"parents":[2147483647,0,0,1,1,4,4,5,5,6,6],"right_children":[2,4,-1,-1,6,8,10,-1,-1,-1,-1],"split_conditions":[9.5E-1,8.802223E-4,9.212603E-2,-9.006553E-2,5.937296E-1,5.551927E-1,6.5186155E-1,1.2632702E-3,-7.676852E-2,4.6689082E-2,-7.790317E-3],"split_indices":[2,1,0,0,3,3,3,0,0,0,0],"split_type":[0,0,0,0,0,0,0,0,0,0,0],"sum_hessian":[2.5844E2,2.4728737E2,1.1152647E1,8.945503E0,2.3834186E2,1.1919028E2,1.1915159E2,9.820912E1,2.098115E1,3.490843E1,8.4243164E1],"tree_param":{"num_deleted":"0","num_feature":"4","num_nodes":"11","size_leaf_vector":"1"}},{"base_weights":[-1.1664778E-2,-5.347514E-2,9.137462E-2,-7.220656E-1,-1.261298E-2,-8.921202E-2,-3.4407517E-1,-1.1674146E-1,8.23666E-2,-6.2161717E-3,-6.481251E-2,2.122122E-3,-9.089678E-2,2.5343293E-2,-1.9863162E-2],"categories":[],"categories_nodes":[],"categories_segments":[],"categories_sizes":[],"default_left":[0,0,0,0,0,0,0,0,0,0,0,0,0,0,0],"id":54,"left_children":[1,3,-1,5,7,-1,9,11,13,-1,-1,-1,-1,-1,-1],"loss_changes":[1.000436E1,6.742359E0,0E0,6.0682106E-1,2.3229952E0,0E0,4.7733957E-1,1.2259999E1,5.9587765E0,0E0,0E0,0E0,0E0,0E0,0E0],"parents":[2147483647,0,0,1,1,3,3,4,4,6,6,7,7,8,8],"right_children":[2,4,-1,6,8,-1,10,12,14,-1,-1,-1,-1,-1,-1],"split_conditions":[9.5E-1,1.0153103E-3,9.137462E-2,8.802223E-4,5.898106E-1,-8.921202E-2,9.692451E-4,5.551927E-1,7.15872E-1,-6.2161717E-3,-6.481251E-2,2.122122E-3,-9.089678E-2,2.5343293E-2,-1.9863162E-2],"split_indices":[2,1,0,1,3,0,1,3,3,0,0,0,0,0,0],"split_type":[0,0,0,0,0,0,0,0,0,0,0,0,0,0,0],"sum_hessian":[2.563027E2,2.4612492E2,1.0177789E1,1.3215813E1,2.3290912E2,8.176922E0,5.0388913E0,1.1099424E2,1.2191488E2,3.2395988E0,1.7992926E0,9.5360794E1,1.5633445E1,7.584188E1,4.607299E1],"tree_param":{"num_deleted":"0","num_feature":"4","num_nodes":"15","size_leaf_vector":"1"}},{"base_weights":[-1.1344396E-2,-4.970729E-2,9.057675E-2,-8.830701E-2,-1.9845126E-2,-2.0865947E-1,3.785294E-2,-1.3906359E-2,-8.272632E-2,6.6146986E-3,-4.9372073E-2],"categories":[],"categories_nodes":[],"categories_segments":[],"categories_sizes":[],"default_left":[0,0,0,0,0,0,0,0,0,0,0],"id":55,"left_children":[1,3,-1,-1,5,7,9,-1,-1,-1,-1],"loss_changes":[9.020493E0,6.0997787E0,0E0,0E0,2.604343E0,2.2931738E0,2.7909913E0,0E0,0E0,0E0,0E0],"parents":[2147483647,0,0,1,1,4,4,5,5,6,6],"right_children":[2,4,-1,-1,6,8,10,-1,-1,-1,-1],"split_conditions":[9.5E-1,8.802223E-4,9.057675E-2,-8.830701E-2,2.3941135E-3,2.118184E-3,8.981058E-1,-1.3906359E-2,-8.272632E-2,6.6146986E-3,-4.9372073E-2],"split_indices":[2,1,0,0,1,1,3,0,0,0,0],"split_type":[0,0,0,0,0,0,0,0,0,0,0],"sum_hessian":[2.5410764E2,2.448129E2,9.29475E0,7.4805937E0,2.3733229E2,5.4937004E1,1.823953E2,5.0482304E1,4.454698E0,1.740089E2,8.386399E0],"tree_param":{"num_deleted":"0","num_feature":"4","num_nodes":"11","size_leaf_vector":"1"}},{"base_weights":[-1.0921836E-2,-4.619894E-2,8.973094E-2,-8.734987E-2,-1.863731E-2,-2.7164176E-1,2.0858185E-2,-8.296731E-3,-7.102259E-2,3.8543466E-2,-2.9650803E-3],"categories":[],"categories_nodes":[],"categories_segments":[],"categories_sizes":[],"default_left":[0,0,0,0,0,0,0,0,0,0,0],"id":56,"left_children":[1,3,-1,-1,5,7,9,-1,-1,-1,-1],"loss_changes":[8.135916E0,5.5506024E0,0E0,0E0,2.3768282E0,2.598364E0,3.8081248E0,0E0,0E0,0E0,0E0],"parents":[2147483647,0,0,1,1,4,4,5,5,6,6],"right_children":[2,4,-1,-1,6,8,10,-1,-1,-1,-1],"split_conditions":[9.5E-1,8.802223E-4,8.973094E-2,-8.734987E-2,4.2586544E-1,3.723057E-1,4.5591116E-1,-8.296731E-3,-7.102259E-2,3.8543466E-2,-2.9650803E-3],"split_indices":[2,1,0,0,3,3,3,0,0,0,0],"split_type":[0,0,0,0,0,0,0,0,0,0,0],"sum_hessian":[2.5163791E2,2.4314299E2,8.494916E0,6.8496256E0,2.3629337E2,3.1112408E1,2.0518095E2,2.2585518E1,8.52689E0,2.4160221E1,1.8102074E2],"tree_param":{"num_deleted":"0","num_feature":"4","num_nodes":"11","size_leaf_vector":"1"}},{"base_weights":[-1.0121304E-2,-4.2506047E-2,8.883478E-2,-8.634045E-2,-1.7087096E-2,-1.9198312E-1,3.5425242E-2,-1.25525E-2,-8.1392474E-2,9.1136815E-3,-2.0902364E-2],"categories":[],"categories_nodes":[],"categories_segments":[],"categories_sizes":[],"default_left":[0,0,0,0,0,0,0,0,0,0,0],"id":57,"left_children":[1,3,-1,-1,5,7,9,-1,-1,-1,-1],"loss_changes":[7.33385E0,5.055438E0,0E0,0E0,2.1807566E0,2.1635087E0,2.5097735E0,0E0,0E0,0E0,0E0],"parents":[2147483647,0,0,1,1,4,4,5,5,6,6],"right_children":[2,4,-1,-1,6,8,10,-1,-1,-1,-1],"split_conditions":[9.5E-1,8.802223E-4,8.883478E-2,-8.634045E-2,2.3941135E-3,2.118184E-3,4.6149343E-2,-1.25525E-2,-8.1392474E-2,9.1136815E-3,-2.0902364E-2],"split_indices":[2,1,0,0,1,1,1,0,0,0,0],"split_type":[0,0,0,0,0,0,0,0,0,0,0],"sum_hessian":[2.4975325E2,2.419838E2,7.7694607E0,6.2777724E0,2.3570602E2,5.3815098E1,1.8189091E2,4.9705593E1,4.1095076E0,1.4864165E2,3.324927E1],"tree_param":{"num_deleted":"0","num_feature":"4","num_nodes":"11","size_leaf_vector":"1"}},{"base_weights":[-9.633607E-3,-3.9391268E-2,8.788877E-2,-8.527906E-2,-1.5941674E-2,-1.2561317E-1,6.033639E-2,-2.3105873E-2,6.103676E-3,1.39695825E-2,-1.8883348E-2],"categories":[],"categories_nodes":[],"categories_segments":[],"categories_sizes":[],"default_left":[0,0,0,0,0,0,0,0,0,0,0],"id":58,"left_children":[1,3,-1,-1,5,7,9,-1,-1,-1,-1],"loss_changes":[6.618662E0,4.6004305E0,0E0,0E0,1.9830432E0,1.9269876E0,2.7937655E0,0E0,0E0,0E0,0E0],"parents":[2147483647,0,0,1,1,4,4,5,5,6,6],"right_children":[2,4,-1,-1,6,8,10,-1,-1,-1,-1],"split_conditions":[9.5E-1,8.802223E-4,8.788877E-2,-8.527906E-2,5.494717E-3,6.120183E-1,4.6149343E-2,-2.3105873E-2,6.103676E-3,1.39695825E-2,-1.8883348E-2],"split_indices":[2,1,0,0,1,3,1,0,0,0,0],"split_type":[0,0,0,0,0,0,0,0,0,0,0],"sum_hessian":[2.4801524E2,2.4090277E2,7.112461E0,5.7593803E0,2.351434E2,9.6192474E1,1.3895093E2,6.1315258E1,3.4877216E1,1.0571921E2,3.3231712E1],"tree_param":{"num_deleted":"0","num_feature":"4","num_nodes":"11","size_leaf_vector":"1"}},{"base_weights":[-8.860712E-3,-3.626442E-2,8.689125E-2,-8.4166504E-2,-1.4569173E-2,-2.4332741E-1,1.875446E-2,-5.43059E-3,-7.514734E-2,3.4731302E-2,-2.830411E-3],"categories":[],"categories_nodes":[],"categories_segments":[],"categories_sizes":[],"default_left":[0,0,0,0,0,0,0,0,0,0,0],"id":59,"left_children":[1,3,-1,-1,5,7,9,-1,-1,-1,-1],"loss_changes":[5.9719105E0,4.1890683E0,0E0,0E0,1.797145E0,2.8379345E0,3.1977046E0,0E0,0E0,0E0,0E0],"parents":[2147483647,0,0,1,1,4,4,5,5,6,6],"right_children":[2,4,-1,-1,6,8,10,-1,-1,-1,-1],"split_conditions":[9.5E-1,8.802223E-4,8.689125E-2,-8.4166504E-2,4.1998693E-1,3.723057E-1,4.5591116E-1,-5.43059E-3,-7.514734E-2,3.4731302E-2,-2.830411E-3],"split_indices":[2,1,0,0,3,3,3,0,0,0,0],"split_type":[0,0,0,0,0,0,0,0,0,0,0],"sum_hessian":[2.4595856E2,2.3944196E2,6.5165906E0,5.2893295E0,2.3415263E2,2.8971148E1,2.0518149E2,2.192303E1,7.048117E0,2.490646E1,1.8027502E2],"tree_param":{"num_deleted":"0","num_feature":"4","num_nodes":"11","size_leaf_vector":"1"}},{"base_weights":[-8.261484E-3,-3.3469122E-2,8.584347E-2,-6.2378967E-1,-6.2910262E-3,-8.300409E-2,-3.0051047E-1,-1.0138823E-1,7.848044E-2,-1.9141323E-3,-6.2212873E-2,2.8088163E-3,-8.6597756E-2,3.7186097E-2,-6.477633E-3],"categories":[],"categories_nodes":[],"categories_segments":[],"categories_sizes":[],"default_left":[0,0,0,0,0,0,0,0,0,0,0,0,0,0,0],"id":60,"left_children":[1,3,-1,5,7,-1,9,11,13,-1,-1,-1,-1,-1,-1],"loss_changes":[5.3928165E0,3.8393455E0,0E0,4.5287848E-1,1.8622351E0,0E0,5.01202E-1,1.0799264E1,5.158899E0,0E0,0E0,0E0,0E0,0E0,0E0],"parents":[2147483647,0,0,1,1,3,3,4,4,6,6,7,7,8,8],"right_children":[2,4,-1,6,8,-1,10,12,14,-1,-1,-1,-1,-1,-1],"split_conditions":[9.5E-1,1.0153103E-3,8.584347E-2,8.802223E-4,5.898106E-1,-8.300409E-2,9.692451E-4,5.551927E-1,6.5186155E-1,-1.9141323E-3,-6.2212873E-2,2.8088163E-3,-8.6597756E-2,3.7186097E-2,-6.477633E-3],"split_indices":[2,1,0,1,3,0,1,3,3,0,0,0,0,0,0],"split_type":[0,0,0,0,0,0,0,0,0,0,0,0,0,0,0],"sum_hessian":[2.4452553E2,2.3854878E2,5.976747E0,9.533122E0,2.2901567E2,4.862985E0,4.6701374E0,1.0784189E2,1.21173775E2,3.0560524E0,1.6140851E0,9.3048256E1,1.4793631E1,3.923247E1,8.194131E1],"tree_param":{"num_deleted":"0","num_feature":"4","num_nodes":"15","size_leaf_vector":"1"}},{"base_weights":[-8.100415E-3,-3.1312216E-2,8.474381E-2,-7.2041446E-1,-1.01175085E-2,-8.179365E-2,-2.4401896E-2,-4.811499E-1,5.478744E-3,4.3106806E-2,-8.430552E-2,7.437232E-2,-1.0706199E-3],"categories":[],"categories_nodes":[],"categories_segments":[],"categories_sizes":[],"default_left":[0,0,0,0,0,0,0,0,0,0,0,0,0],"id":61,"left_children":[1,3,-1,5,7,-1,-1,9,11,-1,-1,-1,-1],"loss_changes":[4.876408E0,3.4794943E0,0E0,1.3070369E-1,1.711574E0,0E0,0E0,2.828469E0,2.7101939E0,0E0,0E0,0E0,0E0],"parents":[2147483647,0,0,1,1,3,3,4,4,7,7,8,8],"right_children":[2,4,-1,6,8,-1,-1,10,12,-1,-1,-1,-1],"split_conditions":[9.5E-1,9.37992E-4,8.474381E-2,8.802223E-4,3.3180928E-1,-8.179365E-2,-2.4401896E-2,1.2950265E-3,3.4879163E-1,4.3106806E-2,-8.430552E-2,7.437232E-2,-1.0706199E-3],"split_indices":[2,1,0,1,3,0,0,1,3,0,0,0,0],"split_type":[0,0,0,0,0,0,0,0,0,0,0,0,0],"sum_hessian":[2.4322038E2,2.3773378E2,5.486606E0,6.1093864E0,2.3162439E2,4.4761534E0,1.6332327E0,6.4667764E0,2.2515761E2,1.7825572E0,4.6842194E0,3.8660011E0,2.2129161E2],"tree_param":{"num_deleted":"0","num_feature":"4","num_nodes":"13","size_leaf_vector":"1"}},{"base_weights":[-7.352012E-3,-2.872275E-2,8.359601E-2,-5.8987606E-1,-4.9492824E-3,-8.053752E-2,-2.842545E-1,1.2924515E-2,-4.021142E-1,-9.5735706E-4,-6.0850628E-2,-8.9816665E-3,1.1872002E-2,-8.055078E-2,4.825269E-2],"categories":[],"categories_nodes":[],"categories_segments":[],"categories_sizes":[],"default_left":[0,0,0,0,0,0,0,0,0,0,0,0,0,0,0],"id":62,"left_children":[1,3,-1,5,7,-1,9,11,13,-1,-1,-1,-1,-1,-1],"loss_changes":[4.4060316E0,3.1735086E0,0E0,4.0787244E-1,1.633915E0,0E0,4.8794088E-1,2.4076436E0,3.9257927E0,0E0,0E0,0E0,0E0,0E0,0E0],"parents":[2147483647,0,0,1,1,3,3,4,4,6,6,7,7,8,8],"right_children":[2,4,-1,6,8,-1,10,12,14,-1,-1,-1,-1,-1,-1],"split_conditions":[9.5E-1,1.0153103E-3,8.359601E-2,8.802223E-4,8.981058E-1,-8.053752E-2,9.692451E-4,5.937296E-1,1.2512996E-2,-9.5735706E-4,-6.0850628E-2,-8.9816665E-3,1.1872002E-2,-8.055078E-2,4.825269E-2],"split_indices":[2,1,0,1,3,0,1,3,1,0,0,0,0,0,0],"split_type":[0,0,0,0,0,0,0,0,0,0,0,0,0,0,0],"sum_hessian":[2.4214568E2,2.3710307E2,5.0425906E0,8.6688795E0,2.284342E2,4.125038E0,4.543841E0,2.1952238E2,8.91181E0,3.0173237E0,1.5265173E0,1.11445435E2,1.0807696E2,6.182199E0,2.7296104E0],"tree_param":{"num_deleted":"0","num_feature":"4","num_nodes":"15","size_leaf_vector":"1"}},{"base_weights":[-7.0961635E-3,-2.6809864E-2,8.239925E-2,-6.891747E-1,-8.423916E-3,-7.923858E-2,-2.3204982E-2,3.3734933E-2,-1.7776397E-1,-5.326445E-3,6.2152006E-2,-1.0567248E-1,-1.1214684E-2],"categories":[],"categories_nodes":[],"categories_segments":[],"categories_sizes":[],"default_left":[0,0,0,0,0,0,0,0,0,0,0,0,0],"id":63,"left_children":[1,3,-1,5,7,-1,-1,9,11,-1,-1,-1,-1],"loss_changes":[3.9873757E0,2.8851163E0,0E0,1.18033886E-1,1.6621863E0,0E0,0E0,9.574428E0,2.5577278E0,0E0,0E0,0E0,0E0],"parents":[2147483647,0,0,1,1,3,3,4,4,7,7,8,8],"right_children":[2,4,-1,6,8,-1,-1,10,12,-1,-1,-1,-1],"split_conditions":[9.5E-1,9.37992E-4,8.239925E-2,8.802223E-4,7.15872E-1,-7.923858E-2,-2.3204982E-2,6.701502E-1,7.2697586E-1,-5.326445E-3,6.2152006E-2,-1.0567248E-1,-1.1214684E-2],"split_indices":[2,1,0,1,3,0,0,3,3,0,0,0,0],"split_type":[0,0,0,0,0,0,0,0,0,0,0,0,0],"sum_hessian":[2.4102425E2,2.3638486E2,4.6393867E0,5.3989964E0,2.3098587E2,3.8062074E0,1.5927888E0,1.8558377E2,4.5402092E1,1.6244875E2,2.3135021E1,2.1046944E0,4.3297398E1],"tree_param":{"num_deleted":"0","num_feature":"4","num_nodes":"13","size_leaf_vector":"1"}},{"base_weights":[-6.802403E-3,-2.500352E-2,8.115696E-2,-2.1346572E-1,3.368228E-2,-2.4785411E-1,6.688708E-2,1.8197267E-1,-5.5060357E-2,-1.8412977E-2,-8.180958E-2,3.6682233E-3,1.3547666E-1,-9.44524E-2,6.752372E-3],"categories":[],"categories_nodes":[],"categories_segments":[],"categories_sizes":[],"default_left":[0,0,0,0,0,0,0,0,0,0,0,0,0,0,0],"id":64,"left_children":[1,3,-1,5,7,9,-1,11,13,-1,-1,-1,-1,-1,-1],"loss_changes":[3.6102667E0,2.6255534E0,0E0,1.875587E0,2.3970501E0,1.8467557E0,0E0,1.1561525E1,1.25206E1,0E0,0E0,0E0,0E0,0E0,0E0],"parents":[2147483647,0,0,1,1,3,3,4,4,5,5,7,7,8,8],"right_children":[2,4,-1,6,8,10,-1,12,14,-1,-1,-1,-1,-1,-1],"split_conditions":[9.5E-1,2.3941135E-3,8.115696E-2,8.504246E-1,5.551927E-1,2.0854406E-3,6.688708E-2,5.303723E-1,5.898106E-1,-1.8412977E-2,-8.180958E-2,3.6682233E-3,1.3547666E-1,-9.44524E-2,6.752372E-3],"split_indices":[2,1,0,3,3,1,0,3,3,0,0,0,0,0,0],"split_type":[0,0,0,0,0,0,0,0,0,0,0,0,0,0,0],"sum_hessian":[2.4001413E2,2.3574055E2,4.273573E0,5.5350815E1,1.8038974E2,5.39666E1,1.3842145E0,6.714267E1,1.1324707E2,4.9731964E1,4.2346344E0,6.0659237E1,6.483433E0,1.2904873E1,1.0034219E2],"tree_param":{"num_deleted":"0","num_feature":"4","num_nodes":"15","size_leaf_vector":"1"}},{"base_weights":[-5.943352E-3,-2.2823274E-2,7.98704E-2,-7.7587895E-2,-8.251162E-3,3.2381684E-2,-1.7156038E-1,-4.5488793E-3,5.500188E-2,-1.01631E-1,-1.0987866E-2],"categories":[],"categories_nodes":[],"categories_segments":[],"categories_sizes":[],"default_left":[0,0,0,0,0,0,0,0,0,0,0],"id":65,"left_children":[1,3,-1,-1,5,7,9,-1,-1,-1,-1],"loss_changes":[3.2661953E0,2.574477E0,0E0,0E0,1.543288E0,7.5388145E0,2.3023372E0,0E0,0E0,0E0,0E0],"parents":[2147483647,0,0,1,1,4,4,5,5,6,6],"right_children":[2,4,-1,-1,6,8,10,-1,-1,-1,-1],"split_conditions":[9.5E-1,8.802223E-4,7.98704E-2,-7.7587895E-2,7.15872E-1,6.701502E-1,7.2697586E-1,-4.5488793E-3,5.500188E-2,-1.01631E-1,-1.0987866E-2],"split_indices":[2,1,0,0,3,3,3,0,0,0,0],"split_type":[0,0,0,0,0,0,0,0,0,0,0],"sum_hessian":[2.3813078E2,2.3418958E2,3.9412017E0,3.4539263E0,2.3073566E2,1.8540651E2,4.532914E1,1.6195502E2,2.3451498E1,2.0314298E0,4.329771E1],"tree_param":{"num_deleted":"0","num_feature":"4","num_nodes":"11","size_leaf_vector":"1"}},{"base_weights":[-5.669035E-3,-2.1288916E-2,7.854452E-2,-7.6205954E-2,-7.7647734E-3,-5.767877E-1,3.6561626E-3,-1.549068E-3,-7.343706E-2,4.432441E-3,-1.5801815E-2],"categories":[],"categories_nodes":[],"categories_segments":[],"categories_sizes":[],"default_left":[0,0,0,0,0,0,0,0,0,0,0],"id":66,"left_children":[1,3,-1,-1,5,7,9,-1,-1,-1,-1],"loss_changes":[2.9609146E0,2.3445685E0,0E0,0E0,1.506076E0,3.919449E-1,1.5052086E0,0E0,0E0,0E0,0E0],"parents":[2147483647,0,0,1,1,4,4,5,5,6,6],"right_children":[2,4,-1,-1,6,8,10,-1,-1,-1,-1],"split_conditions":[9.5E-1,8.802223E-4,7.854452E-2,-7.6205954E-2,2.6714566E-1,1.2442574E-3,7.15872E-1,-1.549068E-3,-7.343706E-2,4.432441E-3,-1.5801815E-2],"split_indices":[2,1,0,0,3,1,3,0,0,0,0],"split_type":[0,0,0,0,0,0,0,0,0,0,0],"sum_hessian":[2.3725905E2,2.3361952E2,3.63953E0,3.1963212E0,2.304232E2,3.5598307E0,2.2686337E2,1.0210911E0,2.5387394E0,1.8184671E2,4.501666E1],"tree_param":{"num_deleted":"0","num_feature":"4","num_nodes":"11","size_leaf_vector":"1"}},{"base_weights":[-5.505465E-3,-1.9972792E-2,7.718053E-2,-5.2211225E-1,-1.4999191E-3,-7.479329E-2,-2.5696582E-1,5.4509634E-1,-1.5697885E-2,1.3439389E-3,-5.900789E-2,5.6466158E-3,9.719991E-2,-2.1381823E-2,3.1102689E-3],"categories":[],"categories_nodes":[],"categories_segments":[],"categories_sizes":[],"default_left":[0,0,0,0,0,0,0,0,0,0,0,0,0,0,0],"id":67,"left_children":[1,3,-1,5,7,-1,9,11,13,-1,-1,-1,-1,-1,-1],"loss_changes":[2.6864352E0,2.1711974E0,0E0,3.0510378E-1,1.7690084E0,0E0,4.8924994E-1,1.1489717E0,2.0657609E0,0E0,0E0,0E0,0E0,0E0,0E0],"parents":[2147483647,0,0,1,1,3,3,4,4,6,6,7,7,8,8],"right_children":[2,4,-1,6,8,-1,10,12,14,-1,-1,-1,-1,-1,-1],"split_conditions":[9.5E-1,1.0153103E-3,7.718053E-2,8.802223E-4,1.0701079E-3,-7.479329E-2,9.692451E-4,5.969954E-1,2.3941135E-3,1.3439389E-3,-5.900789E-2,5.6466158E-3,9.719991E-2,-2.1381823E-2,3.1102689E-3],"split_indices":[2,1,0,1,1,0,1,3,1,0,0,0,0,0,0],"split_type":[0,0,0,0,0,0,0,0,0,0,0,0,0,0,0],"sum_hessian":[2.3651671E2,2.331516E2,3.3651183E0,7.3055134E0,2.2584608E2,2.9620004E0,4.343513E0,4.7711916E0,2.2107489E2,2.9270937E0,1.4164194E0,2.7527177E0,2.0184739E0,4.1562046E1,1.7951285E2],"tree_param":{"num_deleted":"0","num_feature":"4","num_nodes":"15","size_leaf_vector":"1"}},{"base_weights":[-4.9356585E-3,-1.8368721E-2,7.578428E-2,-6.2282205E-1,-4.3610684E-3,-7.335432E-2,-2.1245688E-2,-5.476668E-1,5.970571E-3,-1.4834271E-3,-7.095208E-2,2.2074233E-3,-3.6538307E-2],"categories":[],"categories_nodes":[],"categories_segments":[],"categories_sizes":[],"default_left":[0,0,0,0,0,0,0,0,0,0,0,0,0],"id":68,"left_children":[1,3,-1,5,7,-1,-1,9,11,-1,-1,-1,-1],"loss_changes":[2.4367418E0,1.9729583E0,0E0,8.396053E-2,1.2890446E0,0E0,0E0,3.590505E-1,1.3582388E0,0E0,0E0,0E0,0E0],"parents":[2147483647,0,0,1,1,3,3,4,4,7,7,8,8],"right_children":[2,4,-1,6,8,-1,-1,10,12,-1,-1,-1,-1],"split_conditions":[9.5E-1,9.37992E-4,7.578428E-2,8.802223E-4,2.6714566E-1,-7.335432E-2,-2.1245688E-2,1.2950265E-3,8.981058E-1,-1.4834271E-3,-7.095208E-2,2.2074233E-3,-3.6538307E-2],"split_indices":[2,1,0,1,3,0,0,1,3,0,0,0,0],"split_type":[0,0,0,0,0,0,0,0,0,0,0,0,0],"sum_hessian":[2.3545473E2,2.3233899E2,3.1157334E0,4.277892E0,2.280611E2,2.7487195E0,1.5291725E0,3.2853813E0,2.2477571E2,1.0197985E0,2.2655828E0,2.1633496E2,8.440756E0],"tree_param":{"num_deleted":"0","num_feature":"4","num_nodes":"13","size_leaf_vector":"1"}},{"base_weights":[-5.0208773E-3,-1.7497394E-2,7.435903E-2,-4.9059188E-1,-1.112886E-3,-7.189369E-2,-2.4208678E-1,4.869897E-1,-1.4327682E-2,1.4591995E-2,-4.5439046E-2,9.692232E-3,9.9630855E-2,-1.968503E-2,2.7918748E-3],"categories":[],"categories_nodes":[],"categories_segments":[],"categories_sizes":[],"default_left":[0,0,0,0,0,0,0,0,0,0,0,0,0,0,0],"id":69,"left_children":[1,3,-1,5,7,-1,9,11,13,-1,-1,-1,-1,-1,-1],"loss_changes":[2.215587E0,1.805004E0,0E0,2.6826608E-1,1.4655995E0,0E0,4.979733E-1,1.0933764E0,1.7107462E0,0E0,0E0,0E0,0E0,0E0,0E0],"parents":[2147483647,0,0,1,1,3,3,4,4,6,6,7,7,8,8],"right_children":[2,4,-1,6,8,-1,10,12,14,-1,-1,-1,-1,-1,-1],"split_conditions":[9.5E-1,1.0153103E-3,7.435903E-2,8.802223E-4,1.0701079E-3,-7.189369E-2,4.4872633E-1,1.0543026E-3,2.3941135E-3,1.4591995E-2,-4.5439046E-2,9.692232E-3,9.9630855E-2,-1.968503E-2,2.7918748E-3],"split_indices":[2,1,0,1,1,0,3,1,1,0,0,0,0,0,0],"split_type":[0,0,0,0,0,0,0,0,0,0,0,0,0,0,0],"sum_hessian":[2.348203E2,2.319315E2,2.888794E0,6.7947273E0,2.2513678E2,2.5544555E0,4.2402716E0,4.9895763E0,2.201472E2,1.6101819E0,2.63009E0,3.499638E0,1.4899384E0,4.0689896E1,1.794573E2],"tree_param":{"num_deleted":"0","num_feature":"4","num_nodes":"15","size_leaf_vector":"1"}},{"base_weights":[-4.33477E-3,-1.5948601E-2,7.291117E-2,-5.894093E-1,-3.696682E-3,-7.0416205E-2,-1.9436501E-2,2.6258167E-2,-1.7655957E-1,5.389995E-3,-6.397266E-2,-3.7446037E-2,3.16288E-2],"categories":[],"categories_nodes":[],"categories_segments":[],"categories_sizes":[],"default_left":[0,0,0,0,0,0,0,0,0,0,0,0,0],"id":70,"left_children":[1,3,-1,5,7,-1,-1,9,11,-1,-1,-1,-1],"loss_changes":[2.012226E0,1.6291255E0,0E0,8.301818E-2,1.1869518E0,0E0,0E0,3.633044E0,3.4202316E0,0E0,0E0,0E0,0E0],"parents":[2147483647,0,0,1,1,3,3,4,4,7,7,8,8],"right_children":[2,4,-1,6,8,-1,-1,10,12,-1,-1,-1,-1],"split_conditions":[9.5E-1,9.37992E-4,7.291117E-2,8.802223E-4,4.6149343E-2,-7.0416205E-2,-1.9436501E-2,8.981058E-1,8.559249E-2,5.389995E-3,-6.397266E-2,-3.7446037E-2,3.16288E-2],"split_indices":[2,1,0,1,1,0,0,3,1,0,0,0,0],"split_type":[0,0,0,0,0,0,0,0,0,0,0,0,0],"sum_hessian":[2.338637E2,2.3118129E2,2.6824076E0,3.85045E0,2.2733084E2,2.377378E0,1.473072E0,1.9447841E2,3.2852432E1,1.8761067E2,6.8677373E0,2.3611534E1,9.240898E0],"tree_param":{"num_deleted":"0","num_feature":"4","num_nodes":"13","size_leaf_vector":"1"}},{"base_weights":[-4.303203E-3,-1.5105499E-2,7.14393E-2,-4.5948377E-1,-5.686355E-4,-6.892669E-2,-2.26032E-1,4.3640608E-1,-1.284184E-2,4.2232974E-3,-5.7125527E-2,2.022479E-3,7.925064E-2,-5.133402E-2,1.1237257E-4],"categories":[],"categories_nodes":[],"categories_segments":[],"categories_sizes":[],"default_left":[0,0,0,0,0,0,0,0,0,0,0,0,0,0,0],"id":71,"left_children":[1,3,-1,5,7,-1,9,11,13,-1,-1,-1,-1,-1,-1],"loss_changes":[1.8316991E0,1.4987596E0,0E0,2.3844719E-1,1.2160623E0,0E0,4.9954766E-1,9.0203166E-1,1.5418665E0,0E0,0E0,0E0,0E0,0E0,0E0],"parents":[2147483647,0,0,1,1,3,3,4,4,6,6,7,7,8,8],"right_children":[2,4,-1,6,8,-1,10,12,14,-1,-1,-1,-1,-1,-1],"split_conditions":[9.5E-1,1.0153103E-3,7.14393E-2,8.802223E-4,1.0701079E-3,-6.892669E-2,9.692451E-4,5.969954E-1,3.3180928E-1,4.2232974E-3,-5.7125527E-2,2.022479E-3,7.925064E-2,-5.133402E-2,1.1237257E-4],"split_indices":[2,1,0,1,1,0,1,3,3,0,0,0,0,0,0],"split_type":[0,0,0,0,0,0,0,0,0,0,0,0,0,0,0],"sum_hessian":[2.3354521E2,2.3105139E2,2.4938142E0,6.349356E0,2.2470204E2,2.2158375E0,4.1335187E0,5.19464E0,2.195074E2,2.8199027E0,1.3136163E0,2.8825474E0,2.3120928E0,4.9880476E0,2.1451935E2],"tree_param":{"num_deleted":"0","num_feature":"4","num_nodes":"15","size_leaf_vector":"1"}},{"base_weights":[-4.0273042E-3,-1.4094529E-2,6.995654E-2,-9.6678816E-2,5.8241654E-2,-5.4396544E-2,-8.6133146E-1,9.181909E-2,2.3091424E-2,-1.7107759E-2,7.647638E-3,-9.459905E-3,-1.0341161E-1,-1.017524E-1,7.795237E-3],"categories":[],"categories_nodes":[],"categories_segments":[],"categories_sizes":[],"default_left":[0,0,0,0,0,0,0,0,0,0,0,0,0,0,0],"id":72,"left_children":[1,3,-1,5,7,9,11,-1,13,-1,-1,-1,-1,-1,-1],"loss_changes":[1.6681706E0,1.3903389E0,0E0,3.464548E0,3.732698E0,1.6009532E0,6.471653E-1,0E0,6.949287E0,0E0,0E0,0E0,0E0,0E0,0E0],"parents":[2147483647,0,0,1,1,3,3,4,4,5,5,6,6,8,8],"right_children":[2,4,-1,6,8,10,12,-1,14,-1,-1,-1,-1,-1,-1],"split_conditions":[9.5E-1,7.665946E-3,6.995654E-2,1E0,3.723057E-1,5.969954E-1,4.48086E-3,9.181909E-2,4.2847812E-1,-1.7107759E-2,7.647638E-3,-9.459905E-3,-1.0341161E-1,-1.017524E-1,7.795237E-3],"split_indices":[2,1,0,0,3,3,1,0,3,0,0,0,0,0,0],"split_type":[0,0,0,0,0,0,0,0,0,0,0,0,0,0,0],"sum_hessian":[2.3311797E2,2.3079564E2,2.3223286E0,1.0760704E2,1.231886E2,1.0298359E2,4.6234474E0,3.8510435E0,1.19337555E2,5.4281334E1,4.870226E1,1.1348857E0,3.4885619E0,5.097607E0,1.14239944E2],"tree_param":{"num_deleted":"0","num_feature":"4","num_nodes":"15","size_leaf_vector":"1"}},{"base_weights":[-3.9584935E-3,-1.33972475E-2,6.846077E-2,-5.557711E-1,-2.6246042E-3,-6.7209624E-2,-1.8219208E-2,2.5747202E-2,-1.6648403E-1,5.1430673E-3,-6.1369803E-2,-3.462018E-2,2.8015122E-2],"categories":[],"categories_nodes":[],"categories_segments":[],"categories_sizes":[],"default_left":[0,0,0,0,0,0,0,0,0,0,0,0,0],"id":73,"left_children":[1,3,-1,5,7,-1,-1,9,11,-1,-1,-1,-1],"loss_changes":[1.5213742E0,1.3453616E0,0E0,7.242918E-2,1.0597224E0,0E0,0E0,3.2239628E0,2.7972953E0,0E0,0E0,0E0,0E0],"parents":[2147483647,0,0,1,1,3,3,4,4,7,7,8,8],"right_children":[2,4,-1,6,8,-1,-1,10,12,-1,-1,-1,-1],"split_conditions":[9.5E-1,9.37992E-4,6.846077E-2,8.802223E-4,4.6149343E-2,-6.7209624E-2,-1.8219208E-2,8.981058E-1,8.559249E-2,5.1430673E-3,-6.1369803E-2,-3.462018E-2,2.8015122E-2],"split_indices":[2,1,0,1,1,0,0,3,1,0,0,0,0],"split_type":[0,0,0,0,0,0,0,0,0,0,0,0,0],"sum_hessian":[2.316749E2,2.2950935E2,2.1655338E0,3.4844725E0,2.2602489E2,2.0477657E0,1.4367068E0,1.9338387E2,3.2641014E1,1.8680055E2,6.583319E0,2.3435762E1,9.205251E0],"tree_param":{"num_deleted":"0","num_feature":"4","num_nodes":"13","size_leaf_vector":"1"}},{"base_weights":[-3.956692E-3,-1.2775207E-2,6.696027E-2,-1.07545495E-1,4.6046726E-2,-6.571035E-2,-8.781222E-2,6.052841E-1,2.456402E-2,1.4990513E-2,-1.445576E-2,-1.5711026E-2,8.632867E-2,-8.5305095E-2,7.875337E-3],"categories":[],"categories_nodes":[],"categories_segments":[],"categories_sizes":[],"default_left":[0,0,0,0,0,0,0,0,0,0,0,0,0,0,0],"id":74,"left_children":[1,3,-1,5,7,-1,9,11,13,-1,-1,-1,-1,-1,-1],"loss_changes":[1.3891094E0,1.2893467E0,0E0,9.024563E-1,1.7014935E0,0E0,1.1901634E0,1.1668713E0,6.659661E0,0E0,0E0,0E0,0E0,0E0,0E0],"parents":[2147483647,0,0,1,1,3,3,4,4,6,6,7,7,8,8],"right_children":[2,4,-1,6,8,-1,10,12,14,-1,-1,-1,-1,-1,-1],"split_conditions":[9.5E-1,4.9280734E-3,6.696027E-2,8.802223E-4,3.723057E-1,-6.571035E-2,1.1713755E-3,1.08310105E-2,4.3566296E-1,1.4990513E-2,-1.445576E-2,-1.5711026E-2,8.632867E-2,-8.5305095E-2,7.875337E-3],"split_indices":[2,1,0,1,3,0,1,1,3,0,0,0,0,0,0],"split_type":[0,0,0,0,0,0,0,0,0,0,0,0,0,0,0],"sum_hessian":[2.3142476E2,2.2940236E2,2.022396E0,8.753807E1,1.4186429E2,1.9147362E0,8.562334E1,4.2427115E0,1.3762158E2,1.6183945E1,6.943939E1,1.1716254E0,3.071086E0,7.1460953E0,1.3047548E2],"tree_param":{"num_deleted":"0","num_feature":"4","num_nodes":"15","size_leaf_vector":"1"}},{"base_weights":[-3.6428766E-3,-1.19291255E-2,6.546097E-2,-4.226965E-1,7.784706E-4,-9.60497E-2,-5.666112E-1,2.8161354E-2,-1.5541643E-1,-5.6680292E-2,4.8875883E-2,-7.216984E-2,-1.238498E-3,5.2204314E-3,-5.8569957E-2,-2.2195064E-2,8.1749424E-2],"categories":[],"categories_nodes":[],"categories_segments":[],"categories_sizes":[],"default_left":[0,0,0,0,0,0,0,0,0,0,0,0,0,0,0,0,0],"id":75,"left_children":[1,3,-1,5,7,9,11,13,15,-1,-1,-1,-1,-1,-1,-1,-1],"loss_changes":[1.2686962E0,1.1971151E0,0E0,2.6909053E-1,9.598449E-1,1.1879588E0,3.8413143E-1,2.8483415E0,2.3483589E0,0E0,0E0,0E0,0E0,0E0,0E0,0E0,0E0],"parents":[2147483647,0,0,1,1,3,3,4,4,5,5,6,6,7,7,8,8],"right_children":[2,4,-1,6,8,10,12,14,16,-1,-1,-1,-1,-1,-1,-1,-1],"split_conditions":[9.5E-1,1.0153103E-3,6.546097E-2,4.4872633E-1,4.6149343E-2,4.049641E-1,6.832136E-1,8.981058E-1,8.981058E-1,-5.6680292E-2,4.8875883E-2,-7.216984E-2,-1.238498E-3,5.2204314E-3,-5.8569957E-2,-2.2195064E-2,8.1749424E-2],"split_indices":[2,1,0,3,1,3,3,3,3,0,0,0,0,0,0,0,0],"split_type":[0,0,0,0,0,0,0,0,0,0,0,0,0,0,0,0,0],"sum_hessian":[2.3016693E2,2.2827522E2,1.891708E0,5.8819075E0,2.2239331E2,2.308853E0,3.5730543E0,1.8991806E2,3.247526E1,1.2962222E0,1.0126307E0,2.5557222E0,1.0173321E0,1.8364041E2,6.2776465E0,3.1119003E1,1.3562585E0],"tree_param":{"num_deleted":"0","num_feature":"4","num_nodes":"17","size_leaf_vector":"1"}},{"base_weights":[-3.3932764E-3,-1.1155525E-2,6.396511E-2,-1.4367323E-1,2.7385587E-2,-1.8096301E-1,7.4542366E-2,1.7283355E-1,-5.885968E-2,-2.3191802E-3,-4.3755185E-2,3.9459555E-3,1.2221972E-1,-9.100977E-2,5.45032E-3],"categories":[],"categories_nodes":[],"categories_segments":[],"categories_sizes":[],"default_left":[0,0,0,0,0,0,0,0,0,0,0,0,0,0,0],"id":76,"left_children":[1,3,-1,5,7,9,-1,11,13,-1,-1,-1,-1,-1,-1],"loss_changes":[1.1600742E0,1.1745951E0,0E0,1.8523862E0,2.2481396E0,2.035123E0,0E0,9.28191E0,1.0929129E1,0E0,0E0,0E0,0E0,0E0,0E0],"parents":[2147483647,0,0,1,1,3,3,4,4,5,5,7,7,8,8],"right_children":[2,4,-1,6,8,10,-1,12,14,-1,-1,-1,-1,-1,-1],"split_conditions":[9.5E-1,2.3941135E-3,6.396511E-2,8.504246E-1,5.551927E-1,1.4912718E-3,7.4542366E-2,5.303723E-1,5.898106E-1,-2.3191802E-3,-4.3755185E-2,3.9459555E-3,1.2221972E-1,-9.100977E-2,5.45032E-3],"split_indices":[2,1,0,3,3,1,0,3,3,0,0,0,0,0,0],"split_type":[0,0,0,0,0,0,0,0,0,0,0,0,0,0,0],"sum_hessian":[2.2998172E2,2.2820964E2,1.7720878E0,5.0803116E1,1.7740652E2,4.9522545E1,1.2805697E0,6.566392E1,1.1174261E2,3.1341618E1,1.818093E1,5.9179775E1,6.484139E0,1.2306362E1,9.943624E1],"tree_param":{"num_deleted":"0","num_feature":"4","num_nodes":"15","size_leaf_vector":"1"}},{"base_weights":[-2.6862393E-3,-1.0001961E-2,6.247704E-2,-6.3363306E-2,-2.4379801E-3,-5.0914156E-1,6.592412E-3,-7.942125E-4,-6.7641236E-2,4.1415054E-2,-6.7322515E-4],"categories":[],"categories_nodes":[],"categories_segments":[],"categories_sizes":[],"default_left":[0,0,0,0,0,0,0,0,0,0,0],"id":77,"left_children":[1,3,-1,-1,5,7,9,-1,-1,-1,-1],"loss_changes":[1.060426E0,1.0739179E0,0E0,0E0,1.0386728E0,3.2784176E-1,1.2153695E0,0E0,0E0,0E0,0E0],"parents":[2147483647,0,0,1,1,4,4,5,5,6,6],"right_children":[2,4,-1,-1,6,8,10,-1,-1,-1,-1],"split_conditions":[9.5E-1,8.802223E-4,6.247704E-2,-6.3363306E-2,2.6714566E-1,1.2872776E-3,3.4879163E-1,-7.942125E-4,-6.7641236E-2,4.1415054E-2,-6.7322515E-4],"split_indices":[2,1,0,0,3,1,3,0,0,0,0],"split_type":[0,0,0,0,0,0,0,0,0,0,0],"sum_hessian":[2.2865323E2,2.2699072E2,1.6624995E0,1.7282842E0,2.2526244E2,2.97459E0,2.2228786E2,1.0064397E0,1.9681504E0,6.0850315E0,2.1620282E2],"tree_param":{"num_deleted":"0","num_feature":"4","num_nodes":"11","size_leaf_vector":"1"}},{"base_weights":[-2.5803265E-3,-9.454945E-3,6.09967E-2,-3.9612874E-1,2.03579E-3,-7.9347484E-2,-5.42249E-1,3.6909866E-1,-8.956538E-3,-5.5541452E-2,4.900843E-2,-7.0180915E-2,-8.4195257E-4,3.9122095E-3,8.036393E-2,-4.749385E-2,3.3280518E-4],"categories":[],"categories_nodes":[],"categories_segments":[],"categories_sizes":[],"default_left":[0,0,0,0,0,0,0,0,0,0,0,0,0,0,0,0,0],"id":78,"left_children":[1,3,-1,5,7,9,11,13,15,-1,-1,-1,-1,-1,-1,-1,-1],"loss_changes":[9.7196186E-1,1.0133244E0,0E0,2.6162517E-1,9.0026045E-1,1.1529584E0,3.631364E-1,8.987618E-1,1.2427052E0,0E0,0E0,0E0,0E0,0E0,0E0,0E0,0E0],"parents":[2147483647,0,0,1,1,3,3,4,4,5,5,6,6,7,7,8,8],"right_children":[2,4,-1,6,8,10,12,14,16,-1,-1,-1,-1,-1,-1,-1,-1],"split_conditions":[9.5E-1,1.0153103E-3,6.09967E-2,4.4872633E-1,1.0701079E-3,4.069236E-1,6.832136E-1,1.0543026E-3,3.3180928E-1,-5.5541452E-2,4.900843E-2,-7.0180915E-2,-8.4195257E-4,3.9122095E-3,8.036393E-2,-4.749385E-2,3.3280518E-4],"split_indices":[2,1,0,3,1,3,3,1,3,0,0,0,0,0,0,0,0],"split_type":[0,0,0,0,0,0,0,0,0,0,0,0,0,0,0,0,0],"sum_hessian":[2.2844382E2,2.2688208E2,1.5617331E0,5.581622E0,2.2130046E2,2.248979E0,3.3326428E0,5.4872956E0,2.1581317E2,1.2383156E0,1.0106636E0,2.3234897E0,1.0091532E0,3.7384584E0,1.7488375E0,4.575947E0,2.1123721E2],"tree_param":{"num_deleted":"0","num_feature":"4","num_nodes":"17","size_leaf_vector":"1"}},{"base_weights":[-2.3064392E-3,2.9133972E-2,-1.3085924E-1,-3.7971575E-2,4.6454746E-1,-9.741973E-2,-6.991258E-2,3.9673004E-2,-7.9785556E-1,3.855801E-1,1.023271E-1,-2.923532E-1,1.02154516E-1,-3.379751E-3,6.677994E-2,-8.625931E-2,-3.3645034E-3,5.126634E-2,-5.8521735E-3,-1.812339E-2,-5.991286E-2,-9.950601E-3,3.4781836E-2],"categories":[],"categories_nodes":[],"categories_segments":[],"categories_sizes":[],"default_left":[0,0,0,0,0,0,0,0,0,0,0,0,0,0,0,0,0,0,0,0,0,0,0],"id":79,"left_children":[1,3,5,7,9,-1,11,13,15,17,-1,19,21,-1,-1,-1,-1,-1,-1,-1,-1,-1,-1],"loss_changes":[9.299761E-1,5.4212403E0,2.2557456E0,9.540526E0,6.983962E-1,0E0,1.6849587E0,6.8145843E0,7.1250343E-1,1.3455014E0,0E0,5.4317355E-1,1.2792234E0,0E0,0E0,0E0,0E0,0E0,0E0,0E0,0E0,0E0,0E0],"parents":[2147483647,0,0,1,1,2,2,3,3,4,4,6,6,7,7,8,8,9,9,11,11,12,12],"right_children":[2,4,6,8,10,-1,12,14,16,18,-1,20,22,-1,-1,-1,-1,-1,-1,-1,-1,-1,-1],"split_conditions":[7.15872E-1,6.701502E-1,7.2697586E-1,6.5186155E-1,8.559249E-2,-9.741973E-2,8.959705E-3,6.120183E-1,6.681907E-1,2.3242692E-2,1.023271E-1,8.981058E-1,8.3801436E-1,-3.379751E-3,6.677994E-2,-8.625931E-2,-3.3645034E-3,5.126634E-2,-5.8521735E-3,-1.812339E-2,-5.991286E-2,-9.950601E-3,3.4781836E-2],"split_indices":[3,3,3,3,1,0,1,3,3,1,0,3,3,0,0,0,0,0,0,0,0,0,0],"split_type":[0,0,0,0,0,0,0,0,0,0,0,0,0,0,0,0,0,0,0,0,0,0,0],"sum_hessian":[2.2814902E2,1.8393665E2,4.4212376E1,1.6016495E2,2.377169E1,1.9698949E0,4.224248E1,1.461765E2,1.3988453E1,2.2308783E1,1.4629086E0,1.811943E1,2.412305E1,1.3171616E2,1.4460345E1,1.2777327E1,1.2111268E0,1.7225256E1,5.0835257E0,1.4469207E1,3.6502235E0,1.3574756E1,1.0548295E1],"tree_param":{"num_deleted":"0","num_feature":"4","num_nodes":"23","size_leaf_vector":"1"}},{"base_weights":[-2.4252806E-3,-8.9356145E-3,5.963285E-2,-6.1101742E-2,-2.0412381E-3,-4.7385317E-1,5.848117E-3,-1.188779E-3,-6.4246975E-2,3.9217193E-2,-6.9077476E-4],"categories":[],"categories_nodes":[],"categories_segments":[],"categories_sizes":[],"default_left":[0,0,0,0,0,0,0,0,0,0,0],"id":80,"left_children":[1,3,-1,-1,5,7,9,-1,-1,-1,-1],"loss_changes":[8.970752E-1,9.422278E-1,0E0,0E0,8.4296656E-1,2.8247994E-1,1.1016071E0,0E0,0E0,0E0,0E0],"parents":[2147483647,0,0,1,1,4,4,5,5,6,6],"right_children":[2,4,-1,-1,6,8,10,-1,-1,-1,-1],"split_conditions":[9.5E-1,8.802223E-4,5.963285E-2,-6.1101742E-2,2.6714566E-1,1.3031194E-3,3.4879163E-1,-1.188779E-3,-6.4246975E-2,3.9217193E-2,-6.9077476E-4],"split_indices":[2,1,0,0,3,1,3,0,0,0,0],"split_type":[0,0,0,0,0,0,0,0,0,0,0],"sum_hessian":[2.2776518E2,2.2628978E2,1.4754041E0,1.5698543E0,2.2471992E2,2.7244694E0,2.2199545E2,1.0147688E0,1.7097005E0,6.1449585E0,2.158505E2],"tree_param":{"num_deleted":"0","num_feature":"4","num_nodes":"11","size_leaf_vector":"1"}},{"base_weights":[-2.338733E-3,-1.6768521E-1,1.9920683E-2,4.137062E-3,-6.446402E-1,3.609449E-1,-2.9380968E-2,-2.1327987E-1,8.7335244E-2,3.0263083E-3,-9.207627E-2,-4.468039E-2,8.7629235E-1,-3.7968215E-1,1.7889174E-2,-7.83657E-3,-6.286701E-2,7.04383E-2,-1.6842036E-2,1.6319716E-2,1.0592102E-1,-1.5179738E-2,-9.724471E-2,3.311661E-2,-3.424052E-3],"categories":[],"categories_nodes":[],"categories_segments":[],"categories_sizes":[],"default_left":[0,0,0,0,0,0,0,0,0,0,0,0,0,0,0,0,0,0,0,0,0,0,0,0,0],"id":81,"left_children":[1,3,5,7,9,11,13,15,-1,-1,-1,17,19,21,23,-1,-1,-1,-1,-1,-1,-1,-1,-1,-1],"loss_changes":[8.4470016E-1,2.2341523E0,3.4130456E0,4.1570754E0,1.3729458E0,5.398111E0,2.9498298E0,9.377016E-1,0E0,0E0,0E0,1.5364738E0,1.3062439E0,2.7130084E0,2.584387E0,0E0,0E0,0E0,0E0,0E0,0E0,0E0,0E0,